%YAML:1.0
my_svm: !!opencv-ml-svm
   svm_type: C_SVC
   kernel: { type:RBF, gamma:5.0625000000000009e-01 }
   C: 3.1250000000000000e+02
   term_criteria: { epsilon:1.1920928955078125e-07, iterations:1000 }
   var_all: 470
   var_count: 470
   class_count: 2
   class_labels: !!opencv-matrix
      rows: 1
      cols: 2
      dt: i
      data: [ 0, 1 ]
   sv_total: 296
   support_vectors:
      - [ 9.00000036e-02, 3.58333327e-02, 1.99999996e-02, 1.99999996e-02,
          3.33333341e-03, 3.33333341e-03, 2.58333329e-02, 4.33333330e-02,
          6.08333349e-02, 2.49999994e-03, 5.41666672e-02, 3.33333341e-03,
          1.99999996e-02, 6.66666683e-03, 3.33333341e-03, 1.66666675e-02,
          1.25000002e-02, 8.33333354e-04, 8.33333377e-03, 3.33333351e-02,
          4.83333319e-02, 1.58333331e-02, 6.33333325e-02, 1.66666671e-03,
          1.25000002e-02, 9.99999978e-03, 2.41666660e-02, 1.66666671e-03,
          4.91666682e-02, 1.66666675e-02, 7.83333331e-02, 2.25000009e-02,
          3.16666663e-02, 4.99999989e-03, 1.33333337e-02, 2.74999999e-02,
          5.49999997e-02, 3.33333341e-03, 2.50000004e-02, 2.41666660e-02,
          2.16666665e-02, 2.49999994e-03, 9.66666639e-02, 3.41666676e-02,
          3.66666652e-02, 1.83333326e-02, 3.33333341e-03, 1.66666675e-02,
          2.99999993e-02, 4.58333343e-02, 7.49999983e-03, 2.16666665e-02,
          3.24999988e-02, 6.91666678e-02, 6.66666683e-03, 6.91666678e-02,
          9.99999978e-03, 7.33333305e-02, 1.75000001e-02, 9.16666631e-03,
          1.08333332e-02, 6.66666683e-03, 1.17500000e-01, 9.16666631e-03,
          3.16666663e-02, 3.75000015e-02, 2.91666668e-02, 9.16666631e-03,
          4.16666688e-03, 1.41666671e-02, 2.99999993e-02, 5.83333336e-03,
          4.83333319e-02, 4.33333330e-02, 2.49999994e-03, 3.16666663e-02,
          5.83333336e-03, 2.25000009e-02, 1.49999997e-02, 6.08333349e-02,
          7.49999983e-03, 1.49999997e-02, 1.29166663e-01, 2.91353390e-02,
          1.03383455e-02, 7.51879718e-03, 4.69924789e-03, 9.39849578e-03,
          6.57894742e-03, 1.97368413e-02, 1.22180451e-02, 3.00751887e-02,
          2.06766911e-02, 5.63909765e-03, 5.63909765e-03, 3.57142873e-02,
          4.04135324e-02, 7.51879662e-02, 1.87969916e-02, 8.27067643e-02,
          5.63909765e-03, 2.81954883e-03, 7.61278197e-02, 1.87969916e-02,
          3.75939859e-03, 2.25563906e-02, 8.45864695e-03, 3.57142873e-02,
          4.13533822e-02, 7.51879718e-03, 8.45864695e-03, 1.87969916e-02,
          1.12781953e-02, 5.63909765e-03, 5.63909784e-02, 9.39849648e-04,
          4.69924789e-03, 3.19548883e-02, 2.06766911e-02, 2.63157897e-02,
          2.53759399e-02, 1.50375944e-02, 0., 5.63909784e-02,
          1.97368413e-02, 1.50375944e-02, 3.57142873e-02, 4.22932319e-02,
          6.57894742e-03, 1.22180451e-02, 1.59774441e-02, 1.03383455e-02,
          2.53759399e-02, 4.60526310e-02, 2.06766911e-02, 1.97368413e-02,
          2.81954883e-03, 8.17669183e-02, 1.03383455e-02, 1.78571437e-02,
          6.57894742e-03, 7.98872188e-02, 4.04135324e-02, 2.53759399e-02,
          2.53759399e-02, 6.57894742e-03, 4.69924789e-03, 3.38345878e-02,
          2.81954892e-02, 2.81954892e-02, 4.60526310e-02, 4.60526310e-02,
          1.31578948e-02, 8.45864695e-03, 2.44360901e-02, 1.78571437e-02,
          1.22180451e-02, 2.34962404e-02, 5.07518798e-02, 7.61278197e-02,
          9.77443606e-02, 4.98120300e-02, 0., 4.69924789e-03,
          4.69924789e-03, 1.50375944e-02, 8.45864639e-02, 1.03383455e-02,
          2.16165408e-02, 6.57894742e-03, 6.57894742e-03, 1.31578948e-02,
          2.63157897e-02, 5.63909765e-03, 6.57894742e-03, 3.10150385e-02,
          3.75939859e-03, 1.78571437e-02, 9.39849578e-03, 9.39849578e-03,
          1.12781953e-02, 3.75939859e-03, 2.44360901e-02, 5.34188049e-03,
          5.34188049e-03, 1.70940179e-02, 6.94444478e-02, 1.92307699e-02,
          1.70940179e-02, 1.70940179e-02, 2.13675224e-03, 1.60256419e-02,
          2.13675220e-02, 2.13675220e-02, 2.77777780e-02, 4.91452999e-02,
          1.06837612e-03, 2.45726500e-02, 7.47863250e-03, 1.28205130e-02,
          5.87606840e-02, 3.20512825e-03, 2.13675224e-03, 6.41025649e-03,
          1.60256419e-02, 9.61538497e-03, 2.13675220e-02, 1.06837612e-03,
          1.60256419e-02, 1.70940179e-02, 2.13675224e-03, 1.70940179e-02,
          2.02991460e-02, 6.41025649e-03, 4.27350448e-03, 4.27350448e-03,
          1.17521370e-02, 9.61538497e-03, 0., 1.06837610e-02,
          3.20512825e-03, 4.70085479e-02, 3.20512825e-03, 6.41025649e-03,
          1.17521370e-02, 1.28205130e-02, 1.17521370e-02, 7.47863250e-03,
          2.02991460e-02, 5.34188049e-03, 1.06837610e-02, 3.20512839e-02,
          4.27350448e-03, 3.63247879e-02, 1.38888890e-02, 1.49572650e-02,
          1.06837610e-02, 2.02991460e-02, 1.28205130e-02, 2.24358980e-02,
          1.70940179e-02, 1.06837610e-02, 1.92307699e-02, 1.70940179e-02,
          1.17521370e-02, 6.73076957e-02, 1.49572650e-02, 1.06837612e-03,
          2.13675224e-03, 1.92307699e-02, 3.63247879e-02, 1.17521370e-02,
          1.70940179e-02, 1.38888890e-02, 1.38888890e-02, 1.49572650e-02,
          1.81623939e-02, 4.48717959e-02, 2.67094020e-02, 1.28205130e-02,
          1.81623939e-02, 2.24358980e-02, 1.60256419e-02, 7.47863250e-03,
          1.49572650e-02, 2.67094020e-02, 1.38888890e-02, 4.27350448e-03,
          1.28205130e-02, 2.56410260e-02, 3.20512825e-03, 5.44871800e-02,
          1.38888890e-02, 2.02991460e-02, 1.60256419e-02, 1.14316240e-01,
          5.76923080e-02, 5.34188049e-03, 9.61538497e-03, 9.80392192e-03,
          1.10294120e-02, 3.67647060e-03, 4.90196096e-03, 1.71568636e-02,
          2.32843142e-02, 8.57843179e-03, 1.83823537e-02, 1.22549022e-02,
          8.57843179e-03, 2.45098048e-03, 2.32843142e-02, 7.35294120e-03,
          6.12745108e-03, 1.22549024e-03, 1.10294120e-02, 6.12745108e-03,
          1.47058824e-02, 1.22549022e-02, 8.57843179e-03, 5.14705889e-02,
          1.71568636e-02, 1.22549024e-03, 8.57843179e-03, 3.18627469e-02,
          1.59313735e-02, 7.35294120e-03, 1.10294120e-02, 2.45098048e-03,
          9.80392192e-03, 7.35294120e-03, 1.22549022e-02, 7.10784346e-02,
          2.08333340e-02, 0., 7.35294120e-03, 1.22549024e-03,
          4.90196096e-03, 3.67647060e-03, 2.45098040e-01, 6.12745108e-03,
          1.47058824e-02, 2.81862747e-02, 4.04411778e-02, 1.22549024e-03,
          1.22549022e-02, 1.59313735e-02, 4.90196096e-03, 1.22549024e-03,
          2.20588241e-02, 4.28921580e-02, 2.20588241e-02, 2.45098043e-02,
          1.10294120e-02, 9.80392192e-03, 8.57843179e-03, 5.51470593e-02,
          1.59313735e-02, 1.22549024e-03, 3.67647060e-03, 1.83823537e-02,
          2.20588241e-02, 2.27941170e-01, 3.30882370e-02, 7.35294120e-03,
          1.10294120e-02, 2.57352944e-02, 3.06372549e-02, 1.59313735e-02,
          3.67647060e-03, 2.57352944e-02, 2.08333340e-02, 1.96078438e-02,
          4.90196096e-03, 1.22549024e-03, 2.20588241e-02, 4.77941185e-02,
          1.96078438e-02, 4.90196096e-03, 3.67647060e-03, 1.34803923e-02,
          2.13235289e-01, 4.16666679e-02, 2.45098048e-03, 6.12745108e-03,
          6.12745108e-03, 2.81862747e-02, 1.71568636e-02, 2.45098048e-03,
          3.43137272e-02, 3.67647060e-03, 9.80392192e-03, 1.98863633e-02,
          5.68181835e-03, 2.84090918e-03, 4.26136376e-03, 0.,
          2.41477266e-02, 9.94318165e-03, 7.10227294e-03, 1.27840908e-02,
          4.26136376e-03, 1.42045459e-03, 1.84659082e-02, 2.85511374e-01,
          8.52272753e-03, 1.27840908e-02, 8.52272753e-03, 0.,
          1.09375000e-01, 1.27840908e-02, 2.84090918e-03, 2.84090918e-03,
          4.26136376e-03, 2.55681816e-02, 9.94318165e-03, 2.84090918e-03,
          1.42045459e-03, 1.13636367e-02, 1.42045459e-03, 1.42045459e-03,
          2.84090918e-03, 1.13636367e-02, 1.98863633e-02, 1.56250000e-02,
          0., 0., 0., 1.70454551e-02, 2.84090918e-03, 2.84090918e-03,
          6.10795468e-02, 1.42045459e-03, 4.26136376e-03, 2.41477266e-02,
          7.10227294e-03, 8.09659064e-02, 0., 8.52272753e-03,
          9.94318165e-03, 4.26136376e-03, 1.27840908e-02, 2.84090918e-02,
          1.84659082e-02, 4.54545468e-02, 7.10227294e-03, 1.56250000e-02,
          1.56250000e-02, 1.13636367e-02, 2.13068184e-02, 7.10227294e-03,
          3.55113633e-02, 2.55681816e-02, 2.55681816e-02, 1.56250000e-02,
          1.42045459e-03, 4.26136376e-03, 1.42045459e-03, 9.94318165e-03,
          9.09090936e-02, 5.25568165e-02, 8.52272753e-03, 4.40340899e-02,
          4.26136376e-03, 3.55113633e-02, 1.13636367e-02, 8.52272753e-03,
          2.84090918e-02, 1.56250000e-02, 1.98863633e-02, 1.84659082e-02,
          2.13068184e-02, 5.68181835e-03, 7.10227294e-03, 2.69886367e-02,
          1.84659082e-02, 1.10795453e-01, 1.70454551e-02, 1.70454551e-02,
          3.40909101e-02, 0., 4.40340899e-02, 1.70454551e-02,
          7.10227294e-03, 4.26136376e-03, 3.69318165e-02, 7.10227294e-03,
          7.10227294e-03, 5.68181835e-03, 4.82954532e-02, 5.68181835e-02 ]
      - [ 7.99999982e-02, 2.91666668e-02, 6.75000027e-02, 1.41666671e-02,
          1.66666671e-03, 4.16666688e-03, 1.91666670e-02, 3.33333351e-02,
          6.33333325e-02, 2.49999994e-03, 4.66666669e-02, 4.16666688e-03,
          1.58333331e-02, 2.49999994e-03, 8.33333354e-04, 1.58333331e-02,
          2.58333329e-02, 3.33333341e-03, 1.83333326e-02, 3.16666663e-02,
          6.49999976e-02, 1.25000002e-02, 5.49999997e-02, 0.,
          2.08333340e-02, 7.49999983e-03, 1.33333337e-02, 1.66666671e-03,
          3.91666666e-02, 8.33333377e-03, 7.83333331e-02, 3.91666666e-02,
          1.41666671e-02, 2.49999994e-03, 1.83333326e-02, 2.33333334e-02,
          6.66666701e-02, 8.33333377e-03, 4.50000018e-02, 1.83333326e-02,
          2.58333329e-02, 1.66666671e-03, 7.75000006e-02, 1.99999996e-02,
          6.66666683e-03, 1.49999997e-02, 3.33333341e-03, 6.66666683e-03,
          6.25000000e-02, 9.99999978e-03, 3.33333341e-03, 9.16666631e-03,
          3.75000015e-02, 6.91666678e-02, 3.33333341e-03, 6.16666675e-02,
          4.99999989e-03, 9.00000036e-02, 1.49999997e-02, 3.33333341e-03,
          1.56666666e-01, 7.49999983e-03, 1.30833328e-01, 6.66666683e-03,
          5.75000010e-02, 4.50000018e-02, 3.16666663e-02, 1.08333332e-02,
          1.91666670e-02, 1.33333337e-02, 5.00000007e-02, 9.16666631e-03,
          1.21666670e-01, 9.16666687e-02, 8.33333354e-04, 2.66666673e-02,
          4.16666688e-03, 3.50000001e-02, 5.83333336e-03, 1.37500003e-01,
          4.16666688e-03, 2.08333340e-02, 1.00000001e-01, 3.57142873e-02,
          2.06766911e-02, 2.81954883e-03, 3.75939859e-03, 4.41729315e-02,
          2.81954883e-03, 1.03383455e-02, 1.03383455e-02, 2.72556394e-02,
          1.03383455e-02, 9.39849648e-04, 7.51879718e-03, 3.94736826e-02,
          4.22932319e-02, 5.35714291e-02, 2.63157897e-02, 1.38157889e-01,
          1.87969930e-03, 1.59774441e-02, 5.63909784e-02, 2.81954892e-02,
          1.87969916e-02, 3.28947380e-02, 4.69924789e-03, 4.51127812e-02,
          3.75939831e-02, 2.81954883e-03, 9.39849648e-04, 1.40977446e-02,
          9.39849578e-03, 1.31578948e-02, 8.83458629e-02, 0.,
          4.69924789e-03, 1.69172939e-02, 1.59774441e-02, 2.91353390e-02,
          3.10150385e-02, 1.40977446e-02, 0., 4.69924789e-03,
          1.40977446e-02, 1.69172939e-02, 3.38345878e-02, 4.13533822e-02,
          1.12781953e-02, 6.57894742e-03, 3.00751887e-02, 1.03383455e-02,
          2.72556394e-02, 2.63157897e-02, 1.31578948e-02, 1.40977446e-02,
          1.31578948e-02, 6.67293221e-02, 5.63909765e-03, 1.03383455e-02,
          9.39849648e-04, 4.32330817e-02, 2.16165408e-02, 1.40977446e-02,
          2.44360901e-02, 8.45864695e-03, 1.78571437e-02, 2.44360901e-02,
          3.28947380e-02, 8.08270648e-02, 3.57142873e-02, 7.89473653e-02,
          1.22180451e-02, 2.81954883e-03, 2.81954892e-02, 1.12781953e-02,
          3.75939859e-03, 0., 3.28947380e-02, 1.33458644e-01,
          1.42857149e-01, 2.25563914e-01, 0., 3.75939859e-03,
          9.39849648e-04, 5.63909765e-03, 3.00751887e-02, 3.75939859e-03,
          7.51879718e-03, 5.63909765e-03, 1.87969930e-03, 2.44360901e-02,
          9.58646610e-02, 3.75939859e-03, 3.75939859e-03, 5.16917296e-02,
          9.39849648e-04, 2.44360901e-02, 0., 3.75939859e-03,
          7.51879718e-03, 9.39849648e-04, 1.87969916e-02, 2.13675224e-03,
          6.41025649e-03, 2.13675224e-03, 5.66239320e-02, 3.63247879e-02,
          1.60256419e-02, 3.73931639e-02, 3.20512825e-03, 1.06837610e-02,
          2.56410260e-02, 3.63247879e-02, 4.27350439e-02, 1.70940179e-02,
          1.17521370e-02, 5.02136759e-02, 1.06837612e-03, 1.81623939e-02,
          3.20512825e-03, 2.13675224e-03, 3.41880359e-02, 4.27350448e-03,
          3.41880359e-02, 9.61538497e-03, 2.77777780e-02, 2.02991460e-02,
          2.35042740e-02, 2.67094020e-02, 3.20512825e-03, 2.13675220e-02,
          1.81623939e-02, 7.47863250e-03, 6.41025649e-03, 0.,
          6.41025649e-03, 4.27350448e-03, 1.38888890e-02, 9.61538497e-03,
          7.47863250e-03, 2.02991460e-02, 6.41025649e-03, 2.24358980e-02,
          2.13675220e-02, 1.92307699e-02, 9.61538497e-03, 2.13675220e-02,
          2.13675220e-02, 1.06837612e-03, 8.54700897e-03, 2.67094020e-02,
          2.45726500e-02, 1.28205130e-02, 3.20512825e-03, 9.61538497e-03,
          2.88461540e-02, 5.76923080e-02, 1.38888890e-02, 1.92307699e-02,
          9.61538497e-03, 3.63247879e-02, 7.47863250e-03, 1.60256419e-02,
          1.28205130e-02, 5.44871800e-02, 6.41025649e-03, 2.24358980e-02,
          1.70940179e-02, 5.44871800e-02, 3.31196599e-02, 7.47863250e-03,
          1.92307699e-02, 5.34188049e-03, 7.47863250e-03, 1.17521370e-02,
          2.02991460e-02, 4.38034199e-02, 2.77777780e-02, 4.27350448e-03,
          3.20512825e-03, 0., 1.06837612e-03, 3.20512825e-03,
          2.77777780e-02, 2.24358980e-02, 1.06837610e-02, 2.13675224e-03,
          2.13675220e-02, 3.20512839e-02, 3.20512825e-03, 6.30341917e-02,
          0., 1.81623939e-02, 2.02991460e-02, 8.01282078e-02,
          4.80769239e-02, 2.67094020e-02, 2.13675224e-03, 9.80392192e-03,
          1.22549022e-02, 6.12745108e-03, 0., 8.57843179e-03,
          1.71568636e-02, 1.59313735e-02, 3.06372549e-02, 4.16666679e-02,
          7.35294120e-03, 0., 2.20588241e-02, 2.94117648e-02,
          1.34803923e-02, 1.96078438e-02, 6.12745108e-03, 1.59313735e-02,
          0., 0., 2.45098048e-03, 0., 1.71568636e-02, 0., 9.80392192e-03,
          1.59313735e-02, 1.22549024e-03, 1.47058824e-02, 1.22549022e-02,
          1.47058824e-02, 2.57352944e-02, 9.80392192e-03, 5.26960790e-02,
          3.92156877e-02, 3.67647074e-02, 1.22549024e-03, 0.,
          2.45098048e-03, 1.22549024e-03, 6.12745108e-03, 1.58088237e-01,
          3.67647060e-03, 6.12745108e-03, 3.67647060e-03, 1.96078438e-02,
          2.32843142e-02, 2.20588241e-02, 1.71568636e-02, 0.,
          1.22549024e-03, 2.08333340e-02, 1.47058824e-02, 1.34803923e-02,
          2.69607846e-02, 1.83823537e-02, 8.57843179e-03, 1.10294120e-02,
          4.90196086e-02, 8.57843179e-03, 2.45098048e-03, 6.12745108e-03,
          3.79901975e-02, 3.06372549e-02, 1.54411763e-01, 2.20588241e-02,
          1.10294120e-02, 4.90196096e-03, 2.08333340e-02, 3.55392173e-02,
          3.67647074e-02, 1.22549024e-03, 0., 0., 1.22549024e-03,
          1.12745099e-01, 0., 4.90196096e-03, 8.08823556e-02,
          1.47058824e-02, 6.12745108e-03, 8.57843179e-03, 4.90196086e-02,
          1.36029407e-01, 2.32843142e-02, 0., 0., 1.96078438e-02,
          4.04411778e-02, 1.10294120e-02, 7.35294120e-03, 3.79901975e-02,
          0., 2.45098048e-03, 1.42045459e-03, 1.02272727e-01,
          9.94318165e-03, 9.94318165e-03, 5.68181835e-03, 1.42045459e-03,
          2.84090918e-03, 1.42045459e-03, 2.41477266e-02, 1.42045459e-03,
          0., 3.40909101e-02, 1.20738633e-01, 1.27840908e-02,
          4.11931835e-02, 1.42045459e-02, 2.27272734e-02, 1.84659082e-02,
          2.84090918e-03, 0., 1.47727266e-01, 0., 4.54545468e-02,
          1.56250000e-02, 2.84090918e-03, 1.27840908e-02, 3.12500000e-02,
          1.42045459e-02, 0., 5.68181835e-03, 4.26136376e-03,
          3.69318165e-02, 3.55113633e-02, 0., 0., 0., 7.10227294e-03,
          1.42045459e-03, 0., 4.40340899e-02, 0., 1.42045459e-03,
          7.10227294e-03, 0., 4.26136367e-02, 8.52272753e-03,
          1.56250000e-02, 1.70454551e-02, 1.42045459e-03, 1.56250000e-02,
          1.42045459e-02, 1.42045459e-02, 2.41477266e-02, 2.98295449e-02,
          1.42045459e-02, 0., 1.42045459e-03, 7.10227294e-03, 0.,
          3.40909101e-02, 8.52272753e-03, 0., 1.13636367e-02,
          2.84090918e-03, 3.26704532e-02, 2.84090918e-03, 2.69886367e-02,
          3.55113633e-02, 6.81818202e-02, 5.68181835e-03, 9.94318165e-03,
          3.55113633e-02, 2.55681816e-02, 1.27840908e-02, 1.84659082e-02,
          1.84659082e-02, 4.68750000e-02, 2.13068184e-02, 2.41477266e-02,
          1.27840908e-02, 2.84090918e-03, 1.70454551e-02, 4.97159101e-02,
          4.26136376e-03, 2.13068184e-02, 1.13636367e-02, 0.,
          3.97727266e-02, 5.68181835e-03, 3.12500000e-02, 0.,
          2.13068184e-02, 7.10227294e-03, 3.55113633e-02, 0.,
          2.84090918e-03, 4.26136376e-03, 2.69886367e-02, 2.98295449e-02 ]
      - [ 2.58333329e-02, 4.25000004e-02, 4.91666682e-02, 3.99999991e-02,
          2.49999994e-03, 2.49999994e-03, 1.99999996e-02, 5.66666685e-02,
          6.49999976e-02, 8.33333354e-04, 5.49999997e-02, 4.99999989e-03,
          1.08333332e-02, 1.16666667e-02, 3.33333341e-03, 1.75000001e-02,
          3.33333351e-02, 4.99999989e-03, 5.83333336e-03, 4.66666669e-02,
          1.12499997e-01, 2.41666660e-02, 3.58333327e-02, 0.,
          7.49999983e-03, 6.66666683e-03, 3.33333341e-03, 2.49999994e-03,
          8.50000009e-02, 9.99999978e-03, 9.58333313e-02, 1.66666675e-02,
          1.33333337e-02, 1.66666671e-03, 1.41666671e-02, 2.58333329e-02,
          9.00000036e-02, 6.66666683e-03, 4.50000018e-02, 1.08333332e-02,
          4.41666655e-02, 8.33333354e-04, 4.83333319e-02, 3.16666663e-02,
          1.41666671e-02, 9.16666631e-03, 2.49999994e-03, 1.58333331e-02,
          3.58333327e-02, 2.99999993e-02, 8.33333354e-04, 8.33333377e-03,
          1.99999996e-02, 1.38333336e-01, 1.08333332e-02, 5.75000010e-02,
          1.08333332e-02, 2.91666668e-02, 5.83333336e-03, 4.16666688e-03,
          1.70833334e-01, 8.33333377e-03, 7.08333328e-02, 1.25000002e-02,
          9.66666639e-02, 4.91666682e-02, 3.33333351e-02, 7.49999983e-03,
          1.08333332e-02, 1.41666671e-02, 2.83333343e-02, 6.66666683e-03,
          6.49999976e-02, 1.31666660e-01, 1.66666671e-03, 2.08333340e-02,
          4.16666688e-03, 3.33333351e-02, 1.66666675e-02, 7.50000030e-02,
          4.16666688e-03, 2.66666673e-02, 4.83333319e-02, 1.59774441e-02,
          1.59774441e-02, 4.69924789e-03, 3.75939859e-03, 3.47744375e-02,
          4.69924789e-03, 8.45864695e-03, 8.45864695e-03, 2.63157897e-02,
          1.40977446e-02, 1.87969930e-03, 1.22180451e-02, 5.54511286e-02,
          5.63909784e-02, 3.00751887e-02, 2.06766911e-02, 7.23684207e-02,
          2.81954883e-03, 5.63909765e-03, 8.36466178e-02, 1.50375944e-02,
          1.22180451e-02, 6.29699230e-02, 3.75939859e-03, 9.02255625e-02,
          2.72556394e-02, 2.81954883e-03, 3.75939859e-03, 1.59774441e-02,
          1.59774441e-02, 1.97368413e-02, 1.57894731e-01, 4.69924789e-03,
          9.39849578e-03, 1.78571437e-02, 1.40977446e-02, 2.91353390e-02,
          2.16165408e-02, 2.81954883e-03, 3.75939859e-03, 2.53759399e-02,
          1.69172939e-02, 2.16165408e-02, 4.79323305e-02, 7.14285746e-02,
          1.59774441e-02, 6.57894742e-03, 3.19548883e-02, 0.,
          8.45864639e-02, 3.10150385e-02, 1.87969930e-03, 1.78571437e-02,
          2.81954883e-03, 4.22932319e-02, 6.57894742e-03, 6.57894742e-03,
          3.75939859e-03, 7.04887211e-02, 3.47744375e-02, 4.69924789e-03,
          6.57894742e-03, 5.63909765e-03, 1.40977446e-02, 3.10150385e-02,
          6.29699230e-02, 4.22932319e-02, 2.44360901e-02, 5.45112789e-02,
          2.25563906e-02, 5.63909765e-03, 1.78571437e-02, 1.31578948e-02,
          7.51879718e-03, 3.75939831e-02, 2.06766911e-02, 2.53759399e-02,
          2.12406009e-01, 6.01503775e-02, 1.87969930e-03, 1.40977446e-02,
          3.75939859e-03, 1.87969930e-03, 4.98120300e-02, 7.51879718e-03,
          1.03383455e-02, 6.57894742e-03, 5.63909765e-03, 9.39849578e-03,
          3.19548883e-02, 6.57894742e-03, 4.69924789e-03, 4.88721803e-02,
          0., 1.97368413e-02, 7.51879718e-03, 5.63909765e-03,
          5.63909765e-03, 0., 2.53759399e-02, 1.28205130e-02,
          4.27350448e-03, 1.92307699e-02, 5.23504280e-02, 1.17521370e-02,
          2.13675224e-03, 4.27350439e-02, 0., 8.54700897e-03,
          2.99145300e-02, 4.38034199e-02, 4.70085479e-02, 2.35042740e-02,
          2.13675220e-02, 2.99145300e-02, 1.06837612e-03, 1.28205130e-02,
          4.59401719e-02, 6.41025649e-03, 2.67094020e-02, 1.28205130e-02,
          5.76923080e-02, 8.54700897e-03, 6.51709437e-02, 2.35042740e-02,
          1.06837612e-03, 1.81623939e-02, 0., 1.17521370e-02,
          1.17521370e-02, 6.41025649e-03, 1.92307699e-02, 0.,
          7.47863250e-03, 3.20512825e-03, 0., 2.88461540e-02,
          8.54700897e-03, 2.45726500e-02, 3.20512825e-03, 1.92307699e-02,
          2.77777780e-02, 7.47863250e-03, 1.06837610e-02, 5.34188049e-03,
          5.34188049e-03, 2.13675224e-03, 1.60256419e-02, 5.02136759e-02,
          4.27350439e-02, 2.13675220e-02, 4.27350448e-03, 4.27350448e-03,
          1.92307699e-02, 3.41880359e-02, 7.26495758e-02, 1.28205130e-02,
          5.34188049e-03, 8.54700897e-03, 1.81623939e-02, 3.63247879e-02,
          1.92307699e-02, 2.99145300e-02, 3.20512825e-03, 1.06837610e-02,
          8.54700897e-03, 1.55982912e-01, 3.95299159e-02, 3.20512825e-03,
          3.41880359e-02, 0., 5.34188049e-03, 1.06837612e-03,
          1.49572650e-02, 1.23931624e-01, 1.92307699e-02, 2.13675224e-03,
          3.20512825e-03, 1.70940179e-02, 8.54700897e-03, 8.54700897e-03,
          3.41880359e-02, 5.98290600e-02, 1.81623939e-02, 1.28205130e-02,
          2.02991460e-02, 2.13675224e-03, 5.34188049e-03, 6.30341917e-02,
          1.06837612e-03, 1.49572650e-02, 1.38888890e-02, 6.51709437e-02,
          8.86752158e-02, 4.05982919e-02, 2.67094020e-02, 2.08333340e-02,
          1.10294120e-02, 7.35294120e-03, 1.22549024e-03, 0.,
          8.57843179e-03, 2.81862747e-02, 2.32843142e-02, 5.63725494e-02,
          4.90196096e-03, 3.67647060e-03, 3.30882370e-02, 9.80392192e-03,
          7.35294120e-03, 3.67647060e-03, 0., 1.22549024e-03,
          2.20588241e-02, 0., 0., 3.92156877e-02, 2.45098048e-03,
          6.12745108e-03, 0., 7.35294120e-03, 4.90196096e-03,
          1.22549022e-02, 5.26960790e-02, 2.32843142e-02, 8.57843179e-03,
          2.45098048e-03, 2.20588241e-02, 6.12745108e-03, 2.94117648e-02,
          9.80392192e-03, 8.57843179e-03, 0., 2.45098048e-03,
          4.90196096e-03, 1.45833328e-01, 1.22549024e-03, 3.67647060e-03,
          1.71568636e-02, 6.25000000e-02, 1.34803923e-02, 3.67647060e-03,
          7.35294120e-03, 0., 0., 4.16666679e-02, 1.34803923e-02,
          2.45098043e-02, 1.59313735e-02, 9.80392192e-03, 1.96078438e-02,
          1.83823537e-02, 2.57352944e-02, 1.59313735e-02, 4.90196096e-03,
          4.90196096e-03, 4.04411778e-02, 1.71568636e-02, 2.07107842e-01,
          1.83823537e-02, 2.45098043e-02, 1.34803923e-02, 7.96568617e-02,
          9.68137234e-02, 1.22549022e-02, 9.80392192e-03, 2.45098048e-03,
          1.22549022e-02, 0., 1.49509802e-01, 0., 3.06372549e-02,
          5.39215691e-02, 3.18627469e-02, 3.92156877e-02, 1.22549024e-03,
          7.35294120e-03, 6.98529407e-02, 2.08333340e-02, 0., 0.,
          1.59313735e-02, 2.94117648e-02, 6.12745108e-03, 1.22549022e-02,
          3.30882370e-02, 6.12745108e-03, 2.57352944e-02, 2.84090918e-02,
          7.10227266e-02, 8.52272753e-03, 7.10227294e-03, 9.94318165e-03,
          1.70454551e-02, 8.52272753e-03, 0., 2.41477266e-02, 0., 0.,
          7.81250000e-02, 1.42045453e-01, 5.68181835e-03, 3.55113633e-02,
          9.94318165e-03, 7.10227294e-03, 3.97727266e-02, 4.26136376e-03,
          0., 6.53409064e-02, 0., 0., 1.13636367e-02, 9.94318165e-03,
          4.82954532e-02, 4.26136376e-03, 5.68181835e-03, 9.94318165e-03,
          3.26704532e-02, 8.52272753e-03, 1.00852273e-01, 2.69886367e-02,
          7.10227294e-03, 0., 0., 1.13636367e-02, 2.84090918e-03,
          2.84090918e-03, 3.97727266e-02, 2.84090918e-03, 0.,
          2.84090918e-03, 2.84090918e-03, 3.97727266e-02, 1.27840908e-02,
          1.42045459e-03, 2.84090918e-02, 2.84090918e-03, 7.10227294e-03,
          2.13068184e-02, 6.10795468e-02, 4.26136367e-02, 1.42045459e-02,
          1.98863633e-02, 5.68181835e-03, 0., 1.27840908e-02,
          4.26136376e-03, 2.55681816e-02, 1.42045459e-02, 0.,
          1.42045459e-02, 1.70454551e-02, 4.11931835e-02, 0.,
          1.13636367e-02, 4.40340899e-02, 7.10227266e-02, 1.42045459e-02,
          1.13636367e-02, 1.42045459e-03, 7.10227294e-03, 4.26136376e-03,
          2.27272734e-02, 8.80681798e-02, 1.42045459e-02, 3.26704532e-02,
          4.54545468e-02, 2.27272734e-02, 2.13068184e-02, 0.,
          1.23579547e-01, 2.69886367e-02, 4.26136376e-03, 1.56250000e-02,
          1.42045459e-03, 4.11931835e-02, 0., 2.84090918e-03,
          1.98863633e-02, 1.98863633e-02, 7.10227294e-03, 3.97727266e-02,
          2.41477266e-02, 0., 0., 1.70454551e-02, 2.84090918e-02 ]
      - [ 7.24999979e-02, 5.16666658e-02, 5.66666685e-02, 3.50000001e-02,
          1.66666671e-03, 2.49999994e-03, 2.66666673e-02, 3.58333327e-02,
          5.24999984e-02, 1.66666671e-03, 6.66666701e-02, 0.,
          8.33333377e-03, 5.83333336e-03, 4.99999989e-03, 1.83333326e-02,
          5.16666658e-02, 3.33333341e-03, 1.83333326e-02, 5.08333333e-02,
          4.08333316e-02, 1.66666675e-02, 6.08333349e-02, 0.,
          1.25000002e-02, 1.16666667e-02, 1.91666670e-02, 4.16666688e-03,
          4.41666655e-02, 1.58333331e-02, 9.16666687e-02, 1.75000001e-02,
          3.99999991e-02, 4.99999989e-03, 2.41666660e-02, 3.83333340e-02,
          6.08333349e-02, 2.49999994e-03, 4.16666679e-02, 1.58333331e-02,
          2.83333343e-02, 8.33333354e-04, 8.08333308e-02, 5.99999987e-02,
          2.74999999e-02, 3.24999988e-02, 1.66666671e-03, 1.25000002e-02,
          2.74999999e-02, 1.99999996e-02, 1.66666671e-03, 2.33333334e-02,
          5.24999984e-02, 9.83333364e-02, 1.16666667e-02, 3.58333327e-02,
          1.83333326e-02, 1.04166664e-01, 4.16666688e-03, 2.49999994e-03,
          3.24999988e-02, 1.16666667e-02, 1.39166668e-01, 4.16666688e-03,
          4.66666669e-02, 3.66666652e-02, 6.41666651e-02, 7.49999983e-03,
          4.99999989e-03, 1.75000001e-02, 3.33333351e-02, 8.33333377e-03,
          9.33333337e-02, 9.33333337e-02, 1.66666671e-03, 2.16666665e-02,
          2.49999994e-03, 2.74999999e-02, 1.33333337e-02, 6.91666678e-02,
          3.33333341e-03, 1.66666675e-02, 1.23333335e-01, 1.50375944e-02,
          2.81954892e-02, 9.39849648e-04, 4.69924789e-03, 6.20300770e-02,
          3.75939859e-03, 1.03383455e-02, 3.75939859e-03, 4.04135324e-02,
          8.45864695e-03, 4.69924789e-03, 7.51879718e-03, 2.72556394e-02,
          3.66541371e-02, 1.01503760e-01, 1.12781953e-02, 4.88721803e-02,
          4.69924789e-03, 1.03383455e-02, 6.29699230e-02, 1.50375944e-02,
          1.03383455e-02, 6.29699230e-02, 9.39849578e-03, 3.57142873e-02,
          4.60526310e-02, 0., 1.03383455e-02, 1.12781953e-02,
          1.03383455e-02, 1.03383455e-02, 8.27067643e-02, 2.81954883e-03,
          2.81954883e-03, 1.03383455e-02, 1.12781953e-02, 3.00751887e-02,
          4.51127812e-02, 6.57894742e-03, 1.03383455e-02, 2.63157897e-02,
          1.97368413e-02, 3.75939831e-02, 1.87969916e-02, 3.85338329e-02,
          2.81954883e-03, 1.03383455e-02, 2.44360901e-02, 1.87969930e-03,
          0., 2.06766911e-02, 5.63909765e-03, 2.25563906e-02,
          4.69924789e-03, 7.70676658e-02, 0., 0., 0., 2.53759399e-02,
          3.94736826e-02, 5.63909765e-03, 8.45864695e-03, 1.87969930e-03,
          2.34962404e-02, 3.38345878e-02, 1.59774441e-02, 5.35714291e-02,
          4.88721803e-02, 1.20300755e-01, 8.45864695e-03, 8.45864695e-03,
          4.22932319e-02, 7.51879718e-03, 2.81954883e-03, 1.78571437e-02,
          1.12781953e-02, 9.11654159e-02, 2.40601510e-01, 1.50375932e-01,
          0., 1.40977446e-02, 0., 6.57894742e-03, 4.13533822e-02,
          3.75939859e-03, 3.75939859e-03, 6.57894742e-03, 4.69924789e-03,
          1.50375944e-02, 1.10902257e-01, 4.69924789e-03, 7.51879718e-03,
          4.51127812e-02, 0., 1.78571437e-02, 9.39849648e-04,
          3.75939859e-03, 2.16165408e-02, 0., 3.19548883e-02,
          1.60256419e-02, 0., 6.41025649e-03, 4.27350439e-02,
          1.06837612e-03, 2.13675224e-03, 3.63247879e-02, 7.47863250e-03,
          4.27350448e-03, 3.84615399e-02, 3.31196599e-02, 9.61538497e-03,
          2.67094020e-02, 4.05982919e-02, 2.88461540e-02, 2.13675224e-03,
          3.20512825e-03, 2.13675224e-03, 9.61538497e-03, 4.38034199e-02,
          1.17521370e-02, 6.51709437e-02, 1.28205130e-02, 2.35042740e-02,
          5.34188049e-03, 1.60256419e-02, 3.73931639e-02, 2.13675224e-03,
          1.17521370e-02, 1.06837610e-02, 1.06837612e-03, 9.61538497e-03,
          9.61538497e-03, 7.47863250e-03, 4.27350448e-03, 6.41025649e-03,
          2.13675224e-03, 8.54700897e-03, 6.41025649e-03, 1.28205130e-02,
          2.35042740e-02, 5.34188049e-03, 8.54700897e-03, 4.27350439e-02,
          9.61538497e-03, 1.38888890e-02, 1.06837610e-02, 5.34188049e-03,
          2.56410260e-02, 1.81623939e-02, 2.13675224e-03, 4.27350448e-03,
          1.06837610e-02, 1.06837610e-02, 6.30341917e-02, 0.,
          1.06837610e-02, 5.34188049e-03, 5.02136759e-02, 2.56410260e-02,
          5.02136759e-02, 0., 7.05128238e-02, 0., 1.17521370e-02,
          1.06837610e-02, 1.53846160e-01, 5.44871800e-02, 3.20512825e-03,
          7.47863250e-03, 1.06837612e-03, 3.20512825e-03, 0.,
          3.52564119e-02, 8.76068398e-02, 2.45726500e-02, 1.06837612e-03,
          2.13675220e-02, 5.34188049e-03, 0., 1.06837612e-03,
          2.88461540e-02, 2.45726500e-02, 2.13675224e-03, 0.,
          7.47863250e-03, 6.41025649e-03, 9.61538497e-03, 2.77777780e-02,
          0., 1.81623939e-02, 2.56410260e-02, 6.51709437e-02,
          8.54700878e-02, 2.77777780e-02, 9.61538497e-03, 2.08333340e-02,
          2.45098048e-03, 0., 2.45098048e-03, 8.57843179e-03,
          1.22549022e-02, 0., 3.18627469e-02, 4.28921580e-02,
          1.59313735e-02, 4.90196096e-03, 2.45098048e-03, 4.90196096e-03,
          2.45098048e-03, 0., 2.45098048e-03, 9.80392192e-03,
          3.67647060e-03, 1.22549024e-03, 1.22549024e-03, 0.,
          4.90196096e-03, 1.22549022e-02, 3.67647060e-03, 4.41176482e-02,
          6.12745108e-03, 1.34803923e-02, 1.47058824e-02, 2.45098048e-03,
          2.20588241e-02, 0., 2.45098043e-02, 6.12745108e-03,
          4.41176482e-02, 7.35294120e-03, 4.90196096e-03, 1.22549024e-03,
          6.12745108e-03, 8.57843179e-03, 2.00980395e-01, 7.35294120e-03,
          7.35294120e-03, 6.12745108e-03, 7.47549012e-02, 1.83823537e-02,
          9.80392192e-03, 1.47058824e-02, 6.12745108e-03, 1.71568636e-02,
          2.94117648e-02, 7.35294120e-03, 1.22549022e-02, 1.83823537e-02,
          1.83823537e-02, 4.04411778e-02, 0., 5.39215691e-02, 0., 0.,
          2.81862747e-02, 8.70098025e-02, 1.22549024e-03, 1.54411763e-01,
          7.35294120e-03, 1.22549022e-02, 0., 3.30882370e-02,
          7.47549012e-02, 7.10784346e-02, 2.81862747e-02, 1.34803923e-02,
          1.22549024e-03, 1.22549024e-03, 3.67647060e-03, 3.67647060e-03,
          0., 4.04411778e-02, 1.34803923e-02, 2.94117648e-02,
          1.71568636e-02, 7.59803951e-02, 1.02941178e-01, 2.45098043e-02,
          3.67647060e-03, 0., 1.83823537e-02, 1.47058824e-02,
          1.10294120e-02, 4.90196096e-03, 3.92156877e-02, 6.12745108e-03,
          8.57843179e-03, 3.83522734e-02, 1.43465906e-01, 0., 0.,
          1.56250000e-02, 0., 4.26136376e-03, 1.56250000e-02,
          2.84090918e-03, 4.26136376e-03, 5.68181835e-03, 2.55681816e-02,
          1.88920453e-01, 5.68181835e-03, 6.67613670e-02, 0.,
          4.26136376e-03, 3.69318165e-02, 9.94318165e-03, 9.94318165e-03,
          6.25000000e-02, 0., 2.13068184e-02, 2.13068184e-02,
          5.68181835e-03, 9.94318165e-03, 1.27840908e-02, 1.84659082e-02,
          0., 1.42045459e-03, 9.94318165e-03, 5.82386367e-02,
          5.25568165e-02, 4.26136376e-03, 1.27840908e-02, 2.84090918e-03,
          4.26136376e-03, 9.94318165e-03, 0., 6.39204532e-02, 0.,
          2.84090918e-03, 9.94318165e-03, 1.84659082e-02, 0.,
          1.42045459e-02, 7.10227294e-03, 1.42045459e-03, 1.70454551e-02,
          2.13068184e-02, 2.55681816e-02, 1.56250000e-02, 3.26704532e-02,
          7.10227294e-03, 1.27840908e-02, 0., 2.84090918e-03,
          7.10227294e-03, 0., 4.54545468e-02, 0., 0., 0., 0.,
          1.12215906e-01, 4.26136376e-03, 1.42045459e-03, 3.40909101e-02,
          5.39772734e-02, 1.27840908e-02, 1.13636367e-02, 5.25568165e-02,
          2.98295449e-02, 4.11931835e-02, 2.84090918e-03, 5.96590899e-02,
          8.09659064e-02, 1.13636367e-02, 5.68181835e-02, 0.,
          5.68181835e-03, 3.97727266e-02, 2.38636360e-01, 4.26136376e-03,
          0., 1.70454551e-02, 0., 1.70454551e-02, 0., 4.40340899e-02, 0.,
          2.84090918e-03, 0., 3.97727266e-02, 0., 0., 1.42045459e-03,
          2.98295449e-02, 2.69886367e-02 ]
      - [ 6.58333302e-02, 3.83333340e-02, 2.99999993e-02, 3.08333337e-02,
          0., 8.33333354e-04, 1.08333332e-02, 1.75000001e-02,
          2.25000009e-02, 2.49999994e-03, 9.41666663e-02, 4.16666688e-03,
          5.66666685e-02, 3.33333341e-03, 5.83333336e-03, 2.41666660e-02,
          2.08333340e-02, 4.99999989e-03, 2.74999999e-02, 1.49999997e-02,
          2.66666673e-02, 1.58333331e-02, 5.00000007e-02, 8.33333354e-04,
          1.66666675e-02, 1.49999997e-02, 5.24999984e-02, 4.16666688e-03,
          1.83333326e-02, 2.16666665e-02, 6.33333325e-02, 4.66666669e-02,
          1.49999997e-02, 1.66666671e-03, 4.99999989e-03, 1.41666671e-02,
          1.66666675e-02, 0., 3.83333340e-02, 3.58333327e-02,
          1.16666667e-02, 8.33333354e-04, 9.91666690e-02, 2.50000004e-02,
          5.08333333e-02, 4.16666688e-03, 6.66666683e-03, 1.08333332e-02,
          4.33333330e-02, 3.99999991e-02, 5.83333336e-03, 3.33333341e-03,
          5.83333336e-03, 3.91666666e-02, 6.66666683e-03, 2.66666673e-02,
          4.99999989e-03, 3.41666676e-02, 3.24999988e-02, 2.49999994e-03,
          5.66666685e-02, 8.33333377e-03, 7.83333331e-02, 2.41666660e-02,
          4.16666679e-02, 7.41666630e-02, 9.99999978e-03, 1.66666671e-03,
          4.16666688e-03, 1.66666675e-02, 6.66666683e-03, 3.33333341e-03,
          3.99999991e-02, 6.83333352e-02, 3.33333341e-03, 1.16666667e-02,
          2.49999994e-03, 3.50000001e-02, 2.41666660e-02, 9.74999964e-02,
          7.49999983e-03, 1.75000001e-02, 7.50000030e-02, 2.16165408e-02,
          1.12781953e-02, 4.69924808e-02, 1.22180451e-02, 2.91353390e-02,
          1.87969930e-03, 1.97368413e-02, 1.31578948e-02, 4.04135324e-02,
          3.94736826e-02, 6.57894742e-03, 2.44360901e-02, 1.59774441e-02,
          1.31578948e-02, 3.85338329e-02, 1.59774441e-02, 5.16917296e-02,
          9.39849648e-04, 2.81954883e-03, 1.03383459e-01, 3.19548883e-02,
          3.75939859e-03, 4.69924789e-03, 9.39849578e-03, 1.31578948e-02,
          3.28947380e-02, 0., 4.69924789e-03, 2.34962404e-02,
          1.69172939e-02, 1.97368413e-02, 2.63157897e-02, 9.39849578e-03,
          0., 1.03383455e-02, 1.59774441e-02, 1.15601502e-01,
          2.53759399e-02, 9.39849578e-03, 3.75939859e-03, 6.39097765e-02,
          1.59774441e-02, 8.45864695e-03, 2.81954883e-03, 1.03383455e-02,
          6.57894742e-03, 1.31578948e-02, 2.53759399e-02, 5.63909765e-03,
          5.92105277e-02, 4.13533822e-02, 2.06766911e-02, 3.75939859e-03,
          4.69924789e-03, 9.11654159e-02, 9.39849648e-04, 1.69172939e-02,
          1.87969930e-03, 6.67293221e-02, 1.50375944e-02, 3.47744375e-02,
          1.78571437e-02, 6.57894742e-03, 1.87969930e-03, 1.50375944e-02,
          1.97368413e-02, 3.85338329e-02, 7.51879662e-02, 1.10902257e-01,
          1.22180451e-02, 3.75939859e-03, 4.69924789e-03, 2.53759399e-02,
          5.63909765e-03, 3.75939859e-03, 7.51879662e-02, 1.87030077e-01,
          5.63909784e-02, 3.00751865e-01, 1.87969930e-03, 1.22180451e-02,
          2.81954883e-03, 1.22180451e-02, 3.57142873e-02, 5.63909765e-03,
          5.63909765e-03, 9.39849578e-03, 1.97368413e-02, 8.45864695e-03,
          5.82706779e-02, 2.81954883e-03, 5.63909765e-03, 6.95488751e-02,
          0., 2.44360901e-02, 1.87969916e-02, 1.40977446e-02,
          6.57894742e-03, 1.87969930e-03, 2.63157897e-02, 7.47863250e-03,
          5.34188049e-03, 1.17521370e-02, 4.16666679e-02, 3.09829060e-02,
          7.47863250e-03, 9.61538497e-03, 1.28205130e-02, 5.34188049e-03,
          2.99145300e-02, 8.54700897e-03, 6.41025649e-03, 4.38034199e-02,
          2.13675220e-02, 1.81623939e-02, 1.49572650e-02, 2.02991460e-02,
          2.67094020e-02, 1.70940179e-02, 2.24358980e-02, 2.13675224e-03,
          1.06837612e-03, 8.54700897e-03, 5.34188049e-03, 4.27350448e-03,
          5.34188049e-03, 2.99145300e-02, 2.13675224e-03, 1.81623939e-02,
          3.09829060e-02, 1.70940179e-02, 1.06837610e-02, 0.,
          1.92307699e-02, 2.13675224e-03, 1.70940179e-02, 4.27350448e-03,
          1.92307699e-02, 1.28205130e-02, 1.06837612e-03, 6.08974360e-02,
          8.54700897e-03, 5.34188049e-03, 5.34188049e-03, 1.92307699e-02,
          1.06837610e-02, 2.13675224e-03, 1.38888890e-02, 3.20512825e-03,
          1.06837612e-03, 0., 1.81623939e-02, 1.06837610e-02,
          9.61538497e-03, 5.34188049e-03, 2.67094020e-02, 3.63247879e-02,
          2.56410260e-02, 3.20512825e-03, 3.20512825e-03, 5.34188049e-03,
          1.06837612e-03, 8.97435918e-02, 1.06837612e-03, 2.13675224e-03,
          5.34188049e-03, 3.52564119e-02, 2.24358980e-02, 1.06837612e-03,
          2.45726500e-02, 2.24358980e-02, 1.17521370e-02, 1.49572650e-02,
          4.27350448e-03, 2.45726500e-02, 6.41025649e-03, 1.06837612e-03,
          6.41025649e-03, 1.06837612e-03, 0., 1.49572650e-02,
          1.49572650e-02, 3.63247879e-02, 4.59401719e-02, 0.,
          3.20512825e-03, 3.95299159e-02, 0., 7.69230798e-02,
          3.20512825e-03, 3.41880359e-02, 1.70940179e-02, 6.94444478e-02,
          1.02564104e-01, 5.23504280e-02, 2.88461540e-02, 1.71568636e-02,
          5.51470593e-02, 6.12745108e-03, 1.22549024e-03, 1.34803923e-02,
          2.08333340e-02, 1.22549022e-02, 3.67647060e-03, 6.12745108e-03,
          4.90196096e-03, 6.12745108e-03, 2.45098048e-03, 3.79901975e-02,
          7.35294120e-03, 1.47058824e-02, 1.96078438e-02, 1.22549024e-03,
          1.34803923e-02, 2.45098043e-02, 1.34803923e-02, 2.57352944e-02,
          3.67647060e-03, 1.71568636e-02, 2.32843142e-02, 3.92156877e-02,
          1.10294120e-02, 6.12745108e-03, 2.45098048e-03, 0.,
          2.45098043e-02, 3.67647060e-03, 1.22549024e-03, 3.43137272e-02,
          5.02450988e-02, 3.67647060e-03, 2.45098043e-02, 1.96078438e-02,
          3.67647060e-03, 1.22549022e-02, 1.45833328e-01, 1.22549024e-03,
          7.35294120e-03, 9.80392192e-03, 3.92156877e-02, 6.61764741e-02,
          4.90196096e-03, 4.90196096e-03, 1.22549024e-03, 0., 0.,
          1.22549024e-03, 3.30882370e-02, 6.74019605e-02, 2.45098048e-03,
          2.45098048e-03, 0., 8.33333358e-02, 2.45098048e-03,
          1.22549024e-03, 0., 2.20588241e-02, 1.96078438e-02,
          1.16421565e-01, 2.45098043e-02, 2.57352944e-02, 1.22549024e-03,
          7.35294120e-03, 1.71568636e-02, 1.47058824e-02, 1.47058824e-02,
          1.22549024e-03, 0., 5.51470593e-02, 8.57843179e-03, 0.,
          1.83823537e-02, 6.61764741e-02, 1.59313735e-02, 8.70098025e-02,
          0., 8.57843161e-02, 7.23039210e-02, 2.81862747e-02,
          4.90196096e-03, 6.12745108e-03, 3.06372549e-02, 5.75980395e-02,
          3.06372549e-02, 0., 4.28921580e-02, 0., 3.18627469e-02,
          2.84090918e-03, 5.68181835e-03, 6.67613670e-02, 2.84090918e-03,
          4.68750000e-02, 1.42045459e-03, 2.13068184e-02, 5.68181835e-03,
          1.98863633e-02, 2.69886367e-02, 2.84090918e-03, 1.42045459e-03,
          1.73295453e-01, 2.84090918e-03, 1.56250000e-02, 2.13068184e-02,
          2.98295449e-02, 4.97159101e-02, 4.40340899e-02, 2.84090918e-03,
          4.26136376e-03, 2.13068184e-02, 1.98863633e-02, 2.55681816e-02,
          0., 0., 1.42045459e-03, 1.98863633e-02, 2.84090918e-03,
          7.10227294e-03, 4.26136376e-03, 8.80681798e-02, 5.96590899e-02,
          1.42045459e-03, 0., 2.13068184e-02, 1.70454551e-02,
          2.84090918e-03, 0., 5.11363633e-02, 0., 0., 1.56250000e-02,
          1.56250000e-02, 2.84090918e-03, 5.82386367e-02, 7.10227294e-03,
          9.94318165e-03, 1.42045459e-03, 1.42045459e-03, 2.27272734e-02,
          1.42045459e-03, 9.94318165e-03, 0., 5.82386367e-02,
          8.52272753e-03, 7.10227294e-03, 5.68181835e-03, 0.,
          7.10227266e-02, 5.68181835e-03, 1.13636367e-02, 1.84659082e-02,
          8.52272753e-03, 2.27272734e-02, 5.68181835e-03, 1.42045459e-03,
          3.69318165e-02, 7.10227266e-02, 4.26136376e-03, 7.10227294e-03,
          1.56250000e-02, 1.27840908e-02, 1.27840908e-02, 1.42045459e-03,
          1.13636367e-02, 1.70454551e-02, 1.70454551e-02, 2.84090918e-03,
          1.42045459e-03, 1.27840908e-02, 1.70454551e-02, 8.52272753e-03,
          1.56250000e-02, 8.38068202e-02, 1.42045459e-03, 0.,
          4.11931835e-02, 9.94318165e-03, 1.42045459e-03, 1.42045459e-02,
          5.68181835e-02, 4.26136376e-03, 1.10795453e-01, 0.,
          1.42045459e-03, 2.13068184e-02, 5.53977266e-02, 2.98295449e-02 ]
      - [ 6.41666651e-02, 6.33333325e-02, 5.24999984e-02, 2.25000009e-02,
          1.66666671e-03, 5.83333336e-03, 2.58333329e-02, 3.91666666e-02,
          6.58333302e-02, 6.66666683e-03, 4.08333316e-02, 5.83333336e-03,
          1.75000001e-02, 9.99999978e-03, 4.16666688e-03, 3.33333351e-02,
          1.08333332e-02, 2.49999994e-03, 1.41666671e-02, 1.05833337e-01,
          6.91666678e-02, 1.66666675e-02, 3.50000001e-02, 8.33333354e-04,
          8.33333377e-03, 8.33333377e-03, 2.66666673e-02, 0.,
          7.99999982e-02, 1.16666667e-02, 1.04999997e-01, 1.08333332e-02,
          1.91666670e-02, 5.83333336e-03, 6.66666683e-03, 2.25000009e-02,
          7.41666630e-02, 4.16666688e-03, 5.58333322e-02, 1.33333337e-02,
          2.41666660e-02, 1.66666671e-03, 3.66666652e-02, 2.58333329e-02,
          2.74999999e-02, 8.33333377e-03, 4.16666688e-03, 1.99999996e-02,
          4.66666669e-02, 2.25000009e-02, 2.49999994e-03, 8.33333377e-03,
          2.66666673e-02, 7.16666654e-02, 7.49999983e-03, 7.16666654e-02,
          2.08333340e-02, 1.55000001e-01, 1.25000002e-02, 8.33333354e-04,
          9.16666687e-02, 1.58333331e-02, 1.19166665e-01, 4.99999989e-03,
          4.50000018e-02, 1.33333337e-02, 2.50000004e-02, 1.08333332e-02,
          2.33333334e-02, 1.49999997e-02, 4.16666679e-02, 9.99999978e-03,
          1.15833335e-01, 9.00000036e-02, 3.33333341e-03, 2.91666668e-02,
          8.33333377e-03, 3.08333337e-02, 1.83333326e-02, 8.25000033e-02,
          8.33333377e-03, 2.66666673e-02, 1.02499999e-01, 1.69172939e-02,
          1.50375944e-02, 1.12781953e-02, 9.39849648e-04, 2.91353390e-02,
          7.51879718e-03, 1.12781953e-02, 9.39849578e-03, 2.34962404e-02,
          2.81954892e-02, 5.63909765e-03, 7.51879718e-03, 3.47744375e-02,
          5.63909784e-02, 9.02255625e-02, 2.34962404e-02, 1.40977446e-02,
          3.75939859e-03, 2.06766911e-02, 5.63909784e-02, 5.54511286e-02,
          8.45864695e-03, 8.64661634e-02, 6.57894742e-03, 5.54511286e-02,
          2.34962404e-02, 2.81954883e-03, 7.51879718e-03, 7.51879718e-03,
          1.12781953e-02, 1.59774441e-02, 1.08082704e-01, 1.87969930e-03,
          1.87969930e-03, 2.06766911e-02, 2.06766911e-02, 5.07518798e-02,
          4.51127812e-02, 5.63909765e-03, 4.69924789e-03, 8.08270648e-02,
          2.44360901e-02, 2.63157897e-02, 3.47744375e-02, 5.35714291e-02,
          3.75939859e-03, 5.63909765e-03, 4.41729315e-02, 9.39849648e-04,
          4.22932319e-02, 5.54511286e-02, 5.63909765e-03, 2.25563906e-02,
          2.81954883e-03, 2.81954892e-02, 9.39849648e-04, 1.12781953e-02,
          1.87969930e-03, 4.51127812e-02, 3.75939831e-02, 7.51879718e-03,
          7.51879718e-03, 2.16165408e-02, 2.53759399e-02, 5.07518798e-02,
          5.45112789e-02, 5.07518798e-02, 1.69172939e-02, 7.89473653e-02,
          2.63157897e-02, 8.45864695e-03, 2.25563906e-02, 1.03383455e-02,
          0., 7.51879718e-03, 1.22180451e-02, 8.92857164e-02,
          2.33082712e-01, 7.80075192e-02, 0., 8.45864695e-03,
          9.39849648e-04, 0., 4.51127812e-02, 1.59774441e-02,
          1.12781953e-02, 7.51879718e-03, 7.51879718e-03, 2.53759399e-02,
          6.48496225e-02, 2.81954883e-03, 1.12781953e-02, 6.39097765e-02,
          3.75939859e-03, 2.16165408e-02, 1.50375944e-02, 3.75939859e-03,
          1.50375944e-02, 6.57894742e-03, 1.50375944e-02, 7.47863250e-03,
          2.13675224e-03, 8.54700897e-03, 5.12820520e-02, 8.54700897e-03,
          1.06837610e-02, 3.73931639e-02, 1.49572650e-02, 9.61538497e-03,
          1.60256419e-02, 2.13675220e-02, 4.27350448e-03, 2.45726500e-02,
          2.13675224e-03, 7.47863250e-03, 3.20512825e-03, 6.41025649e-03,
          8.44017118e-02, 1.92307699e-02, 3.20512825e-03, 5.34188049e-03,
          7.05128238e-02, 7.47863250e-03, 3.52564119e-02, 7.47863250e-03,
          3.20512825e-03, 2.13675220e-02, 1.06837612e-03, 1.60256419e-02,
          1.38888890e-02, 5.34188049e-03, 2.13675220e-02, 5.34188049e-03,
          6.41025649e-03, 3.20512825e-03, 4.27350448e-03, 1.17521370e-02,
          2.13675224e-03, 2.45726500e-02, 3.20512825e-03, 1.06837612e-03,
          4.27350448e-03, 4.27350448e-03, 1.17521370e-02, 1.17521370e-02,
          4.27350448e-03, 3.20512825e-03, 1.92307699e-02, 3.63247879e-02,
          1.28205130e-02, 8.54700897e-03, 9.61538497e-03, 1.38888890e-02,
          3.84615399e-02, 6.73076957e-02, 3.09829060e-02, 9.61538497e-03,
          2.13675224e-03, 2.56410260e-02, 1.38888890e-02, 6.73076957e-02,
          6.41025649e-03, 1.70940179e-02, 1.06837612e-03, 2.99145300e-02,
          9.61538497e-03, 1.05769232e-01, 5.66239320e-02, 1.06837612e-03,
          1.06837610e-02, 4.27350448e-03, 0., 9.61538497e-03,
          1.28205130e-02, 4.48717959e-02, 2.67094020e-02, 8.54700897e-03,
          2.02991460e-02, 1.06837612e-03, 8.54700897e-03, 8.54700897e-03,
          4.48717959e-02, 5.34188049e-03, 0., 2.13675224e-03,
          4.91452999e-02, 5.34188049e-03, 5.34188049e-03, 5.66239320e-02,
          8.54700897e-03, 1.06837610e-02, 6.41025649e-03, 1.50641024e-01,
          1.06837612e-03, 2.02991460e-02, 1.70940179e-02, 2.20588241e-02,
          1.83823537e-02, 0., 0., 8.57843179e-03, 1.34803923e-02,
          1.22549022e-02, 2.57352944e-02, 4.16666679e-02, 1.96078438e-02,
          7.35294120e-03, 2.45098048e-03, 9.80392192e-03, 8.57843179e-03,
          3.67647060e-03, 4.90196096e-03, 7.35294120e-03, 1.22549024e-03,
          0., 6.12745108e-03, 7.47549012e-02, 2.57352944e-02,
          1.47058824e-02, 6.61764741e-02, 4.04411778e-02, 1.10294120e-02,
          6.12745108e-03, 3.79901975e-02, 6.12745108e-03, 1.59313735e-02,
          3.67647060e-03, 7.23039210e-02, 3.67647074e-02, 1.83823537e-02,
          1.83823537e-02, 2.45098048e-03, 1.22549024e-03, 1.10294120e-02,
          1.96078438e-02, 1.89950988e-01, 4.90196096e-03, 4.28921580e-02,
          9.80392192e-03, 8.70098025e-02, 0., 4.90196096e-03,
          3.67647060e-03, 1.22549024e-03, 1.22549024e-03, 2.20588241e-02,
          8.57843179e-03, 8.57843179e-03, 6.86274543e-02, 8.57843179e-03,
          5.51470593e-02, 2.45098048e-03, 9.80392192e-03, 0.,
          9.80392192e-03, 2.08333340e-02, 4.53431383e-02, 0.,
          2.00980395e-01, 1.34803923e-02, 1.71568636e-02, 1.10294120e-02,
          3.79901975e-02, 1.59313735e-02, 1.10294120e-02, 0.,
          4.90196096e-03, 3.67647060e-03, 0., 9.06862766e-02,
          7.35294120e-03, 1.22549024e-03, 7.23039210e-02, 2.45098048e-03,
          6.12745108e-03, 2.45098048e-03, 6.12745108e-03, 2.15686277e-01,
          3.06372549e-02, 1.10294120e-02, 2.45098048e-03, 3.67647060e-03,
          4.28921580e-02, 6.12745108e-03, 1.22549024e-03, 1.10294120e-02,
          7.35294120e-03, 1.59313735e-02, 8.52272753e-03, 0.,
          1.13636367e-02, 0., 2.69886367e-02, 1.84659082e-02,
          1.27840908e-02, 4.68750000e-02, 0., 1.42045459e-03,
          5.68181835e-03, 7.95454532e-02, 1.69034094e-01, 2.55681816e-02,
          5.68181835e-03, 0., 1.42045459e-02, 4.68750000e-02,
          5.68181835e-03, 8.52272753e-03, 0., 4.26136376e-03,
          1.13636367e-02, 9.94318165e-03, 0., 3.83522734e-02,
          7.10227294e-03, 9.94318165e-03, 7.10227294e-03, 5.68181835e-03,
          9.94318165e-03, 3.97727266e-02, 1.98863633e-02, 1.70454551e-02,
          2.84090918e-03, 0., 5.68181835e-03, 9.94318165e-03, 0.,
          6.39204532e-02, 1.13636367e-02, 1.13636367e-02, 3.97727266e-02,
          1.42045459e-02, 3.83522734e-02, 0., 0., 0., 4.26136376e-03, 0.,
          3.26704532e-02, 2.98295449e-02, 6.10795468e-02, 1.42045459e-03,
          3.83522734e-02, 5.68181835e-03, 0., 0., 0., 5.68181835e-03, 0.,
          1.42045459e-03, 0., 1.42045459e-03, 3.69318165e-02,
          9.94318165e-03, 1.13636367e-02, 2.27272734e-02, 4.26136367e-02,
          9.94318165e-03, 5.96590899e-02, 2.13068184e-02, 1.56250000e-02,
          2.84090918e-03, 0., 5.68181835e-03, 1.13636367e-02,
          1.42045459e-02, 2.98295449e-02, 2.84090918e-03, 0.,
          2.13068184e-02, 2.67045468e-01, 1.42045459e-03, 0.,
          3.26704532e-02, 8.52272753e-03, 7.10227294e-03, 0.,
          1.98863633e-02, 0., 1.84659082e-02, 0., 2.84090918e-03,
          1.42045459e-03, 2.84090918e-02, 0., 2.55681816e-02,
          7.38636330e-02 ]
      - [ 8.83333310e-02, 1.66666675e-02, 2.74999999e-02, 1.58333331e-02,
          3.33333341e-03, 8.33333354e-04, 1.66666675e-02, 3.75000015e-02,
          6.25000000e-02, 6.66666683e-03, 2.83333343e-02, 2.49999994e-03,
          1.25000002e-02, 9.16666631e-03, 8.33333354e-04, 3.58333327e-02,
          2.50000004e-02, 3.33333341e-03, 1.49999997e-02, 1.08333332e-02,
          7.75000006e-02, 2.16666665e-02, 4.50000018e-02, 1.66666671e-03,
          1.41666671e-02, 4.16666688e-03, 1.66666675e-02, 7.49999983e-03,
          5.00000007e-02, 9.16666631e-03, 1.11666664e-01, 2.16666665e-02,
          1.66666675e-02, 5.83333336e-03, 6.66666683e-03, 3.75000015e-02,
          5.66666685e-02, 4.99999989e-03, 3.75000015e-02, 2.33333334e-02,
          2.58333329e-02, 3.33333341e-03, 5.75000010e-02, 3.75000015e-02,
          1.58333331e-02, 1.16666667e-02, 7.49999983e-03, 1.16666667e-02,
          7.66666681e-02, 1.91666670e-02, 9.16666631e-03, 6.66666683e-03,
          3.58333327e-02, 8.91666636e-02, 6.66666683e-03, 5.08333333e-02,
          1.33333337e-02, 4.50000018e-02, 1.83333326e-02, 9.16666631e-03,
          6.41666651e-02, 1.33333337e-02, 1.00833334e-01, 9.99999978e-03,
          1.91666670e-02, 5.66666685e-02, 2.16666665e-02, 4.99999989e-03,
          1.41666671e-02, 2.25000009e-02, 5.99999987e-02, 1.08333332e-02,
          9.00000036e-02, 1.31666660e-01, 4.16666688e-03, 2.25000009e-02,
          4.16666688e-03, 3.99999991e-02, 2.16666665e-02, 8.91666636e-02,
          3.33333341e-03, 1.41666671e-02, 9.58333313e-02, 2.25563906e-02,
          6.57894742e-03, 9.39849648e-04, 6.57894742e-03, 1.12781953e-02,
          4.69924789e-03, 2.53759399e-02, 1.97368413e-02, 4.22932319e-02,
          1.59774441e-02, 6.57894742e-03, 7.51879718e-03, 2.63157897e-02,
          5.07518798e-02, 1.00563906e-01, 2.16165408e-02, 7.04887211e-02,
          1.12781953e-02, 9.39849578e-03, 7.70676658e-02, 3.28947380e-02,
          8.45864695e-03, 1.87969930e-03, 3.75939859e-03, 7.80075192e-02,
          2.06766911e-02, 9.39849648e-04, 3.75939859e-03, 2.44360901e-02,
          1.03383455e-02, 3.75939859e-03, 8.08270648e-02, 0.,
          7.51879718e-03, 2.63157897e-02, 1.40977446e-02, 1.69172939e-02,
          8.45864695e-03, 5.63909765e-03, 1.87969930e-03, 3.10150385e-02,
          1.59774441e-02, 2.81954892e-02, 2.16165408e-02, 4.60526310e-02,
          5.63909765e-03, 1.03383455e-02, 1.59774441e-02, 3.75939859e-03,
          5.82706779e-02, 4.22932319e-02, 1.50375944e-02, 1.31578948e-02,
          7.51879718e-03, 5.16917296e-02, 9.39849578e-03, 3.75939859e-03,
          9.39849648e-04, 7.14285746e-02, 3.94736826e-02, 2.16165408e-02,
          1.78571437e-02, 1.03383455e-02, 1.03383455e-02, 1.59774441e-02,
          3.10150385e-02, 1.05263159e-01, 4.22932319e-02, 5.26315793e-02,
          1.12781953e-02, 3.75939859e-03, 2.25563906e-02, 1.87969916e-02,
          1.31578948e-02, 2.06766911e-02, 3.75939831e-02, 1.13721803e-01,
          1.29699245e-01, 2.01127812e-01, 0., 3.75939859e-03,
          6.57894742e-03, 9.39849578e-03, 4.88721803e-02, 0.,
          5.63909765e-03, 8.45864695e-03, 3.75939859e-03, 1.59774441e-02,
          7.42481202e-02, 9.39849648e-04, 6.57894742e-03, 5.35714291e-02,
          1.87969930e-03, 2.91353390e-02, 1.40977446e-02, 3.75939859e-03,
          0., 0., 4.60526310e-02, 8.54700897e-03, 8.54700897e-03,
          1.70940179e-02, 8.44017118e-02, 2.13675224e-03, 3.20512825e-03,
          2.35042740e-02, 9.61538497e-03, 1.81623939e-02, 1.38888890e-02,
          3.20512839e-02, 1.60256419e-02, 4.80769239e-02, 2.88461540e-02,
          3.09829060e-02, 9.61538497e-03, 1.28205130e-02, 7.26495758e-02,
          1.06837612e-03, 3.20512839e-02, 2.13675224e-03, 0.,
          7.47863250e-03, 5.23504280e-02, 1.92307699e-02, 5.34188049e-03,
          6.41025649e-03, 0., 1.70940179e-02, 2.56410260e-02,
          1.92307699e-02, 8.54700897e-03, 0., 1.06837610e-02,
          7.47863250e-03, 4.27350448e-03, 2.45726500e-02, 7.47863250e-03,
          3.31196599e-02, 8.54700897e-03, 3.31196599e-02, 1.06837610e-02,
          8.54700897e-03, 9.61538497e-03, 2.13675224e-03, 6.41025649e-03,
          4.27350448e-03, 5.34188049e-03, 2.88461540e-02, 2.02991460e-02,
          2.13675220e-02, 8.54700897e-03, 9.61538497e-03, 1.38888890e-02,
          2.24358980e-02, 3.41880359e-02, 2.24358980e-02, 2.02991460e-02,
          1.81623939e-02, 1.38888890e-02, 5.55555560e-02, 2.35042740e-02,
          3.95299159e-02, 1.60256419e-02, 8.54700897e-03, 1.70940179e-02,
          8.76068398e-02, 1.49572650e-02, 2.13675224e-03, 1.81623939e-02,
          1.49572650e-02, 6.41025649e-03, 1.06837612e-03, 1.70940179e-02,
          6.19658120e-02, 2.13675220e-02, 9.61538497e-03, 4.27350448e-03,
          1.06837612e-03, 1.06837610e-02, 4.27350448e-03, 7.47863250e-03,
          4.27350448e-03, 4.16666679e-02, 1.38888890e-02, 1.49572650e-02,
          2.02991460e-02, 1.49572650e-02, 7.47863278e-02, 2.13675224e-03,
          3.63247879e-02, 2.13675220e-02, 6.62393197e-02, 2.88461540e-02,
          2.45726500e-02, 1.06837610e-02, 1.22549022e-02, 1.47058824e-02,
          6.12745108e-03, 2.45098048e-03, 2.08333340e-02, 3.06372549e-02,
          4.90196096e-03, 1.59313735e-02, 1.47058824e-02, 1.71568636e-02,
          6.12745108e-03, 3.67647060e-03, 4.90196096e-03, 3.67647060e-03,
          4.90196096e-03, 2.45098048e-03, 1.22549022e-02, 3.30882370e-02,
          6.12745108e-03, 7.35294120e-03, 6.86274543e-02, 1.22549024e-03,
          0., 2.08333340e-02, 2.32843142e-02, 2.20588241e-02,
          9.80392192e-03, 3.18627469e-02, 1.83823537e-02, 2.45098048e-03,
          0., 9.80392192e-03, 4.90196086e-02, 3.67647060e-03, 0.,
          1.83823537e-02, 0., 0., 9.80392192e-03, 2.38970593e-01,
          7.35294120e-03, 9.80392192e-03, 1.34803923e-02, 4.41176482e-02,
          1.59313735e-02, 4.90196096e-03, 7.35294120e-03, 2.45098048e-03,
          0., 1.71568636e-02, 3.79901975e-02, 2.45098048e-03,
          1.96078438e-02, 2.08333340e-02, 5.51470593e-02, 2.32843142e-02,
          2.45098043e-02, 1.22549024e-03, 8.57843179e-03, 4.90196096e-03,
          1.71568636e-02, 2.08333340e-02, 1.77696079e-01, 2.81862747e-02,
          9.80392192e-03, 1.22549024e-03, 2.32843142e-02, 5.02450988e-02,
          1.96078438e-02, 1.59313735e-02, 0., 0., 2.32843142e-02,
          1.22549022e-02, 0., 1.83823537e-02, 4.53431383e-02,
          1.10294120e-02, 1.71568636e-02, 1.59313735e-02, 4.16666679e-02,
          8.21078420e-02, 2.45098043e-02, 8.57843179e-03, 3.67647060e-03,
          1.96078438e-02, 5.39215691e-02, 1.59313735e-02, 0.,
          3.43137272e-02, 0., 1.71568636e-02, 1.56250000e-02, 0.,
          1.84659082e-02, 2.84090918e-03, 0., 2.84090918e-03,
          1.42045459e-02, 1.27840908e-02, 9.94318165e-03, 1.42045459e-03,
          1.42045459e-03, 2.69886367e-02, 2.20170453e-01, 1.56250000e-02,
          1.13636367e-02, 7.10227294e-03, 5.68181835e-03, 5.82386367e-02,
          2.55681816e-02, 4.26136376e-03, 9.94318165e-03, 5.68181835e-03,
          1.27840908e-02, 4.26136376e-03, 2.84090918e-03, 1.84659082e-02,
          1.27840908e-02, 2.84090918e-03, 2.84090918e-03, 1.13636367e-02,
          7.10227294e-03, 2.41477266e-02, 4.26136376e-03, 4.26136376e-03,
          8.52272753e-03, 8.52272753e-03, 8.52272753e-03, 0.,
          2.84090918e-03, 5.11363633e-02, 1.42045459e-03, 1.42045459e-03,
          7.10227294e-03, 4.26136376e-03, 4.40340899e-02, 1.27840908e-02,
          5.68181835e-03, 1.56250000e-02, 1.13636367e-02, 5.68181835e-03,
          4.11931835e-02, 2.55681816e-02, 4.97159101e-02, 4.26136376e-03,
          0., 1.42045459e-03, 0., 1.70454551e-02, 0., 1.27840908e-02, 0.,
          5.68181835e-02, 2.55681816e-02, 5.68181835e-03, 1.27840908e-02,
          0., 1.42045459e-03, 3.83522734e-02, 3.97727266e-02,
          1.42045459e-02, 9.94318165e-03, 2.69886367e-02, 3.55113633e-02,
          8.52272753e-03, 8.52272753e-03, 3.83522734e-02, 2.13068184e-02,
          1.27840908e-02, 2.41477266e-02, 1.42045459e-03, 2.41477266e-02,
          1.42045459e-03, 8.66477266e-02, 2.69886367e-02, 2.13068184e-02,
          0., 1.42045459e-03, 3.12500000e-02, 2.84090918e-03,
          3.55113633e-02, 1.42045459e-02, 1.70454551e-02, 4.26136376e-03,
          1.27840908e-02, 1.27840908e-02, 4.26136376e-03, 1.13636367e-02,
          3.83522734e-02, 2.84090918e-02 ]
      - [ 1.68333337e-01, 2.91666668e-02, 4.50000018e-02, 1.91666670e-02,
          1.66666671e-03, 2.49999994e-03, 1.58333331e-02, 5.58333322e-02,
          7.41666630e-02, 4.16666688e-03, 4.58333343e-02, 3.33333341e-03,
          4.99999989e-03, 4.99999989e-03, 4.16666688e-03, 2.25000009e-02,
          3.83333340e-02, 1.66666671e-03, 1.58333331e-02, 8.33333377e-03,
          5.99999987e-02, 1.25000002e-02, 8.74999985e-02, 0.,
          4.99999989e-03, 7.49999983e-03, 1.75000001e-02, 4.16666688e-03,
          1.02499999e-01, 1.49999997e-02, 1.35000005e-01, 3.41666676e-02,
          1.66666675e-02, 4.16666688e-03, 6.66666683e-03, 9.16666631e-03,
          4.66666669e-02, 4.16666688e-03, 8.41666684e-02, 8.33333377e-03,
          9.99999978e-03, 0., 7.75000006e-02, 3.16666663e-02,
          4.16666688e-03, 4.16666688e-03, 8.33333354e-04, 3.33333341e-03,
          1.14166670e-01, 4.16666688e-03, 3.33333341e-03, 5.83333336e-03,
          9.99999978e-03, 3.24999988e-02, 6.66666683e-03, 9.41666663e-02,
          4.16666688e-03, 2.33333334e-02, 1.49999997e-02, 4.99999989e-03,
          1.11666664e-01, 8.33333377e-03, 2.74999999e-02, 6.66666683e-03,
          1.07500002e-01, 4.08333316e-02, 2.41666660e-02, 9.16666631e-03,
          2.33333334e-02, 1.49999997e-02, 3.50000001e-02, 4.99999989e-03,
          5.08333333e-02, 1.15000002e-01, 1.66666671e-03, 1.83333326e-02,
          4.16666688e-03, 2.91666668e-02, 1.25000002e-02, 1.16666667e-01,
          5.83333336e-03, 1.58333331e-02, 9.16666687e-02, 2.34962404e-02,
          2.63157897e-02, 9.39849648e-04, 1.87969930e-03, 3.94736826e-02,
          9.39849648e-04, 1.50375944e-02, 1.97368413e-02, 3.57142873e-02,
          9.39849578e-03, 9.39849648e-04, 2.81954883e-03, 4.32330817e-02,
          7.14285746e-02, 1.00563906e-01, 3.00751887e-02, 7.33082741e-02,
          5.63909765e-03, 1.22180451e-02, 1.11842103e-01, 1.22180451e-02,
          7.51879718e-03, 5.63909765e-03, 3.75939859e-03, 5.35714291e-02,
          9.86842141e-02, 0., 0., 1.31578948e-02, 1.87969930e-03,
          9.39849648e-04, 6.10902272e-02, 1.87969930e-03, 0.,
          4.41729315e-02, 2.34962404e-02, 3.10150385e-02, 1.22180451e-02,
          1.12781953e-02, 2.81954883e-03, 1.78571437e-02, 1.50375944e-02,
          9.39849578e-03, 2.44360901e-02, 8.45864639e-02, 0.,
          1.78571437e-02, 5.16917296e-02, 5.63909765e-03, 5.26315793e-02,
          1.03383455e-02, 1.87969930e-03, 2.25563906e-02, 9.39849578e-03,
          9.11654159e-02, 9.39849648e-04, 1.87969930e-03, 0.,
          4.41729315e-02, 3.66541371e-02, 1.78571437e-02, 4.69924789e-03,
          0., 1.50375944e-02, 1.50375944e-02, 1.87969916e-02,
          2.26503760e-01, 2.72556394e-02, 4.60526310e-02, 3.75939859e-03,
          9.39849648e-04, 7.51879718e-03, 1.31578948e-02, 9.39849648e-04,
          9.39849648e-04, 3.28947380e-02, 5.26315793e-02, 3.41165423e-01,
          8.17669183e-02, 0., 1.87969930e-03, 1.87969930e-03,
          6.57894742e-03, 6.20300770e-02, 6.57894742e-03, 2.81954883e-03,
          1.50375944e-02, 5.63909765e-03, 7.51879718e-03, 9.11654159e-02,
          5.63909765e-03, 9.39849648e-04, 7.70676658e-02, 9.39849648e-04,
          1.78571437e-02, 7.51879718e-03, 4.69924789e-03, 2.63157897e-02,
          1.87969930e-03, 2.44360901e-02, 3.20512825e-03, 1.38888890e-02,
          0., 1.07905984e-01, 8.54700897e-03, 3.20512825e-03,
          3.73931639e-02, 6.41025649e-03, 1.28205130e-02, 1.81623939e-02,
          2.77777780e-02, 2.77777780e-02, 4.70085479e-02, 2.02991460e-02,
          5.02136759e-02, 8.54700897e-03, 1.06837612e-03, 0.,
          6.41025649e-03, 2.67094020e-02, 1.28205130e-02, 1.06837612e-03,
          2.13675224e-03, 3.73931639e-02, 1.17521370e-02, 1.81623939e-02,
          8.76068398e-02, 0., 1.92307699e-02, 2.35042740e-02,
          4.27350448e-03, 2.13675224e-03, 1.06837612e-03, 7.47863250e-03,
          0., 0., 1.28205130e-02, 3.20512825e-03, 6.19658120e-02,
          2.13675224e-03, 2.88461540e-02, 1.17521370e-02, 1.17521370e-02,
          7.47863250e-03, 1.06837612e-03, 7.47863250e-03, 0.,
          3.20512825e-03, 5.44871800e-02, 1.60256419e-02, 2.56410260e-02,
          3.20512825e-03, 9.61538497e-03, 4.48717959e-02, 1.54914528e-01,
          3.95299159e-02, 0., 0., 1.49572650e-02, 2.02991460e-02,
          6.83760718e-02, 1.28205130e-02, 8.44017118e-02, 2.13675224e-03,
          1.81623939e-02, 0., 6.83760718e-02, 2.02991460e-02,
          2.13675224e-03, 3.31196599e-02, 0., 2.13675224e-03, 0.,
          2.13675224e-03, 2.24358980e-02, 2.13675220e-02, 3.20512825e-03,
          0., 0., 0., 0., 1.38888890e-02, 2.02991460e-02, 2.67094020e-02,
          3.20512825e-03, 2.13675220e-02, 6.41025649e-03, 8.54700897e-03,
          6.73076957e-02, 2.13675224e-03, 2.24358980e-02, 2.13675220e-02,
          8.65384638e-02, 4.80769239e-02, 2.56410260e-02, 1.81623939e-02,
          1.83823537e-02, 2.20588241e-02, 4.90196096e-03, 0.,
          9.80392192e-03, 2.20588241e-02, 0., 6.00490198e-02,
          4.77941185e-02, 8.57843179e-03, 0., 0., 1.34803923e-02, 0., 0.,
          8.57843179e-03, 4.90196096e-03, 2.45098048e-03, 1.47058824e-02,
          1.22549022e-02, 0., 3.67647060e-03, 1.10294120e-02,
          6.12745108e-03, 1.59313735e-02, 0., 0., 3.55392173e-02,
          1.71568636e-02, 8.21078420e-02, 1.22549024e-03, 4.04411778e-02,
          4.04411778e-02, 4.04411778e-02, 0., 1.22549022e-02, 0., 0., 0.,
          2.51225501e-01, 4.90196096e-03, 1.47058824e-02, 4.90196096e-03,
          1.04166664e-01, 2.08333340e-02, 8.57843179e-03, 4.90196096e-03,
          0., 3.67647060e-03, 4.41176482e-02, 2.45098043e-02,
          8.57843179e-03, 3.67647060e-03, 9.80392192e-03, 6.12745099e-02,
          1.71568636e-02, 9.43627432e-02, 0., 3.67647060e-03,
          1.59313735e-02, 2.32843142e-02, 1.59313735e-02, 1.36029407e-01,
          3.67647074e-02, 1.47058824e-02, 0., 1.34803923e-02,
          2.57352944e-02, 1.83823537e-02, 2.45098048e-03, 0., 0.,
          3.67647060e-03, 9.31372568e-02, 0., 8.57843179e-03,
          8.21078420e-02, 2.08333340e-02, 6.12745099e-02, 4.90196096e-03,
          6.37254938e-02, 8.82352963e-02, 3.06372549e-02, 1.22549024e-03,
          7.35294120e-03, 2.20588241e-02, 4.04411778e-02, 2.20588241e-02,
          0., 2.20588241e-02, 7.35294120e-03, 1.71568636e-02,
          1.27840908e-02, 9.23295468e-02, 2.27272734e-02, 0.,
          8.52272753e-03, 1.13636367e-02, 1.42045459e-03, 2.41477266e-02,
          1.98863633e-02, 0., 0., 5.96590899e-02, 1.91761360e-01,
          9.94318165e-03, 2.27272734e-02, 0., 1.56250000e-02,
          6.67613670e-02, 1.13636367e-02, 1.13636367e-02, 8.38068202e-02,
          9.94318165e-03, 4.68750000e-02, 2.84090918e-02, 8.52272753e-03,
          3.55113633e-02, 1.70454551e-02, 8.80681798e-02, 1.42045459e-03,
          0., 0., 4.82954532e-02, 3.69318165e-02, 0., 0., 1.27840908e-02,
          0., 0., 5.68181835e-03, 5.11363633e-02, 0., 1.42045459e-03,
          1.42045459e-02, 1.42045459e-03, 2.27272734e-02, 1.98863633e-02,
          1.56250000e-02, 2.84090918e-03, 8.52272753e-03, 0.,
          2.13068184e-02, 2.84090918e-03, 5.39772734e-02, 1.56250000e-02,
          1.13636367e-02, 0., 0., 1.56250000e-02, 0., 1.17897727e-01, 0.,
          2.84090918e-02, 0., 0., 2.55681816e-02, 0., 0., 2.27272734e-02,
          8.52272753e-03, 5.68181835e-03, 1.42045459e-03, 2.35795453e-01,
          1.98863633e-02, 1.42045459e-03, 0., 2.27272734e-02,
          1.84659082e-02, 2.84090918e-03, 3.83522734e-02, 7.10227294e-03,
          0., 0., 1.42045453e-01, 0., 1.98863633e-02, 0., 0.,
          1.42045459e-02, 0., 1.13636367e-02, 4.26136376e-03,
          8.52272753e-03, 1.70454551e-02, 1.98863633e-02, 1.42045459e-03,
          1.27840908e-02, 2.84090918e-03, 3.26704532e-02, 2.69886367e-02 ]
      - [ 1.32499993e-01, 5.66666685e-02, 1.33333340e-01, 2.25000009e-02,
          1.66666671e-03, 2.49999994e-03, 1.99999996e-02, 2.74999999e-02,
          3.75000015e-02, 1.66666671e-03, 4.41666655e-02, 5.83333336e-03,
          2.58333329e-02, 1.16666667e-02, 4.16666688e-03, 1.99999996e-02,
          5.99999987e-02, 2.49999994e-03, 1.25000002e-02, 1.08333332e-02,
          5.66666685e-02, 1.16666667e-02, 3.50000001e-02, 8.33333354e-04,
          2.08333340e-02, 1.08333332e-02, 5.83333336e-02, 3.33333341e-03,
          2.99999993e-02, 3.33333341e-03, 7.83333331e-02, 6.66666683e-03,
          2.25000009e-02, 8.33333354e-04, 1.58333331e-02, 5.08333333e-02,
          2.99999993e-02, 3.33333341e-03, 4.83333319e-02, 1.33333337e-02,
          1.75000001e-02, 0., 6.49999976e-02, 1.99999996e-02,
          5.16666658e-02, 2.66666673e-02, 3.33333341e-03, 1.08333332e-02,
          3.24999988e-02, 1.08333332e-02, 2.49999994e-03, 2.08333340e-02,
          7.99999982e-02, 5.49999997e-02, 7.49999983e-03, 4.83333319e-02,
          1.49999997e-02, 9.00000036e-02, 9.16666631e-03, 0.,
          1.26666665e-01, 8.33333377e-03, 1.45833328e-01, 0.,
          6.41666651e-02, 1.66666675e-02, 2.91666668e-02, 1.16666667e-02,
          1.25000002e-02, 7.49999983e-03, 2.41666660e-02, 4.16666688e-03,
          3.99999991e-02, 4.83333319e-02, 8.33333354e-04, 1.66666675e-02,
          2.49999994e-03, 3.66666652e-02, 1.99999996e-02, 1.06666669e-01,
          9.16666631e-03, 8.33333377e-03, 8.74999985e-02, 2.44360901e-02,
          1.22180451e-02, 1.40977446e-02, 9.39849648e-04, 1.43796995e-01,
          5.63909765e-03, 5.63909765e-03, 6.57894742e-03, 2.81954892e-02,
          7.51879718e-03, 6.57894742e-03, 7.51879718e-03, 2.53759399e-02,
          2.72556394e-02, 4.04135324e-02, 9.39849578e-03, 1.97368413e-02,
          2.81954883e-03, 1.50375944e-02, 1.02443606e-01, 5.26315793e-02,
          1.59774441e-02, 1.03383455e-02, 7.51879718e-03, 4.51127812e-02,
          1.40977446e-02, 0., 3.75939859e-03, 9.39849578e-03,
          9.39849578e-03, 5.63909765e-03, 4.88721803e-02, 2.81954883e-03,
          2.81954883e-03, 2.16165408e-02, 7.51879718e-03, 1.28759399e-01,
          3.10150385e-02, 5.63909765e-03, 0., 6.01503775e-02,
          2.16165408e-02, 2.53759399e-02, 1.59774441e-02, 4.32330817e-02,
          3.75939859e-03, 6.57894742e-03, 3.94736826e-02, 4.69924789e-03,
          2.16165408e-02, 5.63909784e-02, 5.63909765e-03, 1.69172939e-02,
          0., 4.60526310e-02, 0., 9.39849648e-04, 0., 3.19548883e-02,
          1.78571437e-02, 1.59774441e-02, 3.75939859e-03, 4.69924789e-03,
          2.44360901e-02, 2.81954892e-02, 3.19548883e-02, 4.22932319e-02,
          1.97368413e-02, 1.08082704e-01, 8.45864695e-03, 1.12781953e-02,
          6.67293221e-02, 2.06766911e-02, 5.63909765e-03, 9.39849648e-04,
          2.81954883e-03, 3.06390971e-01, 1.25939846e-01, 3.12030077e-01,
          2.81954883e-03, 6.57894742e-03, 0., 1.87969930e-03,
          2.44360901e-02, 5.63909765e-03, 4.69924789e-03, 9.39849648e-04,
          1.03383455e-02, 1.12781953e-02, 1.24060154e-01, 7.51879718e-03,
          1.03383455e-02, 5.54511286e-02, 0., 2.25563906e-02,
          1.50375944e-02, 6.57894742e-03, 1.59774441e-02, 1.87969930e-03,
          2.72556394e-02, 5.34188049e-03, 6.41025649e-03, 1.06837612e-03,
          4.80769239e-02, 1.92307699e-02, 8.54700897e-03, 1.49572650e-02,
          4.27350448e-03, 5.34188049e-03, 4.05982919e-02, 2.02991460e-02,
          5.34188049e-03, 2.77777780e-02, 5.02136759e-02, 2.45726500e-02,
          2.13675224e-03, 0., 5.34188049e-03, 1.81623939e-02,
          3.41880359e-02, 6.41025649e-03, 4.27350448e-03, 7.47863250e-03,
          2.24358980e-02, 1.06837612e-03, 1.49572650e-02, 6.41025649e-03,
          0., 2.35042740e-02, 1.38888890e-02, 1.17521370e-02,
          3.20512825e-03, 4.27350448e-03, 1.38888890e-02, 2.67094020e-02,
          5.34188049e-03, 3.20512825e-03, 8.54700897e-03, 1.70940179e-02,
          6.41025649e-03, 3.09829060e-02, 1.70940179e-02, 2.13675224e-03,
          1.06837610e-02, 2.13675224e-03, 5.34188049e-03, 1.06837612e-03,
          2.13675224e-03, 2.77777780e-02, 6.41025649e-03, 2.13675224e-03,
          5.34188049e-03, 7.47863250e-03, 3.52564119e-02, 1.30341887e-01,
          1.06837610e-02, 2.13675224e-03, 1.06837612e-03, 5.23504280e-02,
          1.28205130e-02, 1.49572650e-02, 0., 3.20512839e-02, 0.,
          2.56410260e-02, 3.20512825e-03, 3.41880359e-02, 3.95299159e-02,
          1.06837610e-02, 5.34188049e-03, 0., 0., 6.41025649e-03,
          4.80769239e-02, 2.45726500e-02, 9.61538497e-03, 1.70940179e-02,
          5.66239320e-02, 7.47863250e-03, 0., 0., 5.76923080e-02,
          1.92307699e-02, 2.13675224e-03, 0., 2.13675220e-02,
          1.81623939e-02, 0., 5.66239320e-02, 0., 2.24358980e-02,
          2.67094020e-02, 8.01282078e-02, 2.99145300e-02, 3.52564119e-02,
          2.13675224e-03, 2.45098043e-02, 2.32843142e-02, 3.67647060e-03,
          7.35294120e-03, 1.22549024e-03, 8.57843179e-03, 1.47058824e-02,
          1.59313735e-02, 8.57843179e-03, 3.67647060e-03, 2.45098048e-03,
          2.32843142e-02, 3.43137272e-02, 3.67647060e-03, 3.67647060e-03,
          9.80392192e-03, 7.35294120e-03, 2.45098048e-03, 0.,
          1.22549024e-03, 0., 0., 2.20588241e-02, 4.90196086e-02,
          1.62990198e-01, 0., 4.90196096e-03, 1.34803923e-02, 0.,
          3.67647060e-03, 0., 3.18627469e-02, 2.81862747e-02,
          2.57352944e-02, 1.22549024e-03, 8.57843179e-03, 9.80392192e-03,
          0., 4.90196096e-03, 2.00980395e-01, 1.22549024e-03,
          1.47058824e-02, 2.20588241e-02, 2.32843142e-02, 3.18627469e-02,
          0., 2.45098048e-03, 0., 2.69607846e-02, 2.08333340e-02,
          6.12745108e-03, 7.35294120e-03, 4.28921580e-02, 4.90196096e-03,
          1.47058824e-02, 0., 1.47058824e-02, 0., 4.90196096e-03,
          1.10294120e-02, 3.79901975e-02, 0., 1.11519605e-01,
          1.34803923e-02, 1.83823537e-02, 0., 1.96078438e-02,
          2.45098048e-03, 5.02450988e-02, 3.67647060e-03, 1.83823537e-02,
          2.45098048e-03, 0., 6.61764741e-02, 0., 1.22549024e-03,
          5.26960790e-02, 9.80392192e-03, 5.51470593e-02, 2.45098048e-03,
          8.33333358e-02, 1.44607842e-01, 3.67647074e-02, 0., 0.,
          3.18627469e-02, 5.26960790e-02, 1.96078438e-02, 4.90196096e-03,
          4.28921580e-02, 2.45098048e-03, 1.22549024e-03, 0.,
          1.42045459e-03, 1.98863633e-02, 2.84090918e-03, 9.37500000e-02,
          2.84090918e-03, 0., 3.69318165e-02, 1.84659082e-02,
          5.68181835e-03, 7.10227294e-03, 2.13068184e-02, 2.15909094e-01,
          0., 9.94318165e-03, 1.42045459e-03, 4.54545468e-02,
          5.39772734e-02, 1.84659082e-02, 4.26136376e-03, 5.68181835e-03,
          1.42045459e-03, 1.70454551e-02, 5.68181835e-03, 4.26136376e-03,
          4.26136376e-03, 2.13068184e-02, 0., 0., 1.42045459e-03,
          7.10227294e-03, 4.26136376e-03, 2.41477266e-02, 2.84090918e-03,
          2.84090918e-03, 1.13636367e-02, 0., 0., 4.26136376e-03,
          8.09659064e-02, 1.42045459e-03, 0., 2.27272734e-02,
          4.26136367e-02, 3.12500000e-02, 1.70454551e-02, 1.42045459e-03,
          2.98295449e-02, 0., 0., 1.13636367e-02, 0., 7.24431798e-02,
          4.11931835e-02, 1.42045459e-03, 0., 1.13636367e-02,
          2.84090918e-03, 0., 9.94318165e-03, 0., 5.11363633e-02, 0.,
          2.84090918e-03, 3.69318165e-02, 9.94318165e-03, 9.94318165e-03,
          2.69886367e-02, 3.97727266e-02, 1.84659082e-02, 1.27840908e-02,
          5.68181835e-03, 4.26136376e-03, 6.10795468e-02, 0.,
          4.26136376e-03, 3.40909101e-02, 8.52272753e-03, 1.42045459e-02,
          0., 0., 6.81818202e-02, 1.36363640e-01, 0., 0., 2.55681816e-02,
          0., 2.41477266e-02, 0., 3.40909101e-02, 1.42045459e-03,
          2.98295449e-02, 0., 5.68181835e-03, 0., 0., 4.26136376e-03,
          2.27272734e-02, 4.68750000e-02 ]
      - [ 1.75000001e-02, 8.91666636e-02, 1.21666670e-01, 2.50000004e-02,
          4.16666688e-03, 8.33333354e-04, 1.33333337e-02, 1.83333326e-02,
          5.41666672e-02, 1.66666671e-03, 7.00000003e-02, 7.49999983e-03,
          5.33333346e-02, 9.16666631e-03, 1.66666671e-03, 1.58333331e-02,
          2.66666673e-02, 3.33333341e-03, 1.16666667e-02, 2.50000004e-02,
          4.08333316e-02, 1.33333337e-02, 4.74999994e-02, 8.33333354e-04,
          9.99999978e-03, 9.16666631e-03, 4.74999994e-02, 7.49999983e-03,
          4.91666682e-02, 4.99999989e-03, 7.66666681e-02, 1.66666675e-02,
          1.58333331e-02, 1.66666671e-03, 6.66666683e-03, 5.75000010e-02,
          5.24999984e-02, 7.49999983e-03, 2.74999999e-02, 1.66666675e-02,
          3.41666676e-02, 2.49999994e-03, 5.75000010e-02, 2.33333334e-02,
          2.25000009e-02, 3.16666663e-02, 5.83333336e-03, 1.49999997e-02,
          3.08333337e-02, 2.41666660e-02, 3.33333341e-03, 1.16666667e-02,
          3.91666666e-02, 8.16666633e-02, 5.83333336e-03, 6.49999976e-02,
          9.99999978e-03, 4.50000018e-02, 1.49999997e-02, 8.33333354e-04,
          1.51666671e-01, 4.16666688e-03, 1.44166663e-01, 8.33333377e-03,
          8.41666684e-02, 2.66666673e-02, 2.25000009e-02, 1.16666667e-02,
          1.25000002e-02, 1.41666671e-02, 2.33333334e-02, 8.33333354e-04,
          8.50000009e-02, 5.75000010e-02, 1.66666671e-03, 1.41666671e-02,
          1.66666671e-03, 3.16666663e-02, 2.08333340e-02, 6.49999976e-02,
          1.25000002e-02, 2.08333340e-02, 1.47499993e-01, 1.50375944e-02,
          5.63909765e-03, 4.13533822e-02, 4.69924789e-03, 1.26879692e-01,
          4.69924789e-03, 3.10150385e-02, 4.69924789e-03, 1.50375944e-02,
          1.31578948e-02, 1.40977446e-02, 1.59774441e-02, 2.06766911e-02,
          3.66541371e-02, 3.10150385e-02, 3.75939859e-03, 1.03383455e-02,
          2.81954883e-03, 7.51879718e-03, 8.36466178e-02, 5.26315793e-02,
          7.51879718e-03, 2.34962404e-02, 2.81954883e-03, 3.28947380e-02,
          3.85338329e-02, 5.63909765e-03, 3.75939859e-03, 1.31578948e-02,
          1.50375944e-02, 1.03383455e-02, 7.70676658e-02, 7.51879718e-03,
          4.69924789e-03, 1.87969916e-02, 9.39849578e-03, 1.97368428e-01,
          1.69172939e-02, 5.63909765e-03, 9.39849648e-04, 4.41729315e-02,
          3.19548883e-02, 4.32330817e-02, 1.31578948e-02, 2.16165408e-02,
          3.75939859e-03, 9.39849578e-03, 2.44360901e-02, 4.69924789e-03,
          5.45112789e-02, 4.98120300e-02, 8.45864695e-03, 1.50375944e-02,
          1.87969930e-03, 4.51127812e-02, 3.75939859e-03, 5.63909765e-03,
          2.81954883e-03, 4.60526310e-02, 3.19548883e-02, 1.87969930e-03,
          1.22180451e-02, 6.57894742e-03, 2.81954892e-02, 3.94736826e-02,
          4.69924808e-02, 1.50375944e-02, 2.91353390e-02, 1.30639091e-01,
          1.87969916e-02, 9.39849578e-03, 2.91353390e-02, 1.78571437e-02,
          8.45864695e-03, 3.75939859e-03, 2.81954883e-03, 7.51879662e-02,
          1.76691726e-01, 1.20300755e-01, 1.87969930e-03, 1.03383455e-02,
          1.87969930e-03, 2.81954883e-03, 4.41729315e-02, 8.45864695e-03,
          9.39849578e-03, 9.39849578e-03, 1.12781953e-02, 1.40977446e-02,
          4.41729315e-02, 2.81954883e-03, 4.69924789e-03, 2.53759399e-02,
          0., 2.72556394e-02, 1.59774441e-02, 9.39849648e-04,
          2.16165408e-02, 1.87969930e-03, 2.91353390e-02, 7.47863250e-03,
          1.06837610e-02, 5.34188049e-03, 2.13675224e-03, 4.59401719e-02,
          2.13675224e-03, 2.99145300e-02, 3.20512825e-03, 2.13675224e-03,
          1.28205130e-02, 1.81623939e-02, 1.28205130e-02, 3.20512839e-02,
          2.02991460e-02, 2.99145300e-02, 1.60256419e-02, 2.45726500e-02,
          2.45726500e-02, 2.13675224e-03, 2.35042740e-02, 5.34188049e-03,
          1.60256419e-02, 2.13675224e-03, 1.81623939e-02, 2.13675224e-03,
          0., 2.77777780e-02, 0., 1.60256419e-02, 1.70940179e-02,
          5.34188049e-03, 7.47863250e-03, 4.27350448e-03, 4.27350448e-03,
          4.27350448e-03, 1.06837612e-03, 1.70940179e-02, 9.61538497e-03,
          2.88461540e-02, 8.54700897e-03, 1.06837610e-02, 0.,
          4.27350448e-03, 1.06837612e-03, 9.61538497e-03, 3.20512825e-03,
          5.34188049e-03, 1.49572650e-02, 9.61538497e-03, 2.45726500e-02,
          1.17521370e-02, 6.41025649e-03, 1.06837612e-03, 2.77777780e-02,
          7.47863250e-03, 4.59401719e-02, 2.13675220e-02, 7.47863250e-03,
          7.47863250e-03, 1.06837610e-02, 2.45726500e-02, 4.27350448e-03,
          3.31196599e-02, 6.41025649e-03, 1.28205130e-02, 6.41025649e-03,
          8.01282078e-02, 5.23504280e-02, 1.06837612e-03, 2.35042740e-02,
          3.20512825e-03, 1.06837612e-03, 2.77777780e-02, 1.92307699e-02,
          5.66239320e-02, 3.31196599e-02, 8.54700897e-03, 1.17521370e-02,
          2.13675224e-03, 0., 9.61538497e-03, 3.84615399e-02,
          5.23504280e-02, 3.20512825e-03, 2.13675224e-03, 8.54700897e-03,
          2.13675224e-03, 0., 4.59401719e-02, 4.27350448e-03,
          9.61538497e-03, 7.47863250e-03, 7.79914558e-02, 5.34188040e-02,
          4.91452999e-02, 2.13675220e-02, 6.12745108e-03, 6.98529407e-02,
          3.67647060e-03, 0., 1.83823537e-02, 1.10294120e-02,
          1.83823537e-02, 1.83823537e-02, 4.16666679e-02, 8.57843179e-03,
          2.32843142e-02, 0., 6.74019605e-02, 1.10294120e-02,
          1.96078438e-02, 6.00490198e-02, 2.45098048e-03, 1.22549022e-02,
          3.67647060e-03, 1.71568636e-02, 1.83823537e-02, 0.,
          1.22549024e-03, 2.81862747e-02, 1.27450988e-01, 4.90196096e-03,
          0., 2.45098048e-03, 0., 1.59313735e-02, 1.22549024e-03,
          2.45098043e-02, 1.83823537e-02, 3.30882370e-02, 6.12745108e-03,
          1.22549024e-03, 1.22549022e-02, 4.90196096e-03, 3.67647060e-03,
          1.82598040e-01, 1.34803923e-02, 6.12745108e-03, 7.35294120e-03,
          5.75980395e-02, 8.57843179e-03, 4.90196096e-03, 4.90196096e-03,
          2.45098048e-03, 3.67647060e-03, 2.45098048e-03, 8.57843179e-03,
          1.47058824e-02, 2.08333340e-02, 1.71568636e-02, 3.67647060e-03,
          3.67647060e-03, 2.57352944e-02, 1.83823537e-02, 0.,
          8.57843179e-03, 6.00490198e-02, 6.12745108e-03, 2.14460790e-01,
          1.71568636e-02, 6.12745108e-03, 2.69607846e-02, 3.43137272e-02,
          6.49509802e-02, 1.83823537e-02, 7.35294120e-03, 0., 0.,
          2.45098048e-03, 1.71568632e-01, 0., 1.22549024e-03,
          2.45098043e-02, 1.83823537e-02, 9.55882370e-02, 8.57843179e-03,
          1.83823537e-02, 1.17647059e-01, 2.45098043e-02, 0., 0.,
          6.12745108e-03, 6.12745108e-03, 1.34803923e-02, 2.45098048e-03,
          1.83823537e-02, 1.22549024e-03, 2.20588241e-02, 2.84090918e-03,
          0., 8.09659064e-02, 1.42045459e-03, 1.15056820e-01, 0.,
          5.68181835e-03, 1.27840908e-02, 0., 1.27840908e-02,
          8.52272753e-03, 1.84659082e-02, 1.61931813e-01, 8.52272753e-03,
          1.27840908e-02, 0., 7.52840936e-02, 3.69318165e-02,
          4.26136367e-02, 0., 4.26136376e-03, 2.13068184e-02,
          3.26704532e-02, 2.13068184e-02, 0., 0., 0., 5.68181835e-03, 0.,
          1.27840908e-02, 1.42045459e-03, 2.55681816e-02, 4.11931835e-02,
          4.26136376e-03, 1.42045459e-03, 1.42045459e-03, 1.42045459e-03,
          0., 1.42045459e-03, 5.11363633e-02, 5.68181835e-03,
          2.41477266e-02, 1.98863633e-02, 2.69886367e-02, 1.27840908e-02,
          1.42045459e-02, 8.52272753e-03, 0., 8.52272753e-03, 0.,
          5.53977266e-02, 2.84090918e-03, 2.84090918e-02, 1.42045459e-03,
          2.13068184e-02, 7.10227294e-03, 1.27840908e-02, 1.98863633e-02,
          0., 1.70454551e-02, 2.84090918e-02, 0., 1.42045459e-03,
          7.10227294e-03, 4.82954532e-02, 4.26136376e-03, 7.10227294e-03,
          6.96022734e-02, 8.80681798e-02, 1.13636367e-02, 4.97159101e-02,
          0., 1.13636367e-02, 0., 1.42045459e-02, 4.82954532e-02,
          1.84659082e-02, 5.68181835e-03, 2.13068184e-02, 0., 0.,
          3.26704532e-02, 2.41477266e-02, 0., 0., 2.84090918e-02, 0.,
          5.82386367e-02, 0., 4.97159101e-02, 0., 7.10227294e-03, 0.,
          5.39772734e-02, 9.94318165e-03, 0., 0., 8.52272753e-03,
          3.69318165e-02 ]
      - [ 1.13333337e-01, 1.33333337e-02, 7.49999983e-03, 1.08333332e-02,
          4.99999989e-03, 7.49999983e-03, 2.58333329e-02, 2.66666673e-02,
          5.24999984e-02, 4.16666688e-03, 2.83333343e-02, 5.83333336e-03,
          8.33333377e-03, 9.99999978e-03, 4.16666688e-03, 1.41666671e-02,
          4.16666688e-03, 5.83333336e-03, 1.75000001e-02, 3.08333337e-02,
          7.24999979e-02, 2.50000004e-02, 2.91666668e-02, 8.33333354e-04,
          4.99999989e-03, 7.49999983e-03, 7.99999982e-02, 4.16666688e-03,
          2.91666668e-02, 9.99999978e-03, 1.27499998e-01, 1.99999996e-02,
          4.41666655e-02, 3.33333341e-03, 1.16666667e-02, 2.66666673e-02,
          2.16666665e-02, 4.99999989e-03, 6.41666651e-02, 1.75000001e-02,
          1.99999996e-02, 0., 2.50000004e-02, 3.58333327e-02,
          8.16666633e-02, 9.16666631e-03, 0., 1.66666671e-03,
          5.58333322e-02, 9.83333364e-02, 9.99999978e-03, 1.16666667e-02,
          2.58333329e-02, 1.99999996e-02, 0., 8.08333308e-02,
          4.99999989e-03, 1.83333326e-02, 2.83333343e-02, 9.99999978e-03,
          8.91666636e-02, 6.66666683e-03, 5.58333322e-02, 8.33333377e-03,
          2.74999999e-02, 6.49999976e-02, 1.75000001e-02, 4.16666688e-03,
          1.25000002e-02, 1.75000001e-02, 1.91666670e-02, 7.49999983e-03,
          4.91666682e-02, 1.03333332e-01, 2.49999994e-03, 1.91666670e-02,
          5.83333336e-03, 2.25000009e-02, 1.75000001e-02, 6.16666675e-02,
          8.33333377e-03, 9.99999978e-03, 1.38333336e-01, 3.00751887e-02,
          4.69924789e-03, 6.57894742e-03, 6.57894742e-03, 5.63909765e-03,
          9.39849648e-04, 1.78571437e-02, 1.03383455e-02, 3.00751887e-02,
          3.38345878e-02, 3.75939859e-03, 7.51879718e-03, 3.28947380e-02,
          2.72556394e-02, 1.19360901e-01, 1.40977446e-02, 3.00751887e-02,
          0., 8.45864695e-03, 1.07142858e-01, 6.76691756e-02,
          1.22180451e-02, 2.63157897e-02, 5.63909765e-03, 6.48496225e-02,
          1.12781953e-02, 9.39849648e-04, 7.51879718e-03, 2.44360901e-02,
          1.59774441e-02, 8.45864695e-03, 4.69924808e-02, 0.,
          1.87969930e-03, 3.19548883e-02, 1.12781953e-02, 4.69924808e-02,
          9.86842141e-02, 1.03383455e-02, 7.51879718e-03, 3.28947380e-02,
          3.28947380e-02, 2.44360901e-02, 1.69172939e-02, 8.64661634e-02,
          1.03383455e-02, 1.12781953e-02, 4.69924808e-02, 4.69924789e-03,
          1.02443606e-01, 6.67293221e-02, 2.81954883e-03, 3.47744375e-02,
          9.39849648e-04, 7.51879718e-03, 5.63909765e-03, 8.45864695e-03,
          3.75939859e-03, 5.07518798e-02, 2.25563906e-02, 3.47744375e-02,
          9.39849648e-04, 1.87969930e-03, 1.87969916e-02, 9.39849648e-04,
          7.42481202e-02, 1.33458644e-01, 7.80075192e-02, 7.14285746e-02,
          2.16165408e-02, 1.87969930e-03, 2.25563906e-02, 3.75939859e-03,
          7.51879718e-03, 1.50375944e-02, 4.79323305e-02, 1.31578952e-01,
          7.61278197e-02, 1.07142858e-01, 4.69924789e-03, 1.87969916e-02,
          1.03383455e-02, 9.39849578e-03, 4.98120300e-02, 2.81954883e-03,
          1.50375944e-02, 7.51879718e-03, 1.03383455e-02, 1.03383455e-02,
          3.66541371e-02, 1.87969930e-03, 1.97368413e-02, 3.47744375e-02,
          9.39849648e-04, 1.22180451e-02, 1.31578948e-02, 2.81954883e-03,
          1.50375944e-02, 3.75939859e-03, 2.06766911e-02, 8.54700897e-03,
          9.61538497e-03, 1.17521370e-02, 1.14316240e-01, 1.92307699e-02,
          1.38888890e-02, 3.20512839e-02, 1.06837612e-03, 2.13675220e-02,
          3.95299159e-02, 3.31196599e-02, 1.06837610e-02, 6.83760718e-02,
          3.20512825e-03, 7.47863250e-03, 4.27350448e-03, 2.45726500e-02,
          9.61538479e-02, 8.54700897e-03, 0., 1.49572650e-02,
          1.70940179e-02, 2.13675224e-03, 7.47863278e-02, 1.49572650e-02,
          4.27350448e-03, 3.20512825e-03, 0., 1.17521370e-02,
          2.24358980e-02, 2.02991460e-02, 5.34188049e-03, 1.06837610e-02,
          4.91452999e-02, 1.49572650e-02, 2.13675224e-03, 1.17521370e-02,
          0., 3.95299159e-02, 1.06837612e-03, 2.35042740e-02,
          1.60256419e-02, 9.61538497e-03, 4.59401719e-02, 1.70940179e-02,
          5.34188049e-03, 1.17521370e-02, 7.47863250e-03, 6.08974360e-02,
          1.49572650e-02, 1.17521370e-02, 0., 1.06837610e-02,
          3.31196599e-02, 1.49572650e-02, 8.33333358e-02, 2.67094020e-02,
          1.06837612e-03, 0., 3.41880359e-02, 6.94444478e-02,
          2.56410260e-02, 2.13675224e-03, 9.61538497e-03, 5.34188049e-03,
          0., 2.56410260e-02, 0., 0., 4.27350448e-03, 1.06837610e-02, 0.,
          2.77777780e-02, 1.38888890e-02, 1.28205130e-02, 1.49572650e-02,
          2.13675224e-03, 1.06837612e-03, 2.13675224e-03, 5.34188049e-03,
          2.13675224e-03, 4.27350448e-03, 2.02991460e-02, 2.88461540e-02,
          7.47863250e-03, 7.47863250e-03, 4.16666679e-02, 7.47863250e-03,
          6.83760718e-02, 8.54700897e-03, 2.45726500e-02, 2.13675220e-02,
          5.98290600e-02, 8.76068398e-02, 3.95299159e-02, 4.27350448e-03,
          6.12745108e-03, 1.22549022e-02, 1.47058824e-02, 4.90196096e-03,
          2.45098048e-03, 6.12745108e-03, 7.35294120e-03, 2.69607846e-02,
          2.81862747e-02, 3.67647060e-03, 7.35294120e-03, 1.34803923e-02,
          1.59313735e-02, 0., 6.12745108e-03, 2.45098048e-03,
          3.67647060e-03, 1.10294120e-02, 4.90196096e-03, 2.45098048e-03,
          7.84313753e-02, 3.67647060e-03, 7.35294120e-03, 7.10784346e-02,
          0., 0., 1.22549024e-03, 7.10784346e-02, 1.59313735e-02,
          1.22549024e-03, 1.22549024e-03, 3.67647060e-03, 4.90196096e-03,
          2.94117648e-02, 6.12745108e-03, 7.35294148e-02, 0., 0., 0.,
          1.48284316e-01, 3.67647060e-03, 3.67647060e-03, 1.22549024e-03,
          1.01715684e-01, 1.96078438e-02, 6.12745108e-03, 7.35294120e-03,
          8.57843179e-03, 1.59313735e-02, 6.00490198e-02, 6.12745108e-03,
          2.08333340e-02, 6.49509802e-02, 1.10294120e-02, 6.74019605e-02,
          3.18627469e-02, 0., 1.34803923e-02, 9.80392192e-03,
          1.71568636e-02, 0., 7.35294120e-03, 2.69607846e-02,
          4.90196096e-03, 5.14705889e-02, 2.20588241e-02, 4.90196096e-03,
          9.80392192e-03, 1.10294120e-02, 4.90196096e-03, 0., 0.,
          2.08333340e-02, 2.32843142e-02, 2.45098048e-03, 1.71568636e-02,
          3.92156877e-02, 2.08333340e-02, 2.94117648e-02, 6.12745108e-03,
          9.80392192e-03, 1.15196079e-01, 1.59313735e-02, 6.12745108e-03,
          7.35294120e-03, 1.96078438e-02, 1.96078438e-02, 1.96078438e-02,
          3.67647060e-03, 2.69607846e-02, 0., 1.22549024e-03,
          5.68181835e-03, 0., 1.13636367e-02, 1.42045459e-02, 0.,
          1.27840908e-02, 1.56250000e-02, 4.26136376e-03, 8.52272753e-03,
          0., 0., 2.69886367e-02, 2.21590906e-01, 7.10227294e-03,
          1.56250000e-02, 2.84090918e-03, 1.84659082e-02, 9.23295468e-02,
          1.13636367e-02, 1.42045459e-03, 0., 4.26136376e-03, 0.,
          4.26136376e-03, 1.13636367e-02, 6.96022734e-02, 1.42045459e-03,
          0., 0., 2.13068184e-02, 2.84090918e-03, 8.09659064e-02,
          1.98863633e-02, 7.10227294e-03, 2.84090918e-03, 9.37500000e-02,
          2.84090918e-03, 1.42045459e-03, 2.84090918e-03, 3.97727266e-02,
          0., 5.68181835e-03, 0., 3.40909101e-02, 0., 8.52272753e-03,
          4.26136376e-03, 8.52272753e-03, 3.55113633e-02, 2.84090918e-03,
          4.97159101e-02, 5.68181835e-03, 3.97727266e-02, 1.42045459e-02,
          4.82954532e-02, 9.94318165e-03, 0., 2.84090918e-02, 0., 0.,
          1.42045459e-02, 4.82954532e-02, 0., 0., 0., 0., 0., 0., 0.,
          2.84090918e-03, 1.42045459e-02, 9.65909064e-02, 5.68181835e-03,
          4.26136376e-03, 0., 8.52272753e-03, 9.94318165e-03,
          7.10227294e-03, 2.69886367e-02, 2.84090918e-03, 5.68181835e-03,
          0., 3.97727266e-02, 3.55113633e-02, 8.80681798e-02,
          1.42045459e-03, 4.26136376e-03, 1.70454551e-02, 4.26136376e-03,
          3.40909101e-02, 1.98863633e-02, 5.82386367e-02, 1.27840908e-02,
          5.68181835e-02, 1.42045459e-03, 1.42045459e-03, 7.10227294e-03,
          4.97159101e-02, 3.83522734e-02 ]
      - [ 1.04166664e-01, 1.08333332e-02, 5.83333336e-02, 1.16666667e-02,
          1.66666671e-03, 5.83333336e-03, 1.41666671e-02, 4.91666682e-02,
          7.91666657e-02, 8.33333354e-04, 3.08333337e-02, 2.49999994e-03,
          3.58333327e-02, 2.49999994e-03, 4.16666688e-03, 1.99999996e-02,
          2.16666665e-02, 4.16666688e-03, 1.58333331e-02, 1.25000002e-02,
          7.24999979e-02, 1.49999997e-02, 8.58333334e-02, 8.33333354e-04,
          6.66666683e-03, 7.49999983e-03, 1.99999996e-02, 4.16666688e-03,
          7.08333328e-02, 1.16666667e-02, 8.16666633e-02, 1.91666670e-02,
          3.33333351e-02, 2.49999994e-03, 1.49999997e-02, 5.49999997e-02,
          4.50000018e-02, 4.16666688e-03, 2.33333334e-02, 1.91666670e-02,
          9.16666631e-03, 3.33333341e-03, 1.20833330e-01, 3.75000015e-02,
          3.50000001e-02, 1.75000001e-02, 1.66666671e-03, 1.91666670e-02,
          5.00000007e-02, 2.58333329e-02, 3.33333341e-03, 1.75000001e-02,
          4.08333316e-02, 4.50000018e-02, 7.49999983e-03, 7.50000030e-02,
          1.16666667e-02, 3.16666663e-02, 2.49999994e-03, 3.33333341e-03,
          2.54999995e-01, 7.49999983e-03, 8.91666636e-02, 1.08333332e-02,
          3.08333337e-02, 3.99999991e-02, 3.50000001e-02, 2.49999994e-03,
          2.74999999e-02, 2.99999993e-02, 2.25000009e-02, 6.66666683e-03,
          3.08333337e-02, 9.41666663e-02, 1.66666671e-03, 2.66666673e-02,
          6.66666683e-03, 2.33333334e-02, 2.91666668e-02, 6.58333302e-02,
          4.16666688e-03, 1.58333331e-02, 1.29999995e-01, 3.38345878e-02,
          9.39849578e-03, 1.03383455e-02, 2.81954883e-03, 4.88721803e-02,
          2.81954883e-03, 2.06766911e-02, 2.53759399e-02, 2.91353390e-02,
          6.57894742e-03, 3.75939859e-03, 7.51879718e-03, 3.19548883e-02,
          6.01503775e-02, 4.98120300e-02, 1.78571437e-02, 4.88721803e-02,
          8.45864695e-03, 1.40977446e-02, 1.19360901e-01, 2.63157897e-02,
          8.45864695e-03, 8.45864695e-03, 5.63909765e-03, 5.92105277e-02,
          6.29699230e-02, 6.57894742e-03, 3.75939859e-03, 3.75939831e-02,
          4.69924789e-03, 5.63909765e-03, 6.20300770e-02, 2.81954883e-03,
          3.75939859e-03, 1.97368413e-02, 1.03383455e-02, 7.23684207e-02,
          1.59774441e-02, 9.39849578e-03, 2.81954883e-03, 9.39849578e-03,
          1.31578948e-02, 4.41729315e-02, 1.03383455e-02, 8.17669183e-02,
          5.63909765e-03, 8.45864695e-03, 8.45864695e-03, 8.45864695e-03,
          3.47744375e-02, 2.81954892e-02, 1.03383455e-02, 5.63909765e-03,
          9.39849648e-04, 1.13721803e-01, 1.03383455e-02, 1.50375944e-02,
          2.81954883e-03, 3.38345878e-02, 2.91353390e-02, 3.19548883e-02,
          1.22180451e-02, 1.87969930e-03, 1.50375944e-02, 3.85338329e-02,
          2.25563906e-02, 4.32330817e-02, 4.79323305e-02, 1.25939846e-01,
          5.63909765e-03, 4.69924789e-03, 3.19548883e-02, 1.12781953e-02,
          7.51879718e-03, 8.45864695e-03, 2.06766911e-02, 1.38157889e-01,
          1.99248120e-01, 1.95488721e-01, 3.75939859e-03, 7.51879718e-03,
          0., 2.81954883e-03, 3.66541371e-02, 2.81954883e-03,
          8.45864695e-03, 1.50375944e-02, 3.75939859e-03, 1.59774441e-02,
          5.54511286e-02, 4.69924789e-03, 1.50375944e-02, 4.69924808e-02,
          2.81954883e-03, 1.12781953e-02, 1.69172939e-02, 9.39849648e-04,
          1.22180451e-02, 9.39849648e-04, 2.91353390e-02, 4.27350448e-03,
          7.47863250e-03, 2.13675224e-03, 2.56410260e-02, 4.05982919e-02,
          6.41025649e-03, 1.06837610e-02, 9.61538497e-03, 2.56410260e-02,
          2.45726500e-02, 1.38888890e-02, 1.92307699e-02, 4.05982919e-02,
          1.70940179e-02, 3.20512839e-02, 1.49572650e-02, 2.13675220e-02,
          4.27350448e-03, 1.06837612e-03, 1.06837612e-03, 5.34188049e-03,
          1.06837612e-03, 4.27350448e-03, 4.70085479e-02, 7.47863250e-03,
          6.41025649e-03, 4.16666679e-02, 1.06837612e-03, 1.17521370e-02,
          2.67094020e-02, 7.47863250e-03, 1.06837612e-03, 4.27350448e-03,
          3.20512839e-02, 2.13675224e-03, 1.06837612e-03, 1.06837610e-02,
          1.49572650e-02, 1.70940179e-02, 2.02991460e-02, 4.38034199e-02,
          1.60256419e-02, 6.41025649e-03, 2.99145300e-02, 0.,
          3.20512825e-03, 0., 7.47863250e-03, 7.26495758e-02,
          2.13675220e-02, 6.41025649e-03, 9.61538497e-03, 4.27350448e-03,
          3.20512825e-03, 4.27350448e-03, 1.70940179e-02, 7.47863250e-03,
          2.02991460e-02, 1.38888890e-02, 3.20512825e-03, 2.99145300e-02,
          2.13675224e-03, 9.82905999e-02, 5.34188049e-03, 6.41025649e-03,
          3.20512825e-03, 2.99145300e-02, 4.27350439e-02, 8.54700897e-03,
          1.17521370e-02, 0., 1.06837612e-03, 0., 9.61538497e-03,
          1.28205130e-02, 1.81623939e-02, 5.34188049e-03, 1.60256419e-02,
          0., 1.06837612e-03, 5.34188049e-03, 2.56410260e-02,
          2.45726500e-02, 3.84615399e-02, 1.06837612e-03, 7.26495758e-02,
          5.34188049e-03, 6.41025649e-03, 5.12820520e-02, 1.06837612e-03,
          3.09829060e-02, 1.17521370e-02, 9.61538479e-02, 2.99145300e-02,
          1.49572650e-02, 7.47863250e-03, 2.32843142e-02, 1.34803923e-02,
          2.45098048e-03, 8.57843179e-03, 1.96078438e-02, 2.08333340e-02,
          0., 5.51470593e-02, 1.22549022e-02, 2.57352944e-02, 0.,
          1.34803923e-02, 4.65686284e-02, 1.22549024e-03, 1.71568636e-02,
          3.79901975e-02, 7.35294120e-03, 2.45098048e-03, 9.80392192e-03,
          7.35294120e-03, 1.22549024e-03, 1.71568636e-02, 0.,
          2.08333340e-02, 2.94117648e-02, 4.90196096e-03, 3.67647060e-03,
          3.43137272e-02, 1.22549024e-03, 3.92156877e-02, 0.,
          1.34803923e-02, 5.51470593e-02, 1.71568636e-02, 3.67647060e-03,
          2.08333340e-02, 2.45098048e-03, 3.67647060e-03, 4.90196096e-03,
          1.67892158e-01, 2.57352944e-02, 8.57843179e-03, 1.34803923e-02,
          6.25000000e-02, 4.16666679e-02, 4.90196096e-03, 6.12745108e-03,
          0., 1.47058824e-02, 7.84313753e-02, 4.90196096e-03,
          1.34803923e-02, 2.20588241e-02, 1.71568636e-02, 2.20588241e-02,
          1.22549024e-03, 9.06862766e-02, 7.35294120e-03, 2.45098048e-03,
          1.83823537e-02, 4.41176482e-02, 1.47058824e-02, 1.11519605e-01,
          1.34803923e-02, 5.51470593e-02, 3.67647060e-03, 1.47058824e-02,
          1.59313735e-02, 1.71568636e-02, 1.22549024e-03, 1.22549024e-03,
          0., 0., 3.56617659e-01, 0., 9.80392192e-03, 3.43137272e-02,
          4.90196096e-03, 2.20588241e-02, 1.22549022e-02, 4.04411778e-02,
          1.09068625e-01, 4.41176482e-02, 1.83823537e-02, 4.90196096e-03,
          9.80392192e-03, 1.59313735e-02, 6.12745108e-03, 1.22549024e-03,
          4.16666679e-02, 1.22549024e-03, 7.35294120e-03, 1.27840908e-02,
          9.94318165e-03, 2.55681816e-02, 0., 0., 3.83522734e-02,
          2.41477266e-02, 2.55681816e-02, 2.27272734e-02, 5.68181835e-03,
          1.70454551e-02, 1.56250000e-02, 2.11647734e-01, 3.97727266e-02,
          3.55113633e-02, 2.84090918e-03, 6.39204532e-02, 6.96022734e-02,
          3.12500000e-02, 5.68181835e-03, 4.26136376e-03, 0.,
          7.10227294e-03, 1.42045459e-02, 0., 1.27840908e-02,
          1.27840908e-02, 2.69886367e-02, 1.42045459e-03, 2.69886367e-02,
          0., 1.98863633e-02, 1.98863633e-02, 0., 2.84090918e-03,
          1.70454551e-02, 0., 4.26136376e-03, 0., 4.97159101e-02, 0.,
          3.69318165e-02, 1.13636367e-02, 1.42045459e-02, 4.11931835e-02,
          3.12500000e-02, 1.42045459e-03, 7.10227294e-03, 2.84090918e-03,
          1.42045459e-03, 1.42045459e-02, 4.26136376e-03, 4.11931835e-02,
          1.42045459e-03, 1.42045459e-02, 2.84090918e-03, 0.,
          1.56250000e-02, 0., 8.23863670e-02, 1.70454551e-02,
          2.13068184e-02, 1.98863633e-02, 2.84090918e-03, 3.55113633e-02,
          0., 2.13068184e-02, 1.98863633e-02, 3.12500000e-02,
          4.26136376e-03, 8.52272753e-03, 1.42045459e-03, 5.68181835e-03,
          8.52272753e-03, 0., 1.27840908e-02, 1.98863633e-02,
          4.26136376e-03, 3.40909101e-02, 1.27840908e-02, 0., 0.,
          1.29261360e-01, 0., 1.13636367e-02, 1.13636367e-02, 0.,
          1.42045459e-02, 0., 4.54545468e-02, 7.10227294e-03,
          7.10227294e-03, 2.84090918e-03, 1.06534094e-01, 0.,
          5.68181835e-03, 1.27840908e-02, 3.83522734e-02, 3.12500000e-02 ]
      - [ 9.83333364e-02, 5.66666685e-02, 2.33333334e-02, 1.08333332e-02,
          3.33333341e-03, 3.33333341e-03, 7.49999983e-03, 5.66666685e-02,
          7.16666654e-02, 3.33333341e-03, 1.09166667e-01, 5.83333336e-03,
          4.66666669e-02, 3.33333341e-03, 3.33333341e-03, 2.50000004e-02,
          1.66666675e-02, 4.99999989e-03, 1.91666670e-02, 1.08333332e-02,
          7.58333355e-02, 5.83333336e-03, 7.66666681e-02, 0.,
          8.33333377e-03, 4.16666688e-03, 3.66666652e-02, 2.49999994e-03,
          4.74999994e-02, 9.16666631e-03, 4.25000004e-02, 6.66666683e-03,
          4.08333316e-02, 3.33333341e-03, 6.66666683e-03, 1.41666671e-02,
          1.66666675e-02, 8.33333354e-04, 6.58333302e-02, 2.50000004e-02,
          9.99999978e-03, 8.33333354e-04, 8.83333310e-02, 2.50000004e-02,
          4.16666679e-02, 1.08333332e-02, 4.99999989e-03, 1.25000002e-02,
          4.83333319e-02, 4.50000018e-02, 8.33333354e-04, 9.16666631e-03,
          1.75000001e-02, 2.08333340e-02, 3.33333341e-03, 5.66666685e-02,
          1.41666671e-02, 8.74999985e-02, 1.41666671e-02, 5.83333336e-03,
          2.16666665e-02, 8.33333377e-03, 1.07500002e-01, 2.49999994e-03,
          8.25000033e-02, 3.41666676e-02, 2.25000009e-02, 6.66666683e-03,
          7.49999983e-03, 1.75000001e-02, 2.58333329e-02, 2.49999994e-03,
          3.91666666e-02, 7.58333355e-02, 4.16666688e-03, 2.08333340e-02,
          3.33333341e-03, 3.41666676e-02, 2.58333329e-02, 1.19166665e-01,
          7.49999983e-03, 1.16666667e-02, 5.91666661e-02, 3.19548883e-02,
