%YAML:1.0
my_svm: !!opencv-ml-svm
   svm_type: C_SVC
   kernel: { type:RBF, gamma:5.0625000000000009e-01 }
   C: 6.2500000000000000e+01
   term_criteria: { epsilon:1.1920928955078125e-07, iterations:1000 }
   var_all: 470
   var_count: 470
   class_count: 2
   class_labels: !!opencv-matrix
      rows: 1
      cols: 2
      dt: i
      data: [ 0, 1 ]
   sv_total: 317
   support_vectors:
      - [ 5.83333336e-02, 6.66666701e-02, 4.83333319e-02, 2.50000004e-02,
          2.49999994e-03, 2.49999994e-03, 1.99999996e-02, 1.91666670e-02,
          5.08333333e-02, 4.16666688e-03, 5.75000010e-02, 6.66666683e-03,
          4.91666682e-02, 5.83333336e-03, 2.49999994e-03, 1.41666671e-02,
          2.25000009e-02, 3.33333341e-03, 1.08333332e-02, 3.58333327e-02,
          6.66666701e-02, 1.66666675e-02, 3.24999988e-02, 8.33333354e-04,
          2.74999999e-02, 9.16666631e-03, 2.91666668e-02, 0.,
          3.24999988e-02, 1.83333326e-02, 7.00000003e-02, 2.58333329e-02,
          1.99999996e-02, 3.33333341e-03, 9.16666631e-03, 2.91666668e-02,
          2.91666668e-02, 0., 4.58333343e-02, 2.50000004e-02,
          1.08333332e-02, 2.49999994e-03, 7.75000006e-02, 2.41666660e-02,
          4.41666655e-02, 1.49999997e-02, 3.33333341e-03, 1.58333331e-02,
          3.33333351e-02, 3.58333327e-02, 2.49999994e-03, 9.16666631e-03,
          3.91666666e-02, 6.33333325e-02, 1.08333332e-02, 7.50000030e-02,
          5.83333336e-03, 2.25000009e-02, 2.41666660e-02, 4.16666688e-03,
          2.87499994e-01, 4.99999989e-03, 1.21666670e-01, 5.83333336e-03,
          5.16666658e-02, 1.41666671e-02, 1.83333326e-02, 5.83333336e-03,
          6.66666683e-03, 1.49999997e-02, 9.91666690e-02, 5.83333336e-03,
          3.91666666e-02, 5.75000010e-02, 0., 2.41666660e-02,
          7.49999983e-03, 2.66666673e-02, 1.49999997e-02, 3.83333340e-02,
          6.66666683e-03, 1.49999997e-02, 1.37500003e-01, 2.53759399e-02,
          1.03383455e-02, 6.39097765e-02, 9.39849578e-03, 5.26315793e-02,
          5.63909765e-03, 1.40977446e-02, 3.75939859e-03, 1.69172939e-02,
          2.91353390e-02, 3.75939859e-03, 8.45864695e-03, 1.87969916e-02,
          4.04135324e-02, 2.53759399e-02, 1.40977446e-02, 6.39097765e-02,
          1.87969930e-03, 5.63909765e-03, 9.21052620e-02, 2.81954883e-03,
          1.03383455e-02, 3.19548883e-02, 4.69924789e-03, 5.45112789e-02,
          1.87969916e-02, 2.81954883e-03, 1.12781953e-02, 1.22180451e-02,
          3.10150385e-02, 2.91353390e-02, 6.01503775e-02, 9.39849648e-04,
          3.75939859e-03, 2.16165408e-02, 2.91353390e-02, 8.64661634e-02,
          3.38345878e-02, 7.51879718e-03, 9.39849648e-04, 9.39849615e-02,
          2.63157897e-02, 1.40977446e-02, 2.06766911e-02, 3.85338329e-02,
          1.31578948e-02, 1.40977446e-02, 4.32330817e-02, 6.57894742e-03,
          4.69924808e-02, 2.91353390e-02, 1.22180451e-02, 6.57894742e-03,
          8.45864695e-03, 7.42481202e-02, 1.87969930e-03, 1.12781953e-02,
          2.81954883e-03, 4.22932319e-02, 2.34962404e-02, 1.87969916e-02,
          1.22180451e-02, 7.51879718e-03, 4.69924789e-03, 3.94736826e-02,
          1.97368413e-02, 5.54511286e-02, 3.94736826e-02, 9.77443606e-02,
          8.45864695e-03, 4.69924789e-03, 3.47744375e-02, 1.31578948e-02,
          1.87969916e-02, 1.59774441e-02, 1.50375944e-02, 1.15601502e-01,
          7.14285746e-02, 2.15225562e-01, 0., 1.87969930e-03, 0.,
          3.75939859e-03, 4.04135324e-02, 1.40977446e-02, 1.50375944e-02,
          9.39849648e-04, 1.87969916e-02, 8.45864695e-03, 9.68045145e-02,
          7.51879718e-03, 1.22180451e-02, 1.12781953e-02, 2.81954883e-03,
          1.31578948e-02, 7.51879718e-03, 6.57894742e-03, 1.87969916e-02,
          2.81954883e-03, 2.63157897e-02, 8.54700897e-03, 1.70940179e-02,
          4.27350448e-03, 7.47863278e-02, 3.31196599e-02, 1.17521370e-02,
          8.54700897e-03, 7.47863250e-03, 1.28205130e-02, 2.35042740e-02,
          1.17521370e-02, 5.23504280e-02, 2.24358980e-02, 2.45726500e-02,
          3.63247879e-02, 5.34188049e-03, 3.31196599e-02, 1.11111112e-01,
          5.34188049e-03, 1.28205130e-02, 0., 1.38888890e-02,
          9.61538497e-03, 3.20512839e-02, 9.61538497e-03, 1.28205130e-02,
          9.61538497e-03, 0., 1.92307699e-02, 2.35042740e-02,
          2.13675220e-02, 1.70940179e-02, 1.06837612e-03, 1.06837610e-02,
          1.06837610e-02, 2.13675220e-02, 2.13675224e-03, 2.13675224e-03,
          2.45726500e-02, 5.34188049e-03, 4.16666679e-02, 1.28205130e-02,
          2.13675224e-03, 1.06837610e-02, 1.81623939e-02, 9.61538497e-03,
          1.06837612e-03, 1.17521370e-02, 2.35042740e-02, 3.20512825e-03,
          7.47863250e-03, 7.47863250e-03, 8.54700897e-03, 3.20512839e-02,
          6.08974360e-02, 2.77777780e-02, 1.49572650e-02, 1.70940179e-02,
          7.15811998e-02, 3.20512825e-03, 3.31196599e-02, 0.,
          5.44871800e-02, 1.06837612e-03, 1.06837610e-02, 2.13675224e-03,
          6.08974360e-02, 3.73931639e-02, 7.47863250e-03, 1.92307699e-02,
          5.34188049e-03, 1.06837612e-03, 1.92307699e-02, 2.99145300e-02,
          3.41880359e-02, 1.38888890e-02, 2.99145300e-02, 5.34188049e-03,
          7.47863250e-03, 2.45726500e-02, 2.13675224e-03, 6.41025649e-03,
          3.31196599e-02, 1.06837612e-03, 0., 1.38888896e-01,
          9.61538497e-03, 2.13675224e-03, 8.76068398e-02, 5.34188049e-03,
          9.61538497e-03, 2.02991460e-02, 1.38888896e-01, 3.95299159e-02,
          2.02991460e-02, 1.06837610e-02, 1.47058824e-02, 5.39215691e-02,
          1.47058824e-02, 4.90196096e-03, 6.12745108e-03, 3.67647060e-03,
          2.08333340e-02, 1.71568636e-02, 9.80392192e-03, 6.12745108e-03,
          4.90196096e-03, 1.47058824e-02, 2.94117648e-02, 1.22549024e-03,
          4.28921580e-02, 1.47058824e-02, 9.80392192e-03, 2.57352944e-02,
          0., 1.22549024e-03, 1.11519605e-01, 0., 3.67647060e-03,
          2.45098048e-03, 2.45098043e-02, 8.57843179e-03, 1.22549022e-02,
          9.80392192e-03, 6.12745108e-03, 7.35294120e-03, 0.,
          1.34803923e-02, 5.51470593e-02, 2.81862747e-02, 1.59313735e-02,
          8.57843179e-03, 0., 3.67647060e-03, 2.45098048e-03,
          2.12009802e-01, 4.90196096e-03, 1.10294120e-02, 2.32843142e-02,
          2.20588241e-02, 3.30882370e-02, 2.45098048e-03, 8.57843179e-03,
          0., 1.22549022e-02, 1.10294120e-02, 9.80392192e-03,
          3.06372549e-02, 2.20588241e-02, 6.12745108e-03, 2.81862747e-02,
          0., 4.28921580e-02, 8.57843179e-03, 7.35294120e-03,
          1.22549024e-03, 4.77941185e-02, 2.69607846e-02, 1.76470593e-01,
          1.71568636e-02, 2.45098043e-02, 1.22549022e-02, 2.69607846e-02,
          2.45098043e-02, 4.53431383e-02, 3.67647060e-03, 1.22549024e-03,
          3.67647060e-03, 1.22549024e-03, 3.83578420e-01, 0.,
          6.12745108e-03, 6.12745099e-02, 3.67647060e-03, 2.08333340e-02,
          1.47058824e-02, 7.59803951e-02, 1.27450988e-01, 3.18627469e-02,
          0., 1.22549024e-03, 2.20588241e-02, 1.10294120e-02,
          1.83823537e-02, 0., 3.79901975e-02, 0., 8.57843179e-03,
          1.70454551e-02, 1.42045459e-03, 7.81250000e-02, 2.55681816e-02,
          6.10795468e-02, 2.84090918e-03, 4.26136376e-03, 2.13068184e-02,
          4.26136376e-03, 2.84090918e-03, 4.26136376e-03, 1.27840908e-02,
          2.88352281e-01, 1.13636367e-02, 1.70454551e-02, 0.,
          3.40909101e-02, 1.42045459e-02, 4.11931835e-02, 1.42045459e-03,
          1.98863633e-02, 0., 1.42045459e-02, 1.42045459e-02, 0.,
          1.42045459e-03, 8.52272753e-03, 2.84090918e-03, 0., 0.,
          4.82954532e-02, 5.68181835e-02, 2.41477266e-02, 7.10227294e-03,
          5.68181835e-03, 0., 8.52272753e-03, 1.13636367e-02, 0.,
          1.43465906e-01, 0., 1.42045459e-03, 1.56250000e-02,
          2.69886367e-02, 4.40340899e-02, 2.98295449e-02, 2.84090918e-03,
          5.68181835e-03, 2.84090918e-03, 1.42045459e-03, 2.13068184e-02,
          0., 9.23295468e-02, 4.26136376e-03, 1.42045459e-03,
          1.42045459e-02, 5.68181835e-03, 1.42045459e-03, 2.84090918e-03,
          3.40909101e-02, 8.52272753e-03, 3.26704532e-02, 2.84090918e-02,
          2.84090918e-03, 2.98295449e-02, 4.26136376e-03, 9.94318165e-03,
          5.82386367e-02, 1.00852273e-01, 2.84090918e-03, 9.94318165e-03,
          2.84090918e-03, 9.94318165e-03, 2.98295449e-02, 2.84090918e-03,
          1.84659082e-02, 5.11363633e-02, 1.98863633e-02, 8.52272753e-03,
          9.94318165e-03, 8.52272753e-03, 0., 1.70454551e-02,
          2.84090918e-03, 4.26136376e-03, 8.52272753e-03, 0.,
          1.98863633e-02, 0., 4.11931835e-02, 1.42045459e-03,
          5.53977266e-02, 1.42045459e-03, 2.84090918e-02, 0.,
          2.98295449e-02, 2.84090918e-03, 2.27272734e-02, 3.26704532e-02 ]
      - [ 8.66666660e-02, 8.58333334e-02, 9.83333364e-02, 2.33333334e-02,
          1.66666671e-03, 5.83333336e-03, 1.08333332e-02, 2.99999993e-02,
          7.99999982e-02, 8.33333354e-04, 7.66666681e-02, 6.66666683e-03,
          2.33333334e-02, 6.66666683e-03, 0., 1.41666671e-02,
          8.08333308e-02, 4.16666688e-03, 1.33333337e-02, 2.41666660e-02,
          3.50000001e-02, 1.75000001e-02, 4.83333319e-02, 0.,
          8.33333377e-03, 4.16666688e-03, 2.58333329e-02, 6.66666683e-03,
          6.83333352e-02, 1.66666675e-02, 5.49999997e-02, 3.91666666e-02,
          3.16666663e-02, 6.66666683e-03, 1.66666671e-03, 9.16666631e-03,
          1.41666671e-02, 8.33333377e-03, 1.29166663e-01, 1.33333337e-02,
          1.49999997e-02, 0., 5.08333333e-02, 2.83333343e-02,
          2.50000004e-02, 1.33333337e-02, 8.33333354e-04, 4.16666688e-03,
          8.83333310e-02, 3.33333351e-02, 8.33333354e-04, 3.33333341e-03,
          1.91666670e-02, 7.49999983e-03, 4.16666688e-03, 6.75000027e-02,
          1.49999997e-02, 7.08333328e-02, 8.33333377e-03, 1.41666671e-02,
          4.83333319e-02, 1.75000001e-02, 9.41666663e-02, 9.16666631e-03,
          4.74999994e-02, 8.83333310e-02, 4.91666682e-02, 7.49999983e-03,
          9.16666631e-03, 2.33333334e-02, 1.33333337e-02, 8.33333377e-03,
          5.49999997e-02, 1.14166670e-01, 6.66666683e-03, 1.58333331e-02,
          4.16666688e-03, 2.58333329e-02, 2.74999999e-02, 6.75000027e-02,
          6.66666683e-03, 1.08333332e-02, 1.50000006e-01, 2.06766911e-02,
          1.50375944e-02, 2.34962404e-02, 9.39849648e-04, 9.02255625e-02,
          9.39849578e-03, 1.22180451e-02, 8.45864695e-03, 2.25563906e-02,
          1.78571437e-02, 9.39849648e-04, 2.81954883e-03, 2.34962404e-02,
          7.42481202e-02, 7.51879662e-02, 1.59774441e-02, 7.33082741e-02,
          6.57894742e-03, 2.81954883e-03, 5.73308282e-02, 9.39849648e-04,
          9.39849578e-03, 1.59774441e-02, 4.69924789e-03, 2.25563906e-02,
          5.07518798e-02, 1.87969930e-03, 3.75939859e-03, 1.50375944e-02,
          3.94736826e-02, 1.40977446e-02, 2.91353390e-02, 9.39849648e-04,
          1.87969930e-03, 1.97368413e-02, 1.40977446e-02, 7.23684207e-02,
          3.00751887e-02, 1.50375944e-02, 0., 2.63157897e-02,
          1.78571437e-02, 2.81954883e-03, 1.87969916e-02, 8.08270648e-02,
          8.45864695e-03, 4.69924789e-03, 9.11654159e-02, 0.,
          1.31578948e-02, 1.87969930e-03, 6.57894742e-03, 1.12781953e-02,
          0., 5.16917296e-02, 1.87969930e-03, 4.69924789e-03, 0.,
          2.06766911e-02, 1.87969916e-02, 3.00751887e-02, 4.69924789e-03,
          1.50375944e-02, 1.12781953e-02, 9.39849578e-03, 3.75939859e-03,
          2.09586471e-01, 6.48496225e-02, 9.86842141e-02, 9.39849648e-04,
          0., 1.12781953e-02, 5.63909765e-03, 5.63909765e-03,
          2.53759399e-02, 8.27067643e-02, 1.37218043e-01, 2.55639106e-01,
          9.58646610e-02, 8.45864695e-03, 1.59774441e-02, 7.51879718e-03,
          1.87969930e-03, 5.07518798e-02, 2.81954883e-03, 5.63909765e-03,
          6.57894742e-03, 9.39849578e-03, 4.69924789e-03, 6.48496225e-02,
          0., 4.69924789e-03, 6.48496225e-02, 5.63909765e-03,
          1.78571437e-02, 3.10150385e-02, 1.03383455e-02, 3.75939831e-02,
          3.75939859e-03, 2.25563906e-02, 6.41025649e-03, 1.06837612e-03,
          1.28205130e-02, 1.06837608e-01, 2.67094020e-02, 1.38888890e-02,
          2.67094020e-02, 5.34188049e-03, 1.38888890e-02, 1.60256419e-02,
          5.34188049e-03, 8.54700897e-03, 2.67094020e-02, 8.86752158e-02,
          5.02136759e-02, 0., 9.61538497e-03, 3.52564119e-02,
          7.47863250e-03, 5.98290600e-02, 3.20512825e-03, 3.20512825e-03,
          8.54700897e-03, 2.24358980e-02, 9.61538497e-03, 6.41025649e-03,
          4.48717959e-02, 0., 1.06837610e-02, 3.20512839e-02,
          1.81623939e-02, 1.38888890e-02, 5.34188049e-03, 2.24358980e-02,
          9.61538497e-03, 4.27350448e-03, 1.38888890e-02, 1.06837612e-03,
          3.52564119e-02, 2.13675224e-03, 7.47863278e-02, 1.81623939e-02,
          1.49572650e-02, 3.09829060e-02, 6.41025649e-03, 2.24358980e-02,
          0., 2.13675224e-03, 5.87606840e-02, 9.61538497e-03,
          1.49572650e-02, 5.34188049e-03, 2.13675224e-03, 6.73076957e-02,
          3.50427359e-01, 2.13675224e-03, 0., 2.13675224e-03,
          6.51709437e-02, 1.17521370e-02, 8.54700897e-03, 1.06837612e-03,
          4.16666679e-02, 2.13675224e-03, 8.54700897e-03, 4.27350448e-03,
          8.54700897e-03, 1.06837610e-02, 2.13675224e-03, 1.06837610e-02,
          5.34188049e-03, 7.47863250e-03, 3.20512825e-03, 8.54700897e-03,
          2.13675224e-03, 0., 3.20512825e-03, 2.99145300e-02,
          1.70940179e-02, 1.38888890e-02, 8.54700897e-03, 5.76923080e-02,
          4.16666679e-02, 3.09829060e-02, 1.17521370e-02, 1.60256419e-02,
          1.06837610e-02, 1.38888890e-02, 3.41880359e-02, 1.81623939e-02,
          8.54700897e-03, 4.27350448e-03, 9.40170959e-02, 3.31196599e-02,
          4.38034199e-02, 3.20512825e-03, 3.18627469e-02, 4.77941185e-02,
          1.22549024e-03, 0., 1.22549022e-02, 1.47058824e-02,
          1.34803923e-02, 5.14705889e-02, 4.04411778e-02, 2.57352944e-02,
          4.90196096e-03, 1.22549022e-02, 1.22549022e-02, 1.22549024e-03,
          1.22549024e-03, 2.20588241e-02, 1.34803923e-02, 1.83823537e-02,
          0., 0., 3.06372549e-02, 1.22549024e-03, 9.80392192e-03, 0.,
          7.96568617e-02, 2.69607846e-02, 4.90196096e-03, 1.96078438e-02,
          3.67647060e-03, 2.94117648e-02, 3.67647060e-03, 9.80392192e-03,
          2.81862747e-02, 1.22549022e-02, 1.34803923e-02, 1.59313735e-02,
          3.67647060e-03, 0., 1.22549024e-03, 2.07107842e-01, 0.,
          3.43137272e-02, 2.32843142e-02, 1.22549024e-03, 7.47549012e-02,
          1.47058824e-02, 2.45098043e-02, 0., 0., 3.67647074e-02,
          1.96078438e-02, 8.57843179e-03, 0., 1.10294120e-02,
          4.90196096e-03, 0., 2.69607846e-02, 0., 1.22549024e-03,
          1.10294120e-02, 9.80392192e-03, 1.47058824e-02, 7.59803951e-02,
          7.35294120e-03, 6.25000000e-02, 0., 2.45098048e-03, 0.,
          3.67647060e-03, 1.10294120e-02, 3.30882370e-02, 2.32843142e-02,
          1.71568636e-02, 1.71568636e-02, 0., 0., 7.35294120e-03,
          2.32843142e-02, 2.08333340e-02, 6.12745108e-03, 3.30882370e-02,
          7.10784346e-02, 2.81862747e-02, 2.32843142e-02, 2.57352944e-02,
          2.45098048e-03, 4.41176482e-02, 1.71568636e-02, 2.45098048e-03,
          1.71568636e-02, 1.83823537e-02, 3.67647060e-03, 9.94318165e-03,
          9.94318165e-03, 4.40340899e-02, 0., 4.26136367e-02,
          4.26136376e-03, 1.84659082e-02, 5.68181835e-03, 2.84090918e-03,
          8.52272753e-03, 0., 4.26136367e-02, 2.03125000e-01,
          3.69318165e-02, 2.69886367e-02, 9.94318165e-03, 1.42045459e-02,
          4.54545468e-02, 2.98295449e-02, 4.26136376e-03, 7.52840936e-02,
          0., 5.68181835e-03, 2.84090918e-03, 2.84090918e-03,
          1.56250000e-02, 1.70454551e-02, 2.13068184e-02, 2.84090918e-03,
          2.84090918e-03, 1.27840908e-02, 7.38636330e-02, 5.68181835e-03,
          1.42045459e-02, 5.68181835e-03, 5.68181835e-03, 2.13068184e-02,
          0., 5.68181835e-03, 6.53409064e-02, 0., 0., 6.25000000e-02,
          4.26136376e-03, 2.84090918e-02, 4.54545468e-02, 0.,
          9.94318165e-03, 1.42045459e-03, 2.84090918e-02, 2.13068184e-02,
          0., 4.68750000e-02, 1.42045459e-02, 0., 0., 0., 1.13636367e-02,
          0., 2.27272734e-02, 0., 5.11363633e-02, 2.84090918e-03, 0.,
          4.26136376e-03, 0., 0., 4.54545468e-02, 1.56250000e-02, 0.,
          2.84090918e-03, 1.34943187e-01, 0., 0., 0., 0., 1.42045459e-03,
          0., 0., 5.68181835e-03, 2.84090918e-03, 1.56250000e-02,
          1.20738633e-01, 1.42045459e-02, 5.82386367e-02, 1.27840908e-02,
          5.68181835e-03, 4.82954532e-02, 0., 6.25000000e-02, 0.,
          7.10227294e-03, 0., 6.96022734e-02, 2.84090918e-03,
          1.42045459e-03, 1.42045459e-03, 1.42045459e-02, 2.84090918e-02 ]
      - [ 9.74999964e-02, 2.58333329e-02, 1.99999996e-02, 3.41666676e-02,
          8.33333354e-04, 5.83333336e-03, 3.83333340e-02, 4.33333330e-02,
          8.41666684e-02, 5.83333336e-03, 5.24999984e-02, 1.66666671e-03,
          0., 2.49999994e-03, 8.33333354e-04, 2.08333340e-02,
          3.75000015e-02, 7.49999983e-03, 1.41666671e-02, 1.99999996e-02,
          3.08333337e-02, 1.16666667e-02, 6.75000027e-02, 1.66666671e-03,
          1.99999996e-02, 1.41666671e-02, 1.75000001e-02, 2.49999994e-03,
          5.08333333e-02, 1.33333337e-02, 7.91666657e-02, 2.41666660e-02,
          2.50000004e-02, 4.99999989e-03, 1.25000002e-02, 5.08333333e-02,
          2.50000004e-02, 2.49999994e-03, 4.74999994e-02, 1.75000001e-02,
          4.99999989e-03, 2.49999994e-03, 1.14166670e-01, 5.00000007e-02,
          1.91666670e-02, 1.25000002e-02, 3.33333341e-03, 9.16666631e-03,
          3.16666663e-02, 1.58333331e-02, 2.49999994e-03, 3.16666663e-02,
          7.83333331e-02, 3.83333340e-02, 5.83333336e-03, 6.58333302e-02,
          2.33333334e-02, 1.02499999e-01, 8.33333354e-04, 0.,
          7.66666681e-02, 1.08333332e-02, 1.45833328e-01, 1.66666671e-03,
          4.08333316e-02, 3.91666666e-02, 8.50000009e-02, 5.83333336e-03,
          2.66666673e-02, 1.08333332e-02, 3.75000015e-02, 5.83333336e-03,
          7.24999979e-02, 7.83333331e-02, 5.83333336e-03, 9.16666631e-03,
          5.83333336e-03, 3.66666652e-02, 1.91666670e-02, 9.91666690e-02,
          4.99999989e-03, 3.33333341e-03, 1.20833330e-01, 3.19548883e-02,
          2.53759399e-02, 2.81954883e-03, 9.39849648e-04, 1.22180451e-02,
          6.57894742e-03, 4.69924789e-03, 7.51879718e-03, 3.47744375e-02,
          1.50375944e-02, 9.39849578e-03, 2.81954883e-03, 3.00751887e-02,
          5.63909784e-02, 8.27067643e-02, 1.40977446e-02, 9.49248150e-02,
          3.75939859e-03, 9.39849578e-03, 5.26315793e-02, 5.07518798e-02,
          1.31578948e-02, 1.03383455e-02, 1.31578948e-02, 1.69172939e-02,
          4.04135324e-02, 1.22180451e-02, 4.69924789e-03, 1.78571437e-02,
          2.81954883e-03, 1.31578948e-02, 1.78571437e-02, 1.87969930e-03,
          9.39849648e-04, 2.53759399e-02, 1.69172939e-02, 2.53759399e-02,
          1.12781953e-02, 7.51879718e-03, 2.81954883e-03, 6.10902272e-02,
          1.40977446e-02, 4.60526310e-02, 4.69924808e-02, 5.35714291e-02,
          6.57894742e-03, 9.39849578e-03, 2.34962404e-02, 7.51879718e-03,
          1.87969930e-03, 4.22932319e-02, 1.22180451e-02, 1.22180451e-02,
          1.31578948e-02, 1.18421055e-01, 6.57894742e-03, 1.87969930e-03,
          9.39849648e-04, 3.75939831e-02, 4.41729315e-02, 1.69172939e-02,
          8.45864695e-03, 4.69924789e-03, 1.12781953e-02, 2.53759399e-02,
          1.40977446e-02, 1.36278197e-01, 3.47744375e-02, 4.04135324e-02,
          4.69924789e-03, 4.69924789e-03, 7.98872188e-02, 1.03383455e-02,
          0., 0., 4.69924789e-03, 2.34022558e-01, 2.26503760e-01,
          3.05451125e-01, 0., 1.87969930e-03, 2.81954883e-03,
          1.87969930e-03, 2.44360901e-02, 1.87969930e-03, 9.39849648e-04,
          8.45864695e-03, 9.39849648e-04, 1.12781953e-02, 1.93609029e-01,
          0., 6.57894742e-03, 4.88721803e-02, 0., 3.75939831e-02,
          2.44360901e-02, 9.39849648e-04, 6.57894742e-03, 1.87969930e-03,
          2.53759399e-02, 5.34188049e-03, 7.47863250e-03, 2.13675220e-02,
          6.62393197e-02, 1.49572650e-02, 2.13675224e-03, 8.54700897e-03,
          1.92307699e-02, 2.13675220e-02, 3.20512839e-02, 3.20512839e-02,
          2.88461540e-02, 5.44871800e-02, 2.24358980e-02, 5.23504280e-02,
          2.13675224e-03, 4.27350448e-03, 1.17521370e-02, 1.70940179e-02,
          1.92307699e-02, 8.54700897e-03, 2.13675224e-03, 1.60256419e-02,
          3.20512825e-03, 1.06837610e-02, 3.09829060e-02, 1.81623939e-02,
          5.34188049e-03, 1.81623939e-02, 7.47863250e-03, 4.27350448e-03,
          3.20512825e-03, 1.06837610e-02, 1.28205130e-02, 7.47863250e-03,
          6.41025649e-03, 0., 2.13675224e-03, 2.88461540e-02,
          1.06837612e-03, 2.56410260e-02, 2.77777780e-02, 1.38888890e-02,
          2.35042740e-02, 2.13675224e-03, 1.92307699e-02, 5.34188049e-03,
          7.47863250e-03, 3.73931639e-02, 1.28205130e-02, 1.60256419e-02,
          9.61538497e-03, 1.60256419e-02, 1.17521370e-02, 1.14316240e-01,
          0., 1.06837612e-03, 1.38888890e-02, 1.60256419e-02,
          8.54700897e-03, 7.47863250e-03, 1.06837612e-03, 1.10042736e-01,
          1.17521370e-02, 9.61538497e-03, 7.47863250e-03, 3.63247879e-02,
          2.99145300e-02, 0., 1.49572650e-02, 2.13675224e-03,
          4.27350448e-03, 0., 6.62393197e-02, 4.91452999e-02,
          3.41880359e-02, 9.61538497e-03, 2.99145300e-02, 2.13675224e-03,
          0., 2.13675224e-03, 3.20512839e-02, 1.70940179e-02,
          3.95299159e-02, 0., 4.27350448e-03, 3.20512825e-03,
          2.13675224e-03, 3.31196599e-02, 2.13675224e-03, 1.81623939e-02,
          1.60256419e-02, 6.19658120e-02, 6.94444478e-02, 3.41880359e-02,
          4.27350448e-03, 2.20588241e-02, 1.22549024e-03, 3.67647060e-03,
          1.96078438e-02, 2.45098048e-03, 1.22549022e-02, 7.35294120e-03,
          2.45098043e-02, 6.12745108e-03, 3.67647060e-03, 2.45098048e-03,
          4.90196096e-03, 2.45098048e-03, 6.12745108e-03, 3.67647060e-03,
          0., 0., 1.34803923e-02, 3.67647060e-03, 3.67647060e-03,
          1.10294120e-02, 4.90196096e-03, 1.83823537e-02, 3.79901975e-02,
          4.90196096e-03, 1.47058824e-02, 1.96078438e-02, 4.90196096e-03,
          3.67647060e-03, 1.83823537e-02, 2.08333340e-02, 3.06372549e-02,
          4.16666679e-02, 3.18627469e-02, 1.22549024e-03, 9.80392192e-03,
          3.67647060e-03, 2.45098048e-03, 2.45098048e-03, 2.20588237e-01,
          0., 0., 7.35294120e-03, 3.43137272e-02, 1.10294120e-02,
          1.47058824e-02, 1.83823537e-02, 1.22549024e-03, 1.34803923e-02,
          1.71568636e-02, 2.32843142e-02, 6.12745108e-03, 2.20588241e-02,
          3.79901975e-02, 1.22549024e-03, 0., 1.04166664e-01, 0.,
          2.45098048e-03, 3.67647060e-03, 2.08333340e-02, 8.57843179e-03,
          1.83823526e-01, 1.22549022e-02, 1.47058824e-02, 1.22549024e-03,
          2.81862747e-02, 6.37254938e-02, 4.16666679e-02, 0., 0., 0., 0.,
          5.14705889e-02, 0., 0., 3.30882370e-02, 7.35294120e-03,
          3.79901975e-02, 1.71568636e-02, 1.48284316e-01, 1.12745099e-01,
          2.08333340e-02, 6.12745108e-03, 1.22549024e-03, 1.96078438e-02,
          7.10784346e-02, 2.57352944e-02, 4.90196096e-03, 4.16666679e-02,
          0., 1.22549024e-03, 8.52272753e-03, 1.09375000e-01,
          1.42045459e-03, 0., 4.26136376e-03, 0., 0., 3.26704532e-02,
          2.84090918e-03, 0., 4.26136376e-03, 0., 2.51420468e-01,
          4.26136376e-03, 2.27272734e-02, 1.42045459e-03, 4.26136376e-03,
          5.11363633e-02, 1.70454551e-02, 1.56250000e-02, 2.27272734e-02,
          4.26136376e-03, 1.70454551e-02, 1.42045459e-02, 1.42045459e-03,
          2.84090918e-03, 5.25568165e-02, 1.42045459e-02, 1.56250000e-02,
          1.98863633e-02, 7.10227294e-03, 3.12500000e-02, 2.69886367e-02,
          0., 2.84090918e-03, 5.68181835e-03, 1.70454551e-02, 0., 0.,
          6.53409064e-02, 5.68181835e-03, 0., 0., 3.97727266e-02,
          2.55681816e-02, 4.26136376e-03, 2.84090918e-03, 2.13068184e-02,
          1.98863633e-02, 2.27272734e-02, 1.84659082e-02, 1.42045459e-02,
          4.40340899e-02, 5.68181835e-03, 0., 0., 3.40909101e-02,
          2.41477266e-02, 0., 1.12215906e-01, 0., 1.84659082e-02, 0.,
          1.27840908e-02, 1.84659082e-02, 9.94318165e-03, 4.26136376e-03,
          6.39204532e-02, 5.68181835e-02, 2.98295449e-02, 1.42045459e-03,
          1.06534094e-01, 3.12500000e-02, 3.12500000e-02, 1.42045459e-03,
          6.39204532e-02, 6.96022734e-02, 4.26136376e-03, 2.41477266e-02,
          4.26136376e-03, 0., 1.42045459e-03, 3.82102281e-01, 0.,
          1.13636367e-02, 0., 0., 2.13068184e-02, 4.26136376e-03,
          4.54545468e-02, 0., 1.56250000e-02, 2.69886367e-02, 0., 0., 0.,
          5.68181835e-03, 3.26704532e-02, 2.98295449e-02 ]
      - [ 9.16666687e-02, 4.08333316e-02, 5.99999987e-02, 2.91666668e-02,
          0., 9.99999978e-03, 2.08333340e-02, 3.24999988e-02,
          8.33333358e-02, 6.66666683e-03, 3.99999991e-02, 6.66666683e-03,
          1.16666667e-02, 5.83333336e-03, 4.16666688e-03, 1.49999997e-02,
          2.58333329e-02, 8.33333377e-03, 8.33333377e-03, 1.75000001e-02,
          6.83333352e-02, 1.58333331e-02, 8.41666684e-02, 8.33333354e-04,
          1.25000002e-02, 4.16666688e-03, 1.58333331e-02, 2.49999994e-03,
          3.83333340e-02, 9.16666631e-03, 1.46666661e-01, 2.66666673e-02,
          2.25000009e-02, 8.33333377e-03, 1.41666671e-02, 2.33333334e-02,
          3.91666666e-02, 1.66666671e-03, 8.50000009e-02, 9.16666631e-03,
          1.66666671e-03, 0., 7.33333305e-02, 2.08333340e-02,
          5.83333336e-03, 4.16666688e-03, 0., 7.49999983e-03,
          7.66666681e-02, 9.99999978e-03, 4.99999989e-03, 9.16666631e-03,
          2.91666668e-02, 5.16666658e-02, 1.33333337e-02, 6.41666651e-02,
          1.41666671e-02, 1.30833328e-01, 3.33333341e-03, 1.66666671e-03,
          1.29166663e-01, 2.49999994e-03, 9.33333337e-02, 2.49999994e-03,
          7.83333331e-02, 2.74999999e-02, 7.24999979e-02, 9.99999978e-03,
          2.74999999e-02, 7.49999983e-03, 5.41666672e-02, 2.49999994e-03,
          5.16666658e-02, 5.33333346e-02, 3.33333341e-03, 2.99999993e-02,
          2.49999994e-03, 3.24999988e-02, 2.83333343e-02, 7.99999982e-02,
          4.99999989e-03, 2.08333340e-02, 9.00000036e-02, 1.97368413e-02,
          2.44360901e-02, 1.22180451e-02, 2.81954883e-03, 4.60526310e-02,
          1.87969930e-03, 1.59774441e-02, 8.45864695e-03, 2.25563906e-02,
          3.75939859e-03, 6.57894742e-03, 9.39849578e-03, 2.34962404e-02,
          4.98120300e-02, 1.19360901e-01, 1.97368413e-02, 7.80075192e-02,
          6.57894742e-03, 2.06766911e-02, 4.13533822e-02, 2.72556394e-02,
          2.81954892e-02, 3.75939859e-03, 1.50375944e-02, 5.45112789e-02,
          5.54511286e-02, 9.39849648e-04, 9.39849648e-04, 1.59774441e-02,
          3.75939859e-03, 2.81954883e-03, 5.35714291e-02, 0., 0.,
          2.91353390e-02, 1.03383455e-02, 5.73308282e-02, 1.03383455e-02,
          1.78571437e-02, 1.87969930e-03, 1.87969930e-03, 1.12781953e-02,
          1.97368413e-02, 1.87969916e-02, 4.98120300e-02, 1.87969930e-03,
          1.69172939e-02, 8.08270648e-02, 5.63909765e-03, 4.98120300e-02,
          1.97368413e-02, 3.75939859e-03, 1.78571437e-02, 5.63909765e-03,
          6.29699230e-02, 0., 2.81954883e-03, 0., 5.82706779e-02,
          2.53759399e-02, 3.10150385e-02, 1.87969930e-03, 2.81954883e-03,
          1.31578948e-02, 1.40977446e-02, 4.04135324e-02, 1.76691726e-01,
          4.60526310e-02, 6.10902272e-02, 1.40977446e-02, 2.81954883e-03,
          1.22180451e-02, 1.22180451e-02, 2.81954883e-03, 0.,
          2.16165408e-02, 1.64473683e-01, 1.51315793e-01, 2.99812019e-01,
          0., 6.57894742e-03, 1.87969930e-03, 3.75939859e-03,
          3.47744375e-02, 5.63909765e-03, 7.51879718e-03, 4.69924789e-03,
          4.69924789e-03, 9.39849578e-03, 7.80075192e-02, 9.39849578e-03,
          2.81954883e-03, 3.57142873e-02, 0., 1.87969916e-02,
          3.19548883e-02, 9.39849648e-04, 1.59774441e-02, 0.,
          2.34962404e-02, 2.13675224e-03, 2.13675224e-03, 9.61538497e-03,
          2.88461540e-02, 1.28205130e-02, 1.17521370e-02, 8.54700897e-03,
          4.27350448e-03, 3.52564119e-02, 1.17521370e-02, 4.27350448e-03,
          1.06837612e-03, 2.99145300e-02, 3.41880359e-02, 3.20512839e-02,
          5.34188049e-03, 0., 4.27350448e-03, 5.34188049e-03,
          2.24358980e-02, 9.61538497e-03, 0., 2.24358980e-02,
          3.52564119e-02, 5.34188049e-03, 2.45726500e-02, 3.84615399e-02,
          0., 1.49572650e-02, 1.70940179e-02, 9.61538497e-03,
          3.20512825e-03, 6.41025649e-03, 6.41025649e-03, 1.60256419e-02,
          6.41025649e-03, 0., 0., 3.20512839e-02, 6.41025649e-03,
          5.66239320e-02, 2.99145300e-02, 1.49572650e-02, 1.06837610e-02,
          1.06837612e-03, 1.28205130e-02, 2.13675224e-03, 3.20512825e-03,
          3.63247879e-02, 1.92307699e-02, 1.60256419e-02, 0.,
          2.13675220e-02, 6.41025677e-02, 1.34615391e-01, 3.41880359e-02,
          1.06837612e-03, 3.20512825e-03, 2.13675220e-02, 1.06837610e-02,
          3.20512839e-02, 0., 4.80769239e-02, 1.06837612e-03,
          1.49572650e-02, 2.13675224e-03, 6.41025677e-02, 1.92307699e-02,
          0., 2.02991460e-02, 7.47863250e-03, 2.13675224e-03, 0.,
          1.06837612e-03, 2.67094020e-02, 1.92307699e-02, 2.13675224e-03,
          0., 0., 0., 1.06837612e-03, 2.13675220e-02, 2.77777780e-02,
          5.34188049e-03, 0., 2.67094020e-02, 1.17521370e-02,
          2.13675224e-03, 2.99145300e-02, 1.06837612e-03, 4.27350448e-03,
          9.61538497e-03, 1.22863248e-01, 4.05982919e-02, 5.44871800e-02,
          1.38888890e-02, 2.45098043e-02, 6.12745108e-03, 0.,
          2.20588241e-02, 1.22549024e-03, 1.22549022e-02, 0.,
          2.81862747e-02, 4.90196096e-03, 1.59313735e-02, 1.22549024e-03,
          2.08333340e-02, 8.57843179e-03, 0., 1.22549024e-03, 0.,
          1.71568636e-02, 6.12745108e-03, 1.22549024e-03, 4.90196096e-03,
          1.22549024e-03, 3.67647060e-03, 3.67647060e-03, 3.67647060e-03,
          3.30882370e-02, 1.96078438e-02, 2.81862747e-02, 1.96078438e-02,
          3.67647060e-03, 3.18627469e-02, 9.80392192e-03, 6.12745099e-02,
          3.67647074e-02, 9.80392192e-03, 1.22549024e-03, 4.90196096e-03,
          0., 7.35294120e-03, 2.45098048e-03, 2.00980395e-01,
          8.57843179e-03, 3.67647060e-03, 3.67647060e-03, 7.72058815e-02,
          3.92156877e-02, 9.80392192e-03, 1.10294120e-02, 2.45098048e-03,
          0., 2.57352944e-02, 1.34803923e-02, 0., 1.22549024e-03,
          1.34803923e-02, 2.69607846e-02, 0., 3.43137272e-02, 0.,
          2.45098048e-03, 4.90196096e-03, 2.20588241e-02, 0.,
          1.31127447e-01, 3.92156877e-02, 1.10294120e-02, 2.45098048e-03,
          1.47058824e-02, 1.96078438e-02, 7.35294120e-03, 0., 0., 0., 0.,
          8.82352963e-02, 0., 1.34803923e-02, 1.83823537e-02,
          2.45098048e-03, 3.79901975e-02, 1.71568636e-02, 4.28921580e-02,
          1.49509802e-01, 4.41176482e-02, 3.67647060e-03, 0.,
          4.90196096e-03, 4.04411778e-02, 1.71568636e-02, 1.22549024e-03,
          2.69607846e-02, 0., 1.47058824e-02, 1.13636367e-02,
          5.53977266e-02, 2.84090918e-03, 0., 2.27272734e-02,
          1.70454551e-02, 2.84090918e-03, 6.67613670e-02, 0.,
          5.68181835e-03, 5.68181835e-03, 1.56250000e-02, 2.76988626e-01,
          1.98863633e-02, 4.68750000e-02, 1.42045459e-03, 1.42045459e-03,
          5.96590899e-02, 2.84090918e-03, 2.41477266e-02, 3.83522734e-02,
          2.84090918e-03, 7.10227294e-03, 9.94318165e-03, 0.,
          4.26136376e-03, 4.11931835e-02, 2.13068184e-02, 7.10227294e-03,
          8.52272753e-03, 2.84090918e-03, 2.84090918e-03, 7.10227294e-03,
          0., 5.68181835e-03, 0., 5.68181835e-03, 2.84090918e-03, 0.,
          5.68181835e-02, 0., 0., 1.13636367e-02, 4.26136376e-03,
          5.82386367e-02, 2.55681816e-02, 1.42045459e-02, 2.13068184e-02,
          1.42045459e-03, 1.13636367e-02, 1.84659082e-02, 2.84090918e-03,
          7.38636330e-02, 2.41477266e-02, 0., 0., 1.70454551e-02,
          1.27840908e-02, 0., 1.70454551e-02, 0., 2.55681816e-02, 0.,
          8.52272753e-03, 8.52272753e-03, 0., 0., 2.69886367e-02,
          4.26136367e-02, 0., 0., 1.78977266e-01, 2.84090918e-02, 0., 0.,
          1.42045459e-02, 2.84090918e-03, 0., 7.10227294e-03, 0., 0.,
          1.27840908e-02, 4.78693187e-01, 0., 2.84090918e-03,
          8.52272753e-03, 0., 1.84659082e-02, 0., 1.98863633e-02,
          7.10227294e-03, 8.52272753e-03, 0., 9.94318165e-03, 0.,
          1.84659082e-02, 1.42045459e-02, 2.27272734e-02, 4.54545468e-02 ]
      - [ 6.33333325e-02, 4.16666679e-02, 5.33333346e-02, 9.16666631e-03,
          2.49999994e-03, 7.49999983e-03, 1.66666675e-02, 4.33333330e-02,
          1.04166664e-01, 3.33333341e-03, 2.08333340e-02, 4.16666688e-03,
          1.66666671e-03, 5.83333336e-03, 3.33333341e-03, 2.25000009e-02,
          4.25000004e-02, 0., 4.16666688e-03, 3.91666666e-02,
          5.08333333e-02, 1.25000002e-02, 2.66666673e-02, 8.33333354e-04,
          1.99999996e-02, 8.33333377e-03, 1.08333332e-02, 1.66666671e-03,
          3.91666666e-02, 1.41666671e-02, 7.66666681e-02, 1.91666670e-02,
          2.16666665e-02, 1.08333332e-02, 5.83333336e-03, 1.99999996e-02,
          4.08333316e-02, 8.33333354e-04, 5.91666661e-02, 9.16666631e-03,
          1.83333326e-02, 3.33333341e-03, 2.58333329e-02, 2.41666660e-02,
          2.25000009e-02, 1.41666671e-02, 8.33333354e-04, 3.33333341e-03,
          5.24999984e-02, 3.58333327e-02, 2.49999994e-03, 1.33333337e-02,
          3.08333337e-02, 6.75000027e-02, 5.83333336e-03, 9.08333361e-02,
          6.66666683e-03, 3.91666666e-02, 7.49999983e-03, 4.16666688e-03,
          1.72499999e-01, 5.83333336e-03, 1.07500002e-01, 9.16666631e-03,
          4.74999994e-02, 3.66666652e-02, 2.33333334e-02, 1.33333337e-02,
          1.33333337e-02, 1.33333337e-02, 1.03333332e-01, 4.99999989e-03,
          8.66666660e-02, 5.49999997e-02, 5.83333336e-03, 2.16666665e-02,
          3.33333341e-03, 1.41666671e-02, 1.91666670e-02, 6.83333352e-02,
          4.99999989e-03, 1.66666675e-02, 1.53333336e-01, 3.10150385e-02,
          8.45864695e-03, 2.81954883e-03, 2.81954883e-03, 3.66541371e-02,
          7.51879718e-03, 1.03383455e-02, 1.87969930e-03, 3.10150385e-02,
          2.06766911e-02, 5.63909765e-03, 3.75939859e-03, 3.85338329e-02,
          7.80075192e-02, 7.04887211e-02, 2.16165408e-02, 4.98120300e-02,
          6.57894742e-03, 4.69924789e-03, 1.30639091e-01, 8.45864695e-03,
          5.63909765e-03, 2.34962404e-02, 7.51879718e-03, 3.10150385e-02,
          1.50375944e-02, 3.75939859e-03, 1.78571437e-02, 1.87969916e-02,
          5.35714291e-02, 3.66541371e-02, 6.48496225e-02, 9.39849648e-04,
          4.69924789e-03, 1.78571437e-02, 2.34962404e-02, 3.47744375e-02,
          1.12781953e-02, 1.50375944e-02, 9.39849648e-04, 8.83458629e-02,
          2.06766911e-02, 1.31578948e-02, 1.78571437e-02, 4.32330817e-02,
          1.22180451e-02, 1.40977446e-02, 5.26315793e-02, 0.,
          7.61278197e-02, 3.38345878e-02, 5.63909765e-03, 1.03383455e-02,
          1.50375944e-02, 2.81954892e-02, 7.51879718e-03, 5.63909765e-03,
          2.81954883e-03, 6.76691756e-02, 2.25563906e-02, 2.53759399e-02,
          8.45864695e-03, 9.39849648e-04, 9.39849578e-03, 1.59774441e-02,
          1.59774441e-02, 4.41729315e-02, 4.04135324e-02, 6.76691756e-02,
          9.39849578e-03, 5.63909765e-03, 2.91353390e-02, 9.39849578e-03,
          3.75939859e-03, 1.40977446e-02, 1.69172939e-02, 1.60714284e-01,
          1.35338351e-01, 1.36278197e-01, 0., 2.25563906e-02,
          6.57894742e-03, 4.69924789e-03, 6.67293221e-02, 8.45864695e-03,
          1.78571437e-02, 8.45864695e-03, 5.63909765e-03, 1.50375944e-02,
          7.89473653e-02, 6.57894742e-03, 1.87969930e-03, 2.91353390e-02,
          9.39849648e-04, 1.12781953e-02, 9.39849578e-03, 7.51879718e-03,
          7.51879718e-03, 1.87969930e-03, 2.63157897e-02, 4.27350448e-03,
          5.34188049e-03, 3.20512825e-03, 6.08974360e-02, 1.17521370e-02,
          7.47863250e-03, 2.56410260e-02, 3.20512825e-03, 2.77777780e-02,
          3.31196599e-02, 1.92307699e-02, 1.92307699e-02, 1.49572650e-02,
          5.12820520e-02, 8.11965838e-02, 2.13675224e-03, 6.62393197e-02,
          7.15811998e-02, 1.06837612e-03, 9.61538497e-03, 4.27350448e-03,
          8.54700897e-03, 1.06837612e-03, 1.92307699e-02, 3.20512825e-03,
          1.17521370e-02, 1.06837610e-02, 1.06837612e-03, 5.34188049e-03,
          1.49572650e-02, 2.35042740e-02, 2.88461540e-02, 7.47863250e-03,
          1.70940179e-02, 5.34188049e-03, 0., 1.06837612e-03,
          8.54700897e-03, 2.77777780e-02, 1.06837610e-02, 1.28205130e-02,
          1.70940179e-02, 1.60256419e-02, 2.24358980e-02, 3.20512825e-03,
          2.13675220e-02, 2.13675224e-03, 1.06837612e-03, 2.13675220e-02,
          9.61538497e-03, 2.67094020e-02, 6.41025649e-03, 4.27350448e-03,
          5.12820520e-02, 1.06837610e-02, 7.26495758e-02, 2.13675220e-02,
          5.34188049e-03, 2.24358980e-02, 1.92307699e-02, 2.88461540e-02,
          1.81623939e-02, 1.81623939e-02, 9.61538497e-03, 1.81623939e-02,
          4.27350448e-03, 1.12179488e-01, 2.88461540e-02, 9.61538497e-03,
          1.06837612e-03, 2.13675224e-03, 1.17521370e-02, 5.98290600e-02,
          2.67094020e-02, 4.16666679e-02, 2.13675220e-02, 1.49572650e-02,
          0., 0., 1.28205130e-02, 1.06837610e-02, 6.41025649e-03,
          2.13675220e-02, 9.61538497e-03, 1.06837612e-03, 5.87606840e-02,
          2.56410260e-02, 3.20512825e-03, 5.87606840e-02, 1.06837612e-03,
          1.92307699e-02, 2.56410260e-02, 1.25000000e-01, 4.70085479e-02,
          1.49572650e-02, 4.27350448e-03, 3.06372549e-02, 7.35294120e-03,
          1.22549024e-03, 8.57843179e-03, 7.35294120e-03, 1.22549022e-02,
          1.71568636e-02, 2.20588241e-02, 2.32843142e-02, 1.59313735e-02,
          2.45098048e-03, 1.10294120e-02, 0., 1.22549022e-02,
          2.45098048e-03, 2.45098048e-03, 3.67647060e-03, 1.59313735e-02,
          7.35294120e-03, 3.67647060e-03, 6.12745099e-02, 0., 0., 0.,
          1.71568636e-02, 1.22549024e-03, 1.22549024e-03, 1.10294120e-02,
          0., 4.90196096e-03, 1.22549024e-03, 1.22549022e-02,
          3.92156877e-02, 1.83823537e-02, 2.32843142e-02, 1.10294120e-02,
          9.80392192e-03, 1.22549024e-03, 3.67647060e-03, 1.97303921e-01,
          1.47058824e-02, 1.10294120e-02, 8.57843179e-03, 3.30882370e-02,
          6.12745108e-03, 1.83823537e-02, 2.81862747e-02, 2.45098048e-03,
          1.22549024e-03, 1.10294120e-02, 3.92156877e-02, 0.,
          1.83823537e-02, 1.22549022e-02, 1.71568636e-02, 8.57843179e-03,
          1.96078438e-02, 1.10294120e-02, 2.45098048e-03, 1.96078438e-02,
          2.08333340e-02, 8.57843179e-03, 1.59313723e-01, 7.35294120e-03,
          4.41176482e-02, 8.57843179e-03, 5.88235296e-02, 2.32843142e-02,
          2.81862747e-02, 2.45098048e-03, 0., 0., 1.22549024e-03,
          1.13970585e-01, 0., 1.34803923e-02, 5.88235296e-02, 0.,
          9.80392192e-03, 2.45098048e-03, 5.26960790e-02, 1.71568632e-01,
          5.39215691e-02, 0., 0., 1.71568636e-02, 1.22549022e-02,
          9.80392192e-03, 9.80392192e-03, 3.67647074e-02, 0.,
          1.10294120e-02, 5.68181835e-03, 0., 1.42045459e-02, 0.,
          1.42045459e-03, 4.82954532e-02, 1.98863633e-02, 2.13068184e-02,
          2.84090918e-03, 0., 4.26136376e-03, 2.69886367e-02,
          2.67045468e-01, 1.98863633e-02, 1.42045459e-03, 0.,
          2.84090918e-03, 3.26704532e-02, 5.82386367e-02, 5.68181835e-03,
          4.26136376e-03, 7.10227294e-03, 1.42045459e-03, 1.27840908e-02,
          1.27840908e-02, 1.42045459e-03, 1.13636367e-02, 1.42045459e-03,
          0., 1.13636367e-02, 1.27840908e-02, 4.11931835e-02,
          7.10227294e-03, 1.42045459e-02, 1.56250000e-02, 1.27840908e-02,
          2.69886367e-02, 1.42045459e-03, 1.70454551e-02, 6.67613670e-02,
          9.94318165e-03, 1.98863633e-02, 2.84090918e-03, 2.84090918e-02,
          3.97727266e-02, 5.68181835e-03, 8.52272753e-03, 2.41477266e-02,
          1.42045459e-03, 4.68750000e-02, 3.26704532e-02, 9.94318165e-03,
          4.68750000e-02, 3.55113633e-02, 1.98863633e-02, 3.97727266e-02,
          1.42045459e-03, 1.42045459e-02, 1.42045459e-02, 7.10227294e-03,
          1.42045459e-02, 8.52272753e-03, 0., 1.42045459e-02,
          1.13636367e-02, 2.84090918e-03, 2.84090918e-03, 4.82954532e-02,
          5.39772734e-02, 1.42045459e-03, 3.12500000e-02, 2.13068184e-02,
          7.10227294e-03, 7.10227294e-03, 7.10227294e-03, 1.13636367e-02,
          3.97727266e-02, 0., 1.56250000e-02, 2.13068184e-02, 0., 0.,
          1.47727266e-01, 2.84090918e-03, 1.70454551e-02, 4.26136376e-03,
          0., 1.13636367e-02, 7.10227294e-03, 4.68750000e-02,
          1.27840908e-02, 3.12500000e-02, 9.94318165e-03, 2.13068184e-02,
          0., 5.82386367e-02, 2.13068184e-02, 2.84090918e-02,
          7.52840936e-02 ]
      - [ 1.46666661e-01, 2.08333340e-02, 2.99999993e-02, 1.41666671e-02,
          3.33333341e-03, 1.66666671e-03, 1.83333326e-02, 3.41666676e-02,
          5.33333346e-02, 8.33333354e-04, 6.58333302e-02, 8.33333377e-03,
          2.66666673e-02, 4.99999989e-03, 2.49999994e-03, 1.16666667e-02,
          1.58333331e-02, 1.16666667e-02, 1.33333337e-02, 1.66666675e-02,
          4.16666679e-02, 8.33333377e-03, 3.99999991e-02, 0.,
          1.25000002e-02, 4.16666688e-03, 3.75000015e-02, 3.33333341e-03,
          4.25000004e-02, 8.33333377e-03, 7.24999979e-02, 3.99999991e-02,
          1.33333337e-02, 0., 3.33333341e-03, 2.41666660e-02,
          2.74999999e-02, 3.33333341e-03, 4.16666679e-02, 9.99999978e-03,
          1.41666671e-02, 8.33333354e-04, 7.41666630e-02, 1.83333326e-02,
          4.66666669e-02, 6.66666683e-03, 3.33333341e-03, 4.16666688e-03,
          3.58333327e-02, 2.33333334e-02, 1.66666671e-03, 4.16666688e-03,
          6.16666675e-02, 1.66666675e-02, 5.83333336e-03, 1.40000001e-01,
          7.49999983e-03, 1.41666671e-02, 1.49999997e-02, 1.16666667e-02,
          5.99999987e-02, 9.16666631e-03, 1.13333337e-01, 1.91666670e-02,
          2.83333343e-02, 7.66666681e-02, 1.83333326e-02, 2.49999994e-03,
          1.25000002e-02, 2.41666660e-02, 2.58333329e-02, 8.33333354e-04,
          5.16666658e-02, 1.15000002e-01, 0., 1.58333331e-02,
          3.33333341e-03, 1.91666670e-02, 7.49999983e-03, 8.33333358e-02,
          7.49999983e-03, 1.33333337e-02, 1.04999997e-01, 5.26315793e-02,
          2.34962404e-02, 3.28947380e-02, 1.87969930e-03, 2.34962404e-02,
          0., 2.44360901e-02, 1.50375944e-02, 2.16165408e-02,
          2.63157897e-02, 1.87969930e-03, 1.12781953e-02, 3.19548883e-02,
          3.85338329e-02, 3.75939831e-02, 1.22180451e-02, 9.30451155e-02,
          9.39849648e-04, 1.87969930e-03, 8.27067643e-02, 6.01503775e-02,
          3.75939859e-03, 1.22180451e-02, 1.87969930e-03, 3.00751887e-02,
          2.16165408e-02, 0., 2.81954883e-03, 2.81954892e-02,
          3.75939831e-02, 2.06766911e-02, 2.91353390e-02, 1.87969930e-03,
          0., 4.41729315e-02, 1.03383455e-02, 6.95488751e-02,
          9.39849578e-03, 6.57894742e-03, 2.81954883e-03, 2.06766911e-02,
          2.53759399e-02, 6.57894742e-03, 1.22180451e-02, 8.55263174e-02,
          7.51879718e-03, 1.50375944e-02, 2.72556394e-02, 2.81954883e-03,
          8.55263174e-02, 3.94736826e-02, 4.69924789e-03, 1.78571437e-02,
          4.69924789e-03, 5.82706779e-02, 0., 7.51879718e-03,
          9.39849648e-04, 3.85338329e-02, 7.51879718e-03, 5.73308282e-02,
          7.51879718e-03, 5.63909765e-03, 7.51879718e-03, 9.39849578e-03,
          1.97368413e-02, 1.20300755e-01, 6.67293221e-02, 4.60526310e-02,
          2.44360901e-02, 1.87969930e-03, 4.79323305e-02, 1.31578948e-02,
          8.45864695e-03, 3.66541371e-02, 1.11842103e-01, 7.61278197e-02,
          3.51503760e-01, 3.94736826e-02, 3.75939859e-03, 1.87969916e-02,
          3.75939859e-03, 8.45864695e-03, 6.39097765e-02, 3.75939859e-03,
          6.57894742e-03, 1.22180451e-02, 1.03383455e-02, 1.12781953e-02,
          1.54135332e-01, 7.51879718e-03, 5.63909765e-03, 4.22932319e-02,
          2.81954883e-03, 1.59774441e-02, 2.81954883e-03, 2.81954883e-03,
          2.91353390e-02, 1.87969930e-03, 3.10150385e-02, 1.81623939e-02,
          1.49572650e-02, 2.13675220e-02, 1.06837608e-01, 1.28205130e-02,
          2.13675224e-03, 2.56410260e-02, 1.06837612e-03, 4.27350448e-03,
          2.35042740e-02, 1.60256419e-02, 3.20512825e-03, 4.48717959e-02,
          1.92307699e-02, 3.41880359e-02, 2.67094020e-02, 4.05982919e-02,
          9.40170959e-02, 1.28205130e-02, 9.61538497e-03, 2.13675224e-03,
          7.47863250e-03, 0., 2.24358980e-02, 0., 1.38888890e-02,
          6.41025649e-03, 0., 9.61538497e-03, 4.16666679e-02,
          5.02136759e-02, 1.28205130e-02, 0., 2.88461540e-02,
          5.34188049e-03, 2.13675224e-03, 5.34188049e-03, 6.41025649e-03,
          5.87606840e-02, 6.41025649e-03, 7.47863278e-02, 2.13675220e-02,
          0., 1.60256419e-02, 4.27350448e-03, 0., 1.06837612e-03,
          9.61538497e-03, 5.98290600e-02, 8.54700897e-03, 3.84615399e-02,
          3.20512825e-03, 1.38888890e-02, 2.67094020e-02, 8.54700897e-03,
          5.02136759e-02, 2.24358980e-02, 1.28205130e-02, 1.28205130e-02,
          2.13675220e-02, 2.24358980e-02, 0., 4.16666679e-02,
          1.06837612e-03, 8.54700897e-03, 4.27350448e-03, 1.49572650e-02,
          8.54700897e-03, 0., 1.38888890e-02, 1.06837612e-03,
          2.13675224e-03, 9.61538497e-03, 3.63247879e-02, 3.20512825e-03,
          7.47863250e-03, 3.20512825e-03, 6.41025649e-03, 1.49572650e-02,
          0., 0., 6.41025649e-03, 2.77777780e-02, 5.55555560e-02,
          7.47863250e-03, 2.13675224e-03, 2.45726500e-02, 2.13675224e-03,
          1.10042736e-01, 0., 3.73931639e-02, 4.27350448e-03,
          7.26495758e-02, 6.30341917e-02, 2.99145300e-02, 4.27350448e-03,
          1.47058824e-02, 5.75980395e-02, 6.12745108e-03, 0.,
          7.35294120e-03, 2.69607846e-02, 0., 3.79901975e-02,
          1.96078438e-02, 1.71568636e-02, 4.90196096e-03, 1.22549024e-03,
          3.55392173e-02, 0., 1.22549024e-03, 2.20588241e-02,
          2.45098048e-03, 8.57843179e-03, 1.22549022e-02, 2.08333340e-02,
          7.72058815e-02, 1.22549024e-03, 1.59313735e-02, 3.18627469e-02,
          9.80392192e-03, 1.83823537e-02, 1.22549024e-03, 1.71568636e-02,
          0., 3.67647060e-03, 0., 8.57843179e-03, 5.14705889e-02,
          1.59313735e-02, 1.71568636e-02, 3.55392173e-02, 3.67647060e-03,
          0., 1.22549024e-03, 1.00490198e-01, 3.67647060e-03,
          2.32843142e-02, 1.59313735e-02, 4.65686284e-02, 6.00490198e-02,
          0., 9.80392192e-03, 0., 8.57843179e-03, 4.28921580e-02,
          3.18627469e-02, 1.96078438e-02, 6.12745108e-03, 3.67647060e-03,
          1.59313735e-02, 0., 3.55392173e-02, 6.12745108e-03,
          1.22549024e-03, 6.12745108e-03, 3.67647060e-03, 3.30882370e-02,
          4.65686284e-02, 2.57352944e-02, 3.67647074e-02, 2.20588241e-02,
          3.67647060e-03, 3.67647060e-03, 7.35294120e-03, 2.57352944e-02,
          0., 9.80392192e-03, 7.59803951e-02, 8.57843179e-03, 0.,
          1.83823537e-02, 8.70098025e-02, 2.94117648e-02, 1.34803923e-02,
          3.67647060e-03, 9.80392173e-02, 6.86274543e-02, 2.45098043e-02,
          0., 0., 2.45098048e-03, 6.12745108e-03, 2.08333340e-02, 0.,
          3.79901975e-02, 1.10294120e-02, 9.80392192e-03, 1.13636367e-02,
          1.42045459e-03, 6.25000000e-02, 4.26136376e-03, 5.68181835e-03,
          2.84090918e-03, 5.68181835e-03, 1.56250000e-02, 4.11931835e-02,
          7.10227294e-03, 4.26136376e-03, 2.27272734e-02, 9.23295468e-02,
          2.13068184e-02, 7.67045468e-02, 4.26136376e-03, 4.54545468e-02,
          6.81818202e-02, 2.69886367e-02, 2.13068184e-02, 5.68181835e-03,
          2.98295449e-02, 4.26136376e-03, 2.27272734e-02, 5.68181835e-03,
          8.52272753e-03, 1.98863633e-02, 1.42045459e-03, 0.,
          2.98295449e-02, 2.84090918e-03, 6.39204532e-02, 9.94318165e-03,
          2.13068184e-02, 0., 3.83522734e-02, 2.41477266e-02, 0., 0.,
          1.84659082e-02, 5.68181835e-03, 4.26136376e-03, 4.40340899e-02,
          0., 5.11363633e-02, 5.11363633e-02, 1.42045459e-03,
          3.69318165e-02, 0., 1.27840908e-02, 1.84659082e-02, 0.,
          4.40340899e-02, 2.41477266e-02, 3.40909101e-02, 6.67613670e-02,
          0., 7.10227294e-03, 0., 1.98863633e-02, 4.26136376e-03,
          9.94318202e-02, 2.84090918e-02, 0., 2.84090918e-03,
          5.68181835e-03, 0., 4.54545468e-02, 1.84659082e-02,
          2.84090918e-02, 2.69886367e-02, 3.97727266e-02, 1.42045459e-03,
          1.98863633e-02, 2.55681816e-02, 1.42045459e-03, 1.42045459e-03,
          9.94318165e-03, 5.68181835e-03, 0., 7.10227294e-03,
          1.42045459e-03, 1.70454551e-02, 2.84090918e-02, 2.34375000e-01,
          7.10227294e-03, 0., 4.97159101e-02, 0., 2.27272734e-02,
          7.10227294e-03, 1.98863633e-02, 4.26136376e-03, 4.68750000e-02,
          2.84090918e-03, 0., 1.98863633e-02, 6.67613670e-02,
          2.84090918e-02 ]
      - [ 1.38333336e-01, 1.16666667e-02, 1.66666675e-02, 7.49999983e-03,
          2.49999994e-03, 7.49999983e-03, 1.83333326e-02, 4.58333343e-02,
          8.33333358e-02, 2.49999994e-03, 3.41666676e-02, 2.49999994e-03,
          2.41666660e-02, 7.49999983e-03, 3.33333341e-03, 9.99999978e-03,
          1.25000002e-02, 3.33333341e-03, 1.49999997e-02, 2.66666673e-02,
          6.91666678e-02, 9.99999978e-03, 7.75000006e-02, 0.,
          1.75000001e-02, 1.16666667e-02, 1.49999997e-02, 1.66666671e-03,
          5.91666661e-02, 2.33333334e-02, 8.50000009e-02, 2.25000009e-02,
          1.99999996e-02, 4.16666688e-03, 4.16666688e-03, 4.16666688e-03,
          4.33333330e-02, 8.33333354e-04, 8.91666636e-02, 1.66666675e-02,
          1.25000002e-02, 0., 7.16666654e-02, 5.58333322e-02,
          1.33333337e-02, 8.33333354e-04, 8.33333354e-04, 4.16666688e-03,
          7.99999982e-02, 3.50000001e-02, 3.33333341e-03, 1.66666671e-03,
          0., 3.66666652e-02, 5.83333336e-03, 7.50000030e-02,
          1.16666667e-02, 3.75000015e-02, 7.49999983e-03, 8.33333354e-04,
          1.65000007e-01, 6.66666683e-03, 9.33333337e-02, 7.49999983e-03,
          3.08333337e-02, 5.33333346e-02, 2.16666665e-02, 8.33333377e-03,
          9.99999978e-03, 2.33333334e-02, 2.83333343e-02, 4.99999989e-03,
          5.00000007e-02, 5.66666685e-02, 5.83333336e-03, 1.83333326e-02,
          4.99999989e-03, 5.66666685e-02, 2.33333334e-02, 9.66666639e-02,
          1.16666667e-02, 1.49999997e-02, 1.44166663e-01, 3.10150385e-02,
          1.40977446e-02, 1.97368413e-02, 0., 5.63909765e-03,
          7.51879718e-03, 1.12781953e-02, 1.31578948e-02, 2.53759399e-02,
          7.51879718e-03, 3.75939859e-03, 1.87969930e-03, 2.91353390e-02,
          7.70676658e-02, 8.92857164e-02, 1.22180451e-02, 5.07518798e-02,
          1.87969930e-03, 7.51879718e-03, 1.34398490e-01, 3.38345878e-02,
          9.39849648e-04, 1.97368413e-02, 1.87969930e-03, 4.79323305e-02,
          5.54511286e-02, 9.39849648e-04, 9.39849648e-04, 1.69172939e-02,
          3.75939859e-03, 5.63909765e-03, 7.04887211e-02, 0.,
          1.87969930e-03, 3.28947380e-02, 2.53759399e-02, 4.41729315e-02,
          4.32330817e-02, 2.81954883e-03, 4.69924789e-03, 4.60526310e-02,
          2.25563906e-02, 4.69924789e-03, 1.22180451e-02, 4.88721803e-02,
          5.63909765e-03, 1.69172939e-02, 7.04887211e-02, 3.75939859e-03,
          7.80075192e-02, 1.69172939e-02, 1.40977446e-02, 7.51879718e-03,
          2.81954883e-03, 6.67293221e-02, 0., 1.12781953e-02,
          9.39849648e-04, 4.13533822e-02, 3.66541371e-02, 4.22932319e-02,
          1.12781953e-02, 1.87969930e-03, 3.75939859e-03, 1.97368413e-02,
          1.22180451e-02, 1.30639091e-01, 6.39097765e-02, 3.75939831e-02,
          1.97368413e-02, 2.81954883e-03, 9.39849648e-04, 6.57894742e-03,
          2.81954883e-03, 2.81954883e-03, 2.53759399e-02, 1.99248120e-01,
          1.49436086e-01, 3.49624068e-01, 0., 2.81954883e-03,
          5.63909765e-03, 1.50375944e-02, 4.88721803e-02, 4.69924789e-03,
          1.12781953e-02, 9.39849578e-03, 5.63909765e-03, 6.57894742e-03,
          8.17669183e-02, 3.75939859e-03, 5.63909765e-03, 4.98120300e-02,
          0., 5.35714291e-02, 2.16165408e-02, 0., 0., 9.39849648e-04,
          3.57142873e-02, 1.06837610e-02, 1.70940179e-02, 8.54700897e-03,
          1.37820512e-01, 2.24358980e-02, 8.54700897e-03, 2.35042740e-02,
          4.27350448e-03, 1.81623939e-02, 2.56410260e-02, 2.45726500e-02,
          8.54700897e-03, 6.19658120e-02, 1.06837610e-02, 4.16666679e-02,
          2.56410260e-02, 2.45726500e-02, 3.63247879e-02, 2.56410260e-02,
          0., 1.28205130e-02, 8.54700897e-03, 0., 2.77777780e-02,
          8.54700897e-03, 3.20512825e-03, 1.60256419e-02, 2.13675224e-03,
          2.35042740e-02, 3.52564119e-02, 1.92307699e-02, 4.27350448e-03,
          2.13675224e-03, 1.81623939e-02, 4.27350448e-03, 3.20512825e-03,
          4.27350448e-03, 5.34188049e-03, 5.34188040e-02, 7.47863250e-03,
          3.31196599e-02, 1.38888890e-02, 4.27350448e-03, 1.28205130e-02,
          8.54700897e-03, 5.34188049e-03, 7.47863250e-03, 1.06837610e-02,
          3.41880359e-02, 2.13675224e-03, 1.38888890e-02, 8.54700897e-03,
          6.41025649e-03, 4.80769239e-02, 9.93589759e-02, 6.94444478e-02,
          2.13675224e-03, 8.54700897e-03, 2.67094020e-02, 6.41025649e-03,
          2.67094020e-02, 0., 4.91452999e-02, 0., 3.20512825e-03,
          5.34188049e-03, 5.34188040e-02, 3.31196599e-02, 0.,
          1.17521370e-02, 6.41025649e-03, 0., 3.20512825e-03,
          1.06837612e-03, 2.67094020e-02, 8.54700897e-03, 3.20512825e-03,
          3.20512825e-03, 0., 3.20512825e-03, 3.20512825e-03,
          1.28205130e-02, 2.02991460e-02, 7.47863250e-03, 0.,
          8.54700897e-03, 1.49572650e-02, 9.61538497e-03, 1.92307699e-02,
          0., 2.24358980e-02, 1.81623939e-02, 5.44871800e-02,
          5.66239320e-02, 2.35042740e-02, 7.47863250e-03, 9.80392192e-03,
          1.47058824e-02, 1.59313735e-02, 3.67647060e-03, 6.12745108e-03,
          1.47058824e-02, 1.22549024e-03, 4.41176482e-02, 1.96078438e-02,
          1.71568636e-02, 3.67647060e-03, 3.18627469e-02, 2.69607846e-02,
          1.47058824e-02, 1.34803923e-02, 1.96078438e-02, 0.,
          1.96078438e-02, 3.18627469e-02, 2.81862747e-02, 3.06372549e-02,
          7.35294120e-03, 2.32843142e-02, 1.83823537e-02, 0., 0., 0.,
          2.32843142e-02, 3.67647060e-03, 7.35294120e-03, 4.90196096e-03,
          4.90196096e-03, 4.41176482e-02, 4.65686284e-02, 1.22549024e-03,
          1.22549022e-02, 1.83823537e-02, 1.22549024e-03, 1.22549024e-03,
          1.58088237e-01, 1.10294120e-02, 3.18627469e-02, 1.47058824e-02,
          7.96568617e-02, 2.32843142e-02, 3.67647060e-03, 2.45098048e-03,
          7.35294120e-03, 3.67647060e-03, 2.81862747e-02, 1.10294120e-02,
          9.80392192e-03, 0., 9.80392192e-03, 7.35294120e-03, 0.,
          3.92156877e-02, 2.45098048e-03, 2.45098048e-03, 4.90196096e-03,
          3.55392173e-02, 7.35294120e-03, 1.07843138e-01, 1.10294120e-02,
          2.94117648e-02, 7.35294120e-03, 4.90196096e-03, 2.08333340e-02,
          0., 1.22549024e-03, 0., 0., 0., 1.62990198e-01, 0.,
          1.22549022e-02, 2.08333340e-02, 9.80392192e-03, 1.22549024e-03,
          1.59313735e-02, 6.25000000e-02, 1.00490198e-01, 3.18627469e-02,
          2.45098048e-03, 1.22549024e-03, 7.35294120e-03, 1.71568636e-02,
          1.71568636e-02, 6.12745108e-03, 2.94117648e-02, 0.,
          2.45098048e-03, 1.13636367e-02, 2.84090918e-03, 1.84659082e-02,
          1.98863633e-02, 0., 1.70454551e-02, 2.27272734e-02,
          8.52272753e-03, 1.70454551e-02, 0., 5.68181835e-03,
          7.10227294e-03, 1.71875000e-01, 3.83522734e-02, 3.69318165e-02,
          2.84090918e-03, 2.69886367e-02, 7.81250000e-02, 7.10227294e-03,
          1.27840908e-02, 0., 2.98295449e-02, 9.94318165e-03,
          2.13068184e-02, 4.26136376e-03, 1.70454551e-02, 7.10227294e-03,
          4.26136376e-03, 5.68181835e-03, 2.84090918e-02, 1.42045459e-03,
          1.25000000e-01, 4.40340899e-02, 0., 0., 1.42045459e-03,
          8.52272753e-03, 0., 1.42045459e-03, 7.24431798e-02, 0.,
          2.41477266e-02, 3.12500000e-02, 2.98295449e-02, 5.68181835e-03,
          1.27840908e-02, 8.52272753e-03, 1.27840908e-02, 7.10227294e-03,
          0., 1.98863633e-02, 9.94318165e-03, 6.67613670e-02,
          1.27840908e-02, 1.42045459e-03, 2.84090918e-03, 0.,
          1.27840908e-02, 0., 4.11931835e-02, 4.26136376e-03,
          8.38068202e-02, 8.52272753e-03, 0., 3.40909101e-02, 0., 0.,
          3.55113633e-02, 3.40909101e-02, 5.68181835e-03, 2.84090918e-03,
          5.96590899e-02, 2.41477266e-02, 0., 0., 2.41477266e-02, 0.,
          1.42045459e-03, 7.10227294e-03, 0., 1.42045459e-03,
          1.27840908e-02, 2.08806813e-01, 0., 2.55681816e-02,
          9.94318165e-03, 0., 1.27840908e-02, 0., 5.25568165e-02,
          8.52272753e-03, 4.26136376e-03, 2.84090918e-03, 3.97727266e-02,
          0., 1.42045459e-03, 8.52272753e-03, 3.26704532e-02,
          6.10795468e-02 ]
      - [ 1.56666666e-01, 4.91666682e-02, 4.25000004e-02, 1.66666675e-02,
          8.33333354e-04, 4.99999989e-03, 1.41666671e-02, 4.91666682e-02,
          7.83333331e-02, 1.66666671e-03, 4.50000018e-02, 3.33333341e-03,
          8.33333377e-03, 6.66666683e-03, 8.33333354e-04, 1.16666667e-02,
          2.33333334e-02, 1.66666671e-03, 1.49999997e-02, 3.66666652e-02,
          6.75000027e-02, 9.99999978e-03, 7.16666654e-02, 3.33333341e-03,
          1.25000002e-02, 1.25000002e-02, 2.58333329e-02, 4.16666688e-03,
          4.41666655e-02, 1.66666671e-03, 1.14166670e-01, 2.08333340e-02,
          1.75000001e-02, 4.99999989e-03, 1.25000002e-02, 4.08333316e-02,
          6.33333325e-02, 1.66666671e-03, 4.66666669e-02, 1.99999996e-02,
          1.08333332e-02, 1.66666671e-03, 1.06666669e-01, 2.25000009e-02,
          3.16666663e-02, 1.83333326e-02, 4.16666688e-03, 8.33333377e-03,
          4.33333330e-02, 3.83333340e-02, 1.66666671e-03, 1.16666667e-02,
          3.41666676e-02, 7.16666654e-02, 6.66666683e-03, 5.08333333e-02,
          8.33333377e-03, 6.16666675e-02, 6.66666683e-03, 8.33333354e-04,
          7.41666630e-02, 1.25000002e-02, 1.02499999e-01, 4.99999989e-03,
          5.00000007e-02, 3.16666663e-02, 7.99999982e-02, 1.08333332e-02,
          4.99999989e-03, 1.08333332e-02, 2.25000009e-02, 7.49999983e-03,
          6.16666675e-02, 9.16666687e-02, 1.66666671e-03, 1.25000002e-02,
          1.66666671e-03, 4.16666679e-02, 2.25000009e-02, 8.25000033e-02,
          4.16666688e-03, 1.25000002e-02, 8.33333358e-02, 4.04135324e-02,
          2.06766911e-02, 3.75939859e-03, 2.81954883e-03, 3.38345878e-02,
          1.87969930e-03, 1.78571437e-02, 1.22180451e-02, 1.97368413e-02,
          1.40977446e-02, 3.75939859e-03, 0., 4.79323305e-02,
          5.35714291e-02, 1.04323305e-01, 1.03383455e-02, 1.15601502e-01,
          2.81954883e-03, 2.72556394e-02, 8.64661634e-02, 2.06766911e-02,
          1.22180451e-02, 3.19548883e-02, 1.12781953e-02, 5.07518798e-02,
          3.94736826e-02, 1.03383455e-02, 3.75939859e-03, 1.40977446e-02,
          1.87969930e-03, 5.63909765e-03, 7.98872188e-02, 2.81954883e-03,
          0., 2.16165408e-02, 5.63909765e-03, 4.04135324e-02,
          4.04135324e-02, 1.50375944e-02, 2.81954883e-03, 6.57894742e-03,
          1.59774441e-02, 3.10150385e-02, 2.63157897e-02, 3.38345878e-02,
          9.39849648e-04, 1.97368413e-02, 3.10150385e-02, 7.51879718e-03,
          1.22180451e-02, 1.87969916e-02, 1.31578948e-02, 1.22180451e-02,
          6.57894742e-03, 1.06203005e-01, 7.51879718e-03, 1.31578948e-02,
          0., 4.60526310e-02, 1.69172939e-02, 1.78571437e-02,
          1.31578948e-02, 5.63909765e-03, 1.12781953e-02, 2.63157897e-02,
          8.45864695e-03, 6.76691756e-02, 3.38345878e-02, 1.46616548e-01,
          9.39849578e-03, 2.81954883e-03, 2.81954892e-02, 7.51879718e-03,
          4.69924789e-03, 1.22180451e-02, 1.87969916e-02, 1.48496240e-01,
          2.91353375e-01, 1.95488721e-01, 0., 5.63909765e-03,
          5.63909765e-03, 2.81954883e-03, 3.66541371e-02, 5.63909765e-03,
          5.63909765e-03, 8.45864695e-03, 8.45864695e-03, 1.31578948e-02,
          1.52255639e-01, 1.87969930e-03, 3.75939859e-03, 5.92105277e-02,
          9.39849648e-04, 3.57142873e-02, 2.06766911e-02, 9.39849648e-04,
          1.22180451e-02, 9.39849648e-04, 2.06766911e-02, 2.13675224e-03,
          9.61538497e-03, 5.34188049e-03, 8.44017118e-02, 4.27350448e-03,
          7.47863250e-03, 3.63247879e-02, 3.20512825e-03, 1.38888890e-02,
          3.31196599e-02, 4.27350439e-02, 2.02991460e-02, 4.91452999e-02,
          1.17521370e-02, 2.88461540e-02, 3.20512825e-03, 1.06837610e-02,
          8.54700897e-03, 1.17521370e-02, 9.61538497e-03, 1.06837610e-02,
          2.24358980e-02, 1.28205130e-02, 3.95299159e-02, 6.41025649e-03,
          2.02991460e-02, 2.56410260e-02, 6.41025649e-03, 2.45726500e-02,
          3.73931639e-02, 7.47863250e-03, 0., 5.34188049e-03,
          9.61538497e-03, 8.54700897e-03, 1.06837612e-03, 3.20512825e-03,
          6.41025649e-03, 3.52564119e-02, 1.06837610e-02, 2.24358980e-02,
          1.38888890e-02, 3.20512825e-03, 1.17521370e-02, 8.54700897e-03,
          1.81623939e-02, 5.34188049e-03, 4.27350448e-03, 2.13675220e-02,
          1.49572650e-02, 2.35042740e-02, 2.13675224e-03, 1.17521370e-02,
          1.92307699e-02, 2.77777780e-02, 1.28205130e-02, 1.38888890e-02,
          1.92307699e-02, 1.60256419e-02, 8.54700897e-03, 7.47863250e-03,
          2.13675224e-03, 1.11111112e-01, 4.27350448e-03, 2.35042740e-02,
          5.34188049e-03, 6.94444478e-02, 3.20512839e-02, 4.27350448e-03,
          1.92307699e-02, 0., 2.13675224e-03, 2.13675224e-03,
          2.56410260e-02, 4.91452999e-02, 8.54700897e-03, 2.13675224e-03,
          9.61538497e-03, 1.06837610e-02, 1.06837612e-03, 1.06837612e-03,
          3.63247879e-02, 2.56410260e-02, 4.27350448e-03, 3.20512825e-03,
          0., 3.20512825e-03, 1.17521370e-02, 3.84615399e-02, 0.,
          2.24358980e-02, 2.56410260e-02, 5.87606840e-02, 7.69230798e-02,
          3.63247879e-02, 1.17521370e-02, 7.35294120e-03, 6.12745108e-03,
          3.67647060e-03, 4.90196096e-03, 1.34803923e-02, 1.10294120e-02,
          7.35294120e-03, 5.51470593e-02, 4.04411778e-02, 1.22549022e-02,
          2.45098048e-03, 4.90196096e-03, 1.10294120e-02, 3.67647060e-03,
          0., 8.57843179e-03, 3.67647060e-03, 9.80392192e-03, 0., 0., 0.,
          4.90196096e-03, 1.71568636e-02, 2.08333340e-02, 2.20588241e-02,
          4.90196096e-03, 1.22549022e-02, 1.96078438e-02, 3.67647060e-03,
          1.59313735e-02, 7.35294120e-03, 7.23039210e-02, 4.16666679e-02,
          2.81862747e-02, 0., 7.35294120e-03, 0., 0., 7.35294120e-03,
          2.21813723e-01, 1.59313735e-02, 2.45098048e-03, 1.10294120e-02,
          8.45588222e-02, 1.10294120e-02, 2.45098048e-03, 2.69607846e-02,
          4.90196096e-03, 2.20588241e-02, 1.22549022e-02, 2.45098043e-02,
          9.80392192e-03, 2.81862747e-02, 6.12745108e-03, 2.45098048e-03,
          1.22549024e-03, 1.06617644e-01, 1.22549024e-03, 1.22549024e-03,
          4.90196096e-03, 3.92156877e-02, 1.22549022e-02, 1.38480395e-01,
          2.20588241e-02, 1.83823537e-02, 0., 1.96078438e-02,
          3.92156877e-02, 2.81862747e-02, 1.10294120e-02, 2.45098048e-03,
          1.10294120e-02, 7.35294120e-03, 4.28921580e-02, 0.,
          1.10294120e-02, 3.67647074e-02, 7.47549012e-02, 4.41176482e-02,
          3.06372549e-02, 1.02941178e-01, 8.94607827e-02, 2.20588241e-02,
          3.67647060e-03, 0., 2.20588241e-02, 2.81862747e-02,
          2.57352944e-02, 1.22549024e-03, 4.28921580e-02, 2.45098048e-03,
          1.34803923e-02, 4.26136376e-03, 1.42045459e-02, 4.26136376e-03,
          1.42045459e-03, 1.42045459e-03, 5.68181835e-03, 1.84659082e-02,
          3.40909101e-02, 1.42045459e-02, 0., 2.84090918e-03,
          5.11363633e-02, 2.28693187e-01, 2.55681816e-02, 2.27272734e-02,
          0., 9.94318165e-03, 7.38636330e-02, 1.42045459e-02,
          5.68181835e-03, 7.10227294e-03, 0., 8.52272753e-03,
          1.56250000e-02, 2.84090918e-03, 2.84090918e-03, 4.40340899e-02,
          5.68181835e-03, 7.10227294e-03, 8.52272753e-03, 2.84090918e-03,
          2.27272734e-02, 1.56250000e-02, 1.56250000e-02, 1.42045459e-03,
          2.84090918e-03, 2.84090918e-03, 0., 2.84090918e-03,
          4.26136367e-02, 1.56250000e-02, 2.55681816e-02, 2.84090918e-03,
          7.10227294e-03, 2.69886367e-02, 1.13636367e-02, 9.94318165e-03,
          1.98863633e-02, 1.42045459e-02, 2.98295449e-02, 2.41477266e-02,
          1.42045459e-03, 3.97727266e-02, 0., 7.10227294e-03, 0.,
          5.68181835e-03, 2.27272734e-02, 0., 9.37500000e-02, 0.,
          1.42045459e-02, 9.94318165e-03, 0., 3.83522734e-02,
          1.27840908e-02, 1.13636367e-02, 5.53977266e-02, 2.98295449e-02,
          1.98863633e-02, 1.13636367e-02, 7.10227266e-02, 4.26136376e-03,
          3.12500000e-02, 0., 2.69886367e-02, 4.54545468e-02,
          9.94318165e-03, 0., 1.13636367e-02, 7.10227294e-03, 0.,
          4.50284094e-01, 2.27272734e-02, 1.70454551e-02, 5.68181835e-03,
          0., 4.54545468e-02, 0., 2.27272734e-02, 1.42045459e-03,
          1.70454551e-02, 0., 4.40340899e-02, 1.42045459e-03, 0.,
          4.26136376e-03, 3.55113633e-02, 3.12500000e-02 ]
      - [ 7.33333305e-02, 1.12499997e-01, 4.74999994e-02, 2.25000009e-02,
          3.33333341e-03, 4.99999989e-03, 1.91666670e-02, 2.16666665e-02,
          4.08333316e-02, 8.33333354e-04, 9.58333313e-02, 1.25000002e-02,
          3.66666652e-02, 5.83333336e-03, 5.83333336e-03, 1.83333326e-02,
          3.91666666e-02, 3.33333341e-03, 1.66666675e-02, 2.99999993e-02,
          3.50000001e-02, 6.66666683e-03, 4.74999994e-02, 0.,
          7.49999983e-03, 8.33333377e-03, 5.99999987e-02, 2.49999994e-03,
          3.58333327e-02, 1.75000001e-02, 7.24999979e-02, 2.83333343e-02,
          1.49999997e-02, 0., 1.16666667e-02, 1.99999996e-02,
          5.58333322e-02, 2.49999994e-03, 3.99999991e-02, 2.74999999e-02,
          2.66666673e-02, 8.33333354e-04, 7.24999979e-02, 3.91666666e-02,
          5.24999984e-02, 2.16666665e-02, 5.83333336e-03, 1.83333326e-02,
          4.74999994e-02, 4.41666655e-02, 4.99999989e-03, 1.66666675e-02,
          1.75000001e-02, 7.00000003e-02, 8.33333377e-03, 4.83333319e-02,
          1.16666667e-02, 4.41666655e-02, 1.08333332e-02, 4.99999989e-03,
          1.30833328e-01, 5.83333336e-03, 9.74999964e-02, 7.49999983e-03,
          5.08333333e-02, 5.41666672e-02, 2.83333343e-02, 5.83333336e-03,
          9.99999978e-03, 1.75000001e-02, 5.24999984e-02, 4.16666688e-03,
          3.33333351e-02, 7.24999979e-02, 1.66666671e-03, 1.99999996e-02,
          4.99999989e-03, 2.25000009e-02, 2.91666668e-02, 4.33333330e-02,
          4.99999989e-03, 2.16666665e-02, 1.19999997e-01, 1.31578948e-02,
          9.39849648e-04, 3.38345878e-02, 1.03383455e-02, 5.26315793e-02,
          1.87969930e-03, 1.22180451e-02, 1.03383455e-02, 2.34962404e-02,
          1.03383455e-02, 1.03383455e-02, 1.03383455e-02, 1.69172939e-02,
          1.87969916e-02, 5.16917296e-02, 1.87969916e-02, 2.25563906e-02,
          2.81954883e-03, 2.81954883e-03, 7.80075192e-02, 4.22932319e-02,
          4.69924789e-03, 1.69172939e-02, 3.75939859e-03, 2.44360901e-02,
          3.19548883e-02, 9.39849648e-04, 6.57894742e-03, 1.31578948e-02,
          4.13533822e-02, 2.06766911e-02, 7.04887211e-02, 6.57894742e-03,
          3.75939859e-03, 1.22180451e-02, 3.10150385e-02, 1.26879692e-01,
          4.79323305e-02, 1.87969930e-03, 1.87969930e-03, 3.47744375e-02,
          1.50375944e-02, 1.97368413e-02, 2.25563906e-02, 3.66541371e-02,
          8.45864695e-03, 1.31578948e-02, 3.19548883e-02, 9.39849648e-04,
          1.78571437e-02, 3.66541371e-02, 3.75939859e-03, 8.45864695e-03,
          2.81954883e-03, 5.92105277e-02, 9.39849648e-04, 1.03383455e-02,
          9.39849648e-04, 3.28947380e-02, 3.85338329e-02, 1.40977446e-02,
          1.31578948e-02, 5.63909765e-03, 1.69172939e-02, 3.38345878e-02,
          9.39849578e-03, 4.88721803e-02, 7.98872188e-02, 1.68233082e-01,
          9.39849648e-04, 1.87969930e-03, 1.40977446e-02, 1.87969930e-03,
          6.57894742e-03, 2.53759399e-02, 4.22932319e-02, 1.51315793e-01,
          1.52255639e-01, 1.89849630e-01, 0., 7.51879718e-03,
          3.75939859e-03, 4.69924789e-03, 3.19548883e-02, 2.81954883e-03,
          3.75939859e-03, 9.39849578e-03, 7.51879718e-03, 7.51879718e-03,
          1.45676687e-01, 8.45864695e-03, 4.69924789e-03, 1.50375944e-02,
          0., 1.69172939e-02, 2.16165408e-02, 9.39849648e-04,
          1.40977446e-02, 9.39849648e-04, 3.10150385e-02, 4.27350448e-03,
          6.41025649e-03, 8.54700897e-03, 7.15811998e-02, 8.76068398e-02,
          6.41025649e-03, 1.28205130e-02, 1.17521370e-02, 1.38888890e-02,
          1.06837610e-02, 2.35042740e-02, 3.20512839e-02, 2.99145300e-02,
          3.41880359e-02, 1.49572650e-02, 2.13675224e-03, 1.28205130e-02,
          4.27350439e-02, 5.34188049e-03, 4.27350439e-02, 1.06837612e-03,
          2.13675224e-03, 4.27350448e-03, 1.06837610e-02, 2.13675224e-03,
          2.13675224e-03, 2.45726500e-02, 0., 1.49572650e-02,
          2.13675220e-02, 1.38888890e-02, 1.70940179e-02, 6.41025649e-03,
          1.28205130e-02, 8.54700897e-03, 9.61538497e-03, 8.54700897e-03,
          1.17521370e-02, 2.13675220e-02, 0., 4.38034199e-02,
          9.61538497e-03, 1.17521370e-02, 1.70940179e-02, 2.35042740e-02,
          5.34188049e-03, 1.06837612e-03, 1.49572650e-02, 2.45726500e-02,
          1.70940179e-02, 3.20512825e-03, 1.17521370e-02, 5.34188049e-03,
          1.38888890e-02, 7.79914558e-02, 1.70940179e-02, 1.70940179e-02,
          1.06837612e-03, 3.31196599e-02, 4.27350448e-03, 9.61538497e-03,
          0., 4.70085479e-02, 0., 8.54700897e-03, 6.41025649e-03,
          6.30341917e-02, 6.08974360e-02, 4.27350448e-03, 8.54700897e-03,
          1.38888890e-02, 1.38888890e-02, 0., 7.47863250e-03,
          5.02136759e-02, 2.56410260e-02, 4.27350448e-03, 7.47863250e-03,
          2.13675220e-02, 3.41880359e-02, 9.61538497e-03, 1.70940179e-02,
          4.27350439e-02, 1.06837610e-02, 1.06837612e-03, 3.20512839e-02,
          9.61538497e-03, 7.47863250e-03, 7.05128238e-02, 3.20512825e-03,
          1.28205130e-02, 1.92307699e-02, 7.47863278e-02, 8.65384638e-02,
          2.13675224e-03, 1.28205130e-02, 2.69607846e-02, 4.77941185e-02,
          8.57843179e-03, 2.45098048e-03, 1.22549024e-03, 1.22549022e-02,
          8.57843179e-03, 0., 7.35294120e-03, 0., 6.12745108e-03,
          4.90196096e-03, 2.45098043e-02, 1.22549024e-03, 9.80392192e-03,
          1.96078438e-02, 8.57843179e-03, 9.80392192e-03, 1.22549024e-03,
          3.67647060e-03, 2.69607846e-02, 3.67647060e-03, 7.35294120e-03,
          3.43137272e-02, 1.16421565e-01, 1.47058824e-02, 6.12745108e-03,
          2.45098048e-03, 0., 1.34803923e-02, 0., 3.67647060e-03,
          2.20588241e-02, 2.45098043e-02, 8.57843179e-03, 1.10294120e-02,
          0., 8.57843179e-03, 2.45098048e-03, 1.64215684e-01,
          3.67647060e-03, 2.45098048e-03, 6.12745108e-03, 4.53431383e-02,
          5.02450988e-02, 1.10294120e-02, 4.90196096e-03, 0., 0.,
          1.96078438e-02, 1.22549024e-03, 2.20588241e-02, 3.43137272e-02,
          1.59313735e-02, 2.45098048e-03, 0., 3.30882370e-02,
          1.22549024e-03, 0., 1.34803923e-02, 7.84313753e-02,
          8.57843179e-03, 1.33578435e-01, 7.35294120e-03, 2.94117648e-02,
          1.22549024e-03, 2.32843142e-02, 3.67647074e-02, 2.45098043e-02,
          7.35294120e-03, 2.20588241e-02, 2.08333340e-02, 0.,
          1.09068625e-01, 0., 7.35294120e-03, 4.04411778e-02,
          1.71568636e-02, 5.39215691e-02, 1.59313735e-02, 1.17647059e-01,
          8.70098025e-02, 1.59313735e-02, 9.80392192e-03, 1.22549024e-03,
          1.34803923e-02, 1.59313735e-02, 1.47058824e-02, 2.45098048e-03,
          4.65686284e-02, 0., 1.22549022e-02, 8.52272753e-03, 0.,
          5.53977266e-02, 4.26136376e-03, 1.70454551e-02, 2.13068184e-02,
          7.10227294e-03, 0., 1.84659082e-02, 1.13636367e-02,
          5.68181835e-03, 1.42045459e-03, 2.28693187e-01, 0.,
          5.39772734e-02, 0., 1.98863633e-02, 4.54545468e-02,
          3.69318165e-02, 1.42045459e-03, 1.27840908e-02, 5.68181835e-03,
          7.10227294e-03, 7.10227294e-03, 0., 2.84090918e-03, 0.,
          1.13636367e-02, 0., 2.84090918e-03, 8.52272753e-03,
          7.38636330e-02, 2.69886367e-02, 1.27840908e-02, 9.94318165e-03,
          5.68181835e-03, 2.84090918e-03, 1.56250000e-02, 0.,
          7.52840936e-02, 0., 1.42045459e-03, 4.26136376e-03,
          9.94318165e-03, 1.70454551e-02, 3.97727266e-02, 0.,
          2.84090918e-03, 9.94318165e-03, 9.94318165e-03, 1.56250000e-02,
          1.27840908e-02, 2.13068184e-02, 9.94318165e-03, 2.84090918e-03,
          0., 0., 2.84090918e-03, 4.26136376e-03, 2.98295449e-02,
          4.26136376e-03, 9.94318165e-03, 1.70454551e-02, 5.68181835e-03,
          7.52840936e-02, 2.84090918e-03, 1.56250000e-02, 8.52272753e-03,
          3.26704532e-02, 1.42045459e-03, 4.26136376e-03, 1.98863633e-02,
          5.68181835e-03, 1.42045459e-03, 0., 3.40909101e-02,
          2.27272734e-02, 1.42045459e-03, 2.98295449e-02, 9.94318165e-03,
          1.42045459e-03, 0., 1.74715906e-01, 7.10227294e-03,
          3.69318165e-02, 2.13068184e-02, 0., 4.68750000e-02,
          1.13636367e-02, 5.11363633e-02, 4.26136376e-03, 9.94318165e-03,
          1.56250000e-02, 1.16477273e-01, 4.26136376e-03, 2.27272734e-02,
          1.70454551e-02, 3.12500000e-02, 2.98295449e-02 ]
      - [ 1.03333332e-01, 2.91666668e-02, 1.66666675e-02, 1.83333326e-02,
          1.66666671e-03, 2.49999994e-03, 2.50000004e-02, 2.91666668e-02,
          6.33333325e-02, 4.99999989e-03, 5.75000010e-02, 1.66666671e-03,
          1.91666670e-02, 8.33333377e-03, 0., 2.41666660e-02,
          3.33333341e-03, 1.33333337e-02, 1.75000001e-02, 1.66666675e-02,
          8.50000009e-02, 9.16666631e-03, 4.66666669e-02, 1.66666671e-03,
          2.49999994e-03, 2.49999994e-03, 3.41666676e-02, 3.33333341e-03,
          7.16666654e-02, 9.99999978e-03, 8.91666636e-02, 1.49999997e-02,
          2.66666673e-02, 5.83333336e-03, 4.99999989e-03, 1.66666675e-02,
          4.66666669e-02, 2.49999994e-03, 7.24999979e-02, 1.25000002e-02,
          7.49999983e-03, 0., 3.58333327e-02, 4.16666679e-02,
          7.91666657e-02, 4.16666688e-03, 0., 4.16666688e-03,
          4.50000018e-02, 7.58333355e-02, 1.66666671e-03, 8.33333354e-04,
          9.99999978e-03, 1.91666670e-02, 9.16666631e-03, 1.00000001e-01,
          1.33333337e-02, 5.91666661e-02, 2.49999994e-03, 4.16666688e-03,
          1.94166660e-01, 3.33333341e-03, 1.40000001e-01, 1.66666671e-03,
          6.25000000e-02, 2.83333343e-02, 5.16666658e-02, 1.25000002e-02,
          2.74999999e-02, 1.16666667e-02, 2.08333340e-02, 1.66666671e-03,
          1.09999999e-01, 4.50000018e-02, 3.33333341e-03, 2.58333329e-02,
          6.66666683e-03, 3.99999991e-02, 2.33333334e-02, 5.41666672e-02,
          5.83333336e-03, 1.83333326e-02, 7.24999979e-02, 2.34962404e-02,
          6.57894742e-03, 2.06766911e-02, 1.87969930e-03, 1.03383455e-02,
          3.75939859e-03, 1.69172939e-02, 1.87969916e-02, 3.57142873e-02,
          3.47744375e-02, 1.87969930e-03, 7.51879718e-03, 2.44360901e-02,
          4.32330817e-02, 5.63909784e-02, 2.44360901e-02, 5.73308282e-02,
          3.75939859e-03, 1.87969930e-03, 9.68045145e-02, 2.53759399e-02,
          9.39849648e-04, 1.12781953e-02, 4.69924789e-03, 7.51879662e-02,
          2.81954892e-02, 4.69924789e-03, 6.57894742e-03, 2.34962404e-02,
          1.40977446e-02, 1.12781953e-02, 8.55263174e-02, 1.87969930e-03,
          1.87969930e-03, 2.53759399e-02, 1.59774441e-02, 5.54511286e-02,
          2.44360901e-02, 6.57894742e-03, 3.75939859e-03, 1.69172939e-02,
          1.31578948e-02, 5.63909765e-03, 2.91353390e-02, 9.49248150e-02,
          3.75939859e-03, 1.97368413e-02, 4.13533822e-02, 4.69924789e-03,
          6.86090216e-02, 1.31578948e-02, 2.81954883e-03, 1.59774441e-02,
          3.75939859e-03, 2.34962404e-02, 5.63909765e-03, 1.78571437e-02,
          2.81954883e-03, 4.51127812e-02, 3.00751887e-02, 2.34962404e-02,
          1.87969930e-03, 9.39849648e-04, 7.51879718e-03, 1.03383455e-02,
          2.81954892e-02, 7.89473653e-02, 6.10902272e-02, 9.49248150e-02,
          1.97368413e-02, 6.57894742e-03, 5.63909765e-03, 1.22180451e-02,
          1.87969930e-03, 1.69172939e-02, 1.40977446e-02, 1.06203005e-01,
          1.67293236e-01, 1.33458644e-01, 9.39849648e-04, 1.78571437e-02,
          2.81954883e-03, 9.39849648e-04, 4.41729315e-02, 7.51879718e-03,
          9.39849578e-03, 1.31578948e-02, 5.63909765e-03, 9.39849578e-03,
          6.10902272e-02, 3.75939859e-03, 3.75939859e-03, 4.22932319e-02,
          1.87969930e-03, 1.97368413e-02, 1.40977446e-02, 2.81954883e-03,
          4.13533822e-02, 1.03383455e-02, 1.40977446e-02, 1.38888890e-02,
          1.49572650e-02, 1.92307699e-02, 8.11965838e-02, 1.49572650e-02,
          1.28205130e-02, 2.77777780e-02, 2.13675224e-03, 1.28205130e-02,
          2.77777780e-02, 2.35042740e-02, 2.24358980e-02, 5.34188040e-02,
          1.06837612e-03, 2.24358980e-02, 2.13675220e-02, 9.61538497e-03,
          1.14316240e-01, 3.20512825e-03, 2.13675224e-03, 2.13675224e-03,
          5.34188049e-03, 3.20512825e-03, 7.05128238e-02, 2.13675224e-03,
          9.61538497e-03, 9.61538497e-03, 0., 1.92307699e-02,
          3.95299159e-02, 7.47863250e-03, 7.47863250e-03, 1.06837612e-03,
          2.77777780e-02, 3.20512825e-03, 0., 0., 2.13675224e-03,
          4.05982919e-02, 2.13675224e-03, 2.45726500e-02, 3.20512825e-03,
          5.34188049e-03, 2.35042740e-02, 7.47863250e-03, 1.70940179e-02,
          7.47863250e-03, 1.17521370e-02, 7.90598318e-02, 2.99145300e-02,
          1.92307699e-02, 7.47863250e-03, 6.41025649e-03, 1.92307699e-02,
          6.30341917e-02, 6.73076957e-02, 2.35042740e-02, 3.20512825e-03,
          1.38888890e-02, 1.38888890e-02, 1.15384616e-01, 8.54700897e-03,
          1.70940179e-02, 8.54700897e-03, 6.41025649e-03, 1.06837612e-03,
          9.40170959e-02, 1.06837610e-02, 1.06837612e-03, 2.24358980e-02,
          1.06837612e-03, 3.20512825e-03, 6.41025649e-03, 3.20512825e-03,
          1.70940179e-02, 1.28205130e-02, 9.61538497e-03, 1.06837610e-02,
          0., 5.34188049e-03, 7.47863250e-03, 4.70085479e-02,
          3.84615399e-02, 9.61538497e-03, 5.34188049e-03, 1.38888890e-02,
          7.47863250e-03, 0., 6.83760718e-02, 1.06837610e-02,
          1.70940179e-02, 9.61538497e-03, 1.27136752e-01, 5.66239320e-02,
          2.99145300e-02, 1.92307699e-02, 1.34803923e-02, 5.26960790e-02,
          2.32843142e-02, 1.22549024e-03, 3.67647060e-03, 3.18627469e-02,
          1.22549022e-02, 3.06372549e-02, 2.45098043e-02, 4.90196096e-03,
          0., 3.67647060e-03, 3.67647060e-03, 2.45098048e-03,
          3.67647060e-03, 1.59313735e-02, 3.67647060e-03, 2.08333340e-02,
          2.94117648e-02, 2.08333340e-02, 1.02941178e-01, 0.,
          8.57843179e-03, 1.22549022e-02, 2.45098048e-03, 4.90196096e-03,
          0., 6.12745099e-02, 1.22549024e-03, 0., 2.45098048e-03,
          2.45098048e-03, 5.88235296e-02, 2.32843142e-02, 6.12745108e-03,
          2.32843142e-02, 0., 3.67647060e-03, 0., 1.61764711e-01,
          1.22549024e-03, 2.45098048e-03, 2.45098048e-03, 7.59803951e-02,
          2.94117648e-02, 3.67647060e-03, 1.34803923e-02, 6.12745108e-03,
          2.45098048e-03, 6.49509802e-02, 1.34803923e-02, 6.12745108e-03,
          1.96078438e-02, 4.90196096e-03, 1.16421565e-01, 7.35294120e-03,
          9.80392192e-03, 1.10294120e-02, 0., 1.22549024e-03,
          2.08333340e-02, 3.79901975e-02, 5.63725494e-02, 2.94117648e-02,
          5.14705889e-02, 0., 1.71568636e-02, 1.96078438e-02,
          1.22549024e-03, 1.22549024e-03, 6.12745108e-03, 0., 0.,
          9.68137234e-02, 0., 0., 3.06372549e-02, 2.08333340e-02,
          2.81862747e-02, 0., 4.77941185e-02, 1.32352948e-01,
          6.98529407e-02, 4.90196096e-03, 3.67647060e-03, 8.57843179e-03,
          1.96078438e-02, 3.06372549e-02, 1.22549024e-03, 9.80392192e-03,
          2.20588241e-02, 3.06372549e-02, 1.70454551e-02, 4.26136376e-03,
          6.10795468e-02, 2.84090918e-02, 1.42045459e-03, 1.70454551e-02,
          8.52272753e-03, 2.84090918e-03, 2.41477266e-02, 4.26136376e-03,
          0., 1.70454551e-02, 1.66193187e-01, 8.52272753e-03,
          4.97159101e-02, 0., 2.84090918e-03, 4.11931835e-02,
          9.94318165e-03, 7.10227294e-03, 7.10227294e-03, 1.98863633e-02,
          3.55113633e-02, 1.56250000e-02, 1.84659082e-02, 4.68750000e-02,
          1.27840908e-02, 4.26136376e-03, 0., 1.84659082e-02, 0.,
          6.67613670e-02, 2.27272734e-02, 2.84090918e-03, 0.,
          3.55113633e-02, 8.52272753e-03, 0., 0., 5.39772734e-02,
          4.26136376e-03, 5.68181835e-03, 0., 5.68181835e-03,
          2.41477266e-02, 4.26136367e-02, 1.84659082e-02, 1.13636367e-02,
          4.26136376e-03, 1.27840908e-02, 2.55681816e-02, 2.69886367e-02,
          4.68750000e-02, 0., 2.84090918e-03, 8.52272753e-03, 0., 0., 0.,
          8.52272753e-03, 2.13068184e-02, 4.68750000e-02, 0., 0.,
          2.69886367e-02, 0., 2.55681816e-02, 1.56250000e-02,
          1.27840908e-02, 1.42045459e-02, 1.84659082e-02, 3.83522734e-02,
          1.42045459e-02, 1.42045459e-03, 0., 1.84659082e-02,
          1.42045459e-03, 1.27840908e-02, 1.27840908e-02, 2.84090918e-03,
          0., 4.26136376e-03, 5.96590899e-02, 1.42045459e-03,
          4.26136376e-03, 7.10227294e-03, 7.10227294e-03, 4.11931835e-02,
          0., 4.11931835e-02, 0., 1.13636367e-02, 1.70454551e-02,
          1.19318180e-01, 4.26136376e-03, 0., 0., 2.13068184e-02,
          4.40340899e-02 ]
      - [ 6.49999976e-02, 6.49999976e-02, 8.58333334e-02, 2.41666660e-02,
          2.49999994e-03, 4.16666688e-03, 1.75000001e-02, 6.08333349e-02,
          8.74999985e-02, 8.33333354e-04, 5.83333336e-02, 4.99999989e-03,
          1.91666670e-02, 1.08333332e-02, 5.83333336e-03, 2.08333340e-02,
          4.16666679e-02, 1.66666671e-03, 1.25000002e-02, 4.58333343e-02,
          5.58333322e-02, 2.50000004e-02, 5.91666661e-02, 1.66666671e-03,
          1.16666667e-02, 9.99999978e-03, 1.99999996e-02, 2.49999994e-03,
          6.25000000e-02, 8.33333377e-03, 2.08333340e-02, 1.41666671e-02,
          1.75000001e-02, 6.66666683e-03, 1.33333337e-02, 3.08333337e-02,
          6.16666675e-02, 7.49999983e-03, 3.24999988e-02, 8.33333377e-03,
          4.91666682e-02, 8.33333354e-04, 3.83333340e-02, 2.66666673e-02,
          3.83333340e-02, 2.16666665e-02, 3.33333341e-03, 2.08333340e-02,
          4.91666682e-02, 2.91666668e-02, 1.66666671e-03, 9.99999978e-03,
          2.66666673e-02, 4.16666679e-02, 2.49999994e-03, 7.91666657e-02,
          1.25000002e-02, 1.75833330e-01, 1.41666671e-02, 2.49999994e-03,
          4.91666682e-02, 1.25000002e-02, 1.02499999e-01, 8.33333377e-03,
          6.58333302e-02, 5.33333346e-02, 2.16666665e-02, 4.16666688e-03,
          4.99999989e-03, 1.33333337e-02, 3.33333351e-02, 5.83333336e-03,
          7.99999982e-02, 1.35000005e-01, 8.33333354e-04, 1.49999997e-02,
          4.99999989e-03, 3.66666652e-02, 1.25000002e-02, 8.08333308e-02,
          3.33333341e-03, 2.33333334e-02, 6.75000027e-02, 3.38345878e-02,
          6.57894742e-03, 1.22180451e-02, 5.63909765e-03, 8.64661634e-02,
          7.51879718e-03, 2.81954883e-03, 7.51879718e-03, 2.91353390e-02,
          7.51879718e-03, 7.51879718e-03, 3.75939859e-03, 5.92105277e-02,
          7.51879662e-02, 1.87969916e-02, 1.69172939e-02, 5.16917296e-02,
          4.69924789e-03, 7.51879718e-03, 5.35714291e-02, 1.22180451e-02,
          1.69172939e-02, 4.79323305e-02, 1.50375944e-02, 3.75939831e-02,
          4.51127812e-02, 4.69924789e-03, 8.45864695e-03, 3.38345878e-02,
          1.50375944e-02, 1.31578948e-02, 4.98120300e-02, 4.69924789e-03,
          7.51879718e-03, 3.00751887e-02, 1.50375944e-02, 1.53195485e-01,
          1.59774441e-02, 1.03383455e-02, 2.81954883e-03, 3.10150385e-02,
          1.12781953e-02, 2.53759399e-02, 2.91353390e-02, 3.38345878e-02,
          3.75939859e-03, 1.69172939e-02, 1.78571437e-02, 9.39849648e-04,
          4.69924789e-03, 1.69172939e-02, 1.31578948e-02, 3.85338329e-02,
          6.57894742e-03, 2.72556394e-02, 1.03383455e-02, 5.63909765e-03,
          0., 4.51127812e-02, 4.04135324e-02, 1.97368413e-02,
          1.40977446e-02, 6.57894742e-03, 1.87969916e-02, 2.63157897e-02,
          1.50375944e-02, 4.60526310e-02, 5.54511286e-02, 1.81390971e-01,
          7.51879718e-03, 9.39849648e-04, 1.40977446e-02, 1.87969916e-02,
          5.63909765e-03, 1.69172939e-02, 7.14285746e-02, 1.46616548e-01,
          3.85338336e-01, 1.38157889e-01, 0., 9.39849648e-04,
          5.63909765e-03, 3.75939859e-03, 3.75939831e-02, 8.45864695e-03,
          5.63909765e-03, 1.03383455e-02, 6.57894742e-03, 1.97368413e-02,
          9.21052620e-02, 4.69924789e-03, 3.75939859e-03, 4.69924808e-02,
          0., 2.16165408e-02, 1.87969916e-02, 1.87969930e-03,
          5.63909765e-03, 0., 2.34962404e-02, 0., 1.06837610e-02,
          1.28205130e-02, 3.84615399e-02, 4.91452999e-02, 5.34188049e-03,
          3.31196599e-02, 0., 1.49572650e-02, 2.35042740e-02,
          2.67094020e-02, 1.70940179e-02, 3.20512839e-02, 3.84615399e-02,
          4.91452999e-02, 3.20512825e-03, 1.92307699e-02, 1.60256419e-02,
          7.47863250e-03, 9.61538497e-03, 7.47863250e-03, 4.38034199e-02,
          1.06837610e-02, 2.13675220e-02, 1.60256419e-02, 2.24358980e-02,
          4.59401719e-02, 1.06837612e-03, 9.61538497e-03, 2.13675220e-02,
          4.27350448e-03, 7.47863250e-03, 1.06837612e-03, 1.92307699e-02,
          0., 2.13675224e-03, 7.47863250e-03, 5.34188049e-03,
          3.52564119e-02, 1.38888890e-02, 1.38888890e-02, 3.73931639e-02,
          0., 1.06837610e-02, 9.61538497e-03, 8.54700897e-03,
          3.20512825e-03, 7.47863250e-03, 1.92307699e-02, 2.45726500e-02,
          2.99145300e-02, 1.17521370e-02, 6.41025649e-03, 1.70940179e-02,
          4.05982919e-02, 3.20512825e-03, 9.61538497e-03, 1.28205130e-02,
          2.24358980e-02, 4.48717959e-02, 3.31196599e-02, 1.17521370e-02,
          2.24358980e-02, 8.54700897e-03, 2.02991460e-02, 3.20512825e-03,
          3.63247879e-02, 2.77777780e-02, 7.47863250e-03, 1.38888890e-02,
          7.47863250e-03, 0., 8.54700897e-03, 5.34188049e-03,
          9.61538497e-03, 1.06837610e-02, 3.20512825e-03, 6.41025649e-03,
          1.06837612e-03, 1.17521370e-02, 0., 4.27350439e-02,
          2.13675220e-02, 4.70085479e-02, 6.41025649e-03, 5.34188049e-03,
          1.06837610e-02, 2.13675224e-03, 6.30341917e-02, 0.,
          3.52564119e-02, 2.88461540e-02, 7.05128238e-02, 5.98290600e-02,
          2.45726500e-02, 1.49572650e-02, 1.22549022e-02, 2.32843142e-02,
          8.57843179e-03, 0., 1.22549024e-03, 9.80392192e-03,
          1.22549024e-03, 6.74019605e-02, 2.32843142e-02, 1.22549024e-03,
          2.45098048e-03, 2.57352944e-02, 3.67647060e-03, 3.67647060e-03,
          1.22549024e-03, 0., 2.45098048e-03, 1.22549024e-03,
          4.90196096e-03, 2.45098048e-03, 6.12745108e-03, 4.90196096e-03,
          7.35294120e-03, 1.22549024e-03, 4.65686284e-02, 2.45098048e-03,
          1.22549022e-02, 2.57352944e-02, 1.34803923e-02, 5.39215691e-02,
          6.12745108e-03, 2.32843142e-02, 5.02450988e-02, 1.83823537e-02,
          1.22549024e-03, 1.83823537e-02, 1.22549024e-03, 2.45098048e-03,
          6.12745108e-03, 2.04656869e-01, 1.83823537e-02, 8.57843179e-03,
          9.80392192e-03, 3.67647060e-03, 7.35294120e-03, 1.22549024e-03,
          1.34803923e-02, 4.90196096e-03, 1.10294120e-02, 2.08333340e-02,
          3.06372549e-02, 7.35294120e-03, 4.90196096e-03, 3.67647060e-03,
          3.18627469e-02, 7.35294120e-03, 2.32843142e-02, 0., 0.,
          3.30882370e-02, 2.32843142e-02, 2.94117648e-02, 1.67892158e-01,
          1.71568636e-02, 5.75980395e-02, 6.12745108e-03, 1.10294120e-02,
          4.90196096e-03, 1.22549022e-02, 6.12745108e-03, 0., 0.,
          1.83823537e-02, 1.10294120e-02, 0., 4.90196096e-03,
          1.05392158e-01, 2.45098043e-02, 3.92156877e-02, 4.90196096e-03,
          8.45588222e-02, 7.10784346e-02, 2.20588241e-02, 6.12745108e-03,
          0., 2.32843142e-02, 3.18627469e-02, 1.47058824e-02,
          1.22549024e-03, 1.71568636e-02, 0., 1.96078438e-02, 0., 0.,
          1.13636367e-02, 5.68181835e-03, 5.11363633e-02, 0., 0.,
          7.10227294e-03, 1.70454551e-02, 0., 0., 3.40909101e-02,
          2.20170453e-01, 1.42045459e-03, 3.40909101e-02, 0.,
          8.52272753e-03, 6.67613670e-02, 1.56250000e-02, 1.42045459e-03,
          8.52272753e-03, 0., 1.70454551e-02, 7.10227294e-03,
          3.26704532e-02, 2.84090918e-02, 2.69886367e-02, 4.97159101e-02,
          9.94318165e-03, 1.42045459e-03, 1.42045459e-03, 1.84659082e-02,
          1.84659082e-02, 1.42045459e-03, 0., 1.98863633e-02,
          8.52272753e-03, 0., 2.84090918e-03, 4.26136367e-02,
          2.84090918e-03, 2.13068184e-02, 1.42045459e-02, 2.84090918e-03,
          3.55113633e-02, 1.13636367e-02, 1.70454551e-02, 2.84090918e-02,
          7.10227294e-03, 1.70454551e-02, 2.84090918e-03, 2.41477266e-02,
          3.40909101e-02, 7.10227294e-03, 9.94318165e-03, 0., 0.,
          1.42045459e-03, 0., 2.41477266e-02, 2.84090918e-03,
          2.41477266e-02, 1.27840908e-02, 0., 2.27272734e-02, 0.,
          1.42045459e-02, 5.53977266e-02, 1.56250000e-02, 1.56250000e-02,
          2.27272734e-02, 1.27840908e-02, 1.42045459e-03, 4.26136376e-03,
          0., 4.26136376e-03, 5.68181835e-03, 1.27840908e-02,
          7.10227294e-03, 1.56250000e-02, 4.26136376e-03, 1.70454551e-02,
          2.95454532e-01, 1.56250000e-02, 1.26420453e-01, 2.84090918e-03,
          0., 2.41477266e-02, 0., 3.83522734e-02, 0., 1.84659082e-02,
          7.10227294e-03, 5.11363633e-02, 0., 1.42045459e-03,
          4.26136376e-03, 3.40909101e-02, 2.55681816e-02 ]
      - [ 1.07500002e-01, 2.58333329e-02, 2.74999999e-02, 2.91666668e-02,
          1.66666671e-03, 3.33333341e-03, 9.99999978e-03, 2.83333343e-02,
          4.50000018e-02, 0., 5.49999997e-02, 9.16666631e-03,
          1.91666670e-02, 5.83333336e-03, 1.66666671e-03, 1.49999997e-02,
          4.16666679e-02, 8.33333354e-04, 1.16666667e-02, 1.41666671e-02,
          4.58333343e-02, 1.33333337e-02, 3.99999991e-02, 2.49999994e-03,
          9.99999978e-03, 6.66666683e-03, 1.49999997e-02, 3.33333341e-03,
          3.66666652e-02, 1.08333332e-02, 1.31666660e-01, 2.33333334e-02,
          1.91666670e-02, 4.16666688e-03, 4.16666688e-03, 1.33333337e-02,
          6.75000027e-02, 1.66666671e-03, 4.91666682e-02, 6.66666683e-03,
          1.58333331e-02, 3.33333341e-03, 4.08333316e-02, 2.16666665e-02,
          1.75000001e-02, 1.83333326e-02, 5.83333336e-03, 7.49999983e-03,
          4.25000004e-02, 1.66666675e-02, 3.33333341e-03, 4.16666688e-03,
          3.50000001e-02, 9.66666639e-02, 8.33333377e-03, 2.91666668e-02,
          1.66666671e-03, 1.08333332e-02, 2.91666668e-02, 8.33333354e-04,
          2.00000003e-01, 3.33333341e-03, 6.75000027e-02, 6.66666683e-03,
          3.08333337e-02, 1.75000001e-02, 7.49999983e-03, 5.83333336e-03,
          9.16666631e-03, 1.33333337e-02, 5.24999984e-02, 3.33333341e-03,
          6.66666701e-02, 1.59999996e-01, 0., 1.75000001e-02,
          8.33333354e-04, 2.25000009e-02, 9.99999978e-03, 6.58333302e-02,
          4.16666688e-03, 2.50000004e-02, 1.20833330e-01, 1.87969916e-02,
          3.00751887e-02, 4.69924789e-03, 3.75939859e-03, 2.53759399e-02,
          1.87969930e-03, 1.97368413e-02, 7.51879718e-03, 2.25563906e-02,
          1.78571437e-02, 9.39849648e-04, 5.63909765e-03, 2.81954892e-02,
          3.47744375e-02, 1.43796995e-01, 2.16165408e-02, 8.74060169e-02,
          3.75939859e-03, 5.63909765e-03, 1.27819553e-01, 1.40977446e-02,
          3.75939859e-03, 9.39849578e-03, 1.12781953e-02, 4.04135324e-02,
          2.34962404e-02, 1.87969930e-03, 1.03383455e-02, 2.34962404e-02,
          4.41729315e-02, 1.87969916e-02, 8.92857164e-02, 2.81954883e-03,
          6.57894742e-03, 1.87969916e-02, 1.59774441e-02, 9.21052620e-02,
          1.31578948e-02, 7.51879718e-03, 0., 1.31578948e-02,
          1.31578948e-02, 2.81954883e-03, 1.78571437e-02, 3.19548883e-02,
          6.57894742e-03, 1.40977446e-02, 3.28947380e-02, 9.39849648e-04,
          6.10902272e-02, 4.41729315e-02, 1.40977446e-02, 5.63909765e-03,
          2.81954883e-03, 2.81954892e-02, 1.87969930e-03, 1.40977446e-02,
          9.39849648e-04, 5.45112789e-02, 3.10150385e-02, 3.66541371e-02,
          9.39849578e-03, 1.50375944e-02, 7.51879718e-03, 1.31578948e-02,
          1.40977446e-02, 1.15601502e-01, 3.00751887e-02, 1.42857149e-01,
          9.39849578e-03, 0., 9.39849578e-03, 1.97368413e-02,
          2.81954883e-03, 0., 1.69172939e-02, 2.69736856e-01,
          1.22180454e-01, 2.57518798e-01, 2.81954883e-03, 1.22180451e-02,
          1.87969930e-03, 2.81954883e-03, 1.12781953e-02, 9.39849648e-04,
          1.12781953e-02, 5.63909765e-03, 4.69924789e-03, 9.39849578e-03,
          1.97368413e-02, 1.87969930e-03, 9.39849578e-03, 4.79323305e-02,
          0., 1.31578948e-02, 1.87969930e-03, 9.39849648e-04,
          8.45864695e-03, 9.39849648e-04, 3.85338329e-02, 1.28205130e-02,
          1.38888890e-02, 4.27350448e-03, 1.23931624e-01, 1.38888890e-02,
          1.49572650e-02, 9.61538497e-03, 9.61538497e-03, 1.28205130e-02,
          2.88461540e-02, 1.28205130e-02, 1.17521370e-02, 2.13675220e-02,
          2.77777780e-02, 5.55555560e-02, 6.41025649e-03, 2.13675220e-02,
          2.24358980e-02, 1.06837612e-03, 7.47863278e-02, 2.13675224e-03,
          1.06837612e-03, 1.60256419e-02, 3.41880359e-02, 0.,
          1.06837612e-03, 1.38888890e-02, 0., 3.20512825e-03,
          2.02991460e-02, 2.13675220e-02, 1.49572650e-02, 3.20512825e-03,
          3.20512825e-03, 3.20512825e-03, 2.13675224e-03, 0.,
          1.28205130e-02, 2.88461540e-02, 2.13675224e-03, 3.73931639e-02,
          2.13675220e-02, 9.61538497e-03, 1.17521370e-02, 1.06837610e-02,
          9.61538497e-03, 2.13675224e-03, 7.47863250e-03, 1.92307699e-02,
          1.60256419e-02, 1.38888890e-02, 8.54700897e-03, 5.34188049e-03,
          2.67094020e-02, 8.54700878e-02, 3.52564119e-02, 2.56410260e-02,
          2.88461540e-02, 6.51709437e-02, 7.47863250e-03, 2.77777780e-02,
          0., 1.60256419e-02, 1.06837612e-03, 2.13675224e-03,
          3.20512825e-03, 8.22649598e-02, 2.13675220e-02, 1.06837612e-03,
          2.24358980e-02, 1.28205130e-02, 3.20512825e-03, 1.06837612e-03,
          2.13675224e-03, 5.98290600e-02, 1.38888890e-02, 2.13675224e-03,
          0., 0., 0., 1.06837612e-03, 7.47863250e-03, 2.56410260e-02,
          2.45726500e-02, 1.06837612e-03, 9.72222239e-02, 1.17521370e-02,
          1.17521370e-02, 1.34615391e-01, 0., 3.63247879e-02,
          2.56410260e-02, 5.23504280e-02, 1.70940179e-02, 2.35042740e-02,
          1.38888890e-02, 1.22549022e-02, 1.71568636e-02, 1.10294120e-02,
          0., 9.80392192e-03, 2.57352944e-02, 4.90196096e-03,
          2.20588241e-02, 8.57843179e-03, 1.10294120e-02, 1.22549024e-03,
          1.47058824e-02, 4.04411778e-02, 0., 1.22549024e-03,
          9.80392192e-03, 9.80392192e-03, 1.83823537e-02, 1.10294120e-02,
          9.80392192e-03, 1.83823537e-02, 0., 0., 8.57843179e-03,
          5.02450988e-02, 8.57843179e-03, 1.10294120e-02, 2.08333340e-02,
          0., 2.45098048e-03, 0., 9.80392192e-03, 7.23039210e-02,
          1.34803923e-02, 1.22549022e-02, 0., 0., 1.22549022e-02,
          2.45098048e-03, 1.97303921e-01, 3.67647060e-03, 1.59313735e-02,
          7.35294120e-03, 8.21078420e-02, 3.06372549e-02, 1.10294120e-02,
          6.12745108e-03, 0., 0., 9.80392192e-03, 1.59313735e-02,
          3.67647060e-03, 1.34803923e-02, 2.45098048e-03, 2.08333340e-02,
          0., 4.90196096e-03, 9.80392192e-03, 2.45098048e-03,
          6.12745108e-03, 2.32843142e-02, 1.83823537e-02, 1.61764711e-01,
          2.81862747e-02, 1.10294120e-02, 0., 2.45098043e-02,
          4.28921580e-02, 1.10294120e-02, 0., 0., 0., 3.67647060e-03,
          2.03431368e-01, 0., 1.22549024e-03, 1.06617644e-01,
          2.81862747e-02, 2.81862747e-02, 3.67647060e-03, 1.59313735e-02,
          9.55882370e-02, 9.80392192e-03, 0., 2.45098048e-03,
          2.81862747e-02, 1.22549024e-03, 4.90196096e-03, 0.,
          2.81862747e-02, 0., 1.83823537e-02, 2.55681816e-02,
          1.17897727e-01, 2.13068184e-02, 1.56250000e-02, 0.,
          9.94318165e-03, 2.84090918e-03, 1.42045459e-03, 3.26704532e-02,
          1.56250000e-02, 0., 1.27840908e-02, 1.49147734e-01,
          1.42045459e-02, 6.25000000e-02, 7.10227294e-03, 3.12500000e-02,
          2.41477266e-02, 5.11363633e-02, 1.42045459e-02, 1.09375000e-01,
          1.56250000e-02, 1.84659082e-02, 1.27840908e-02, 0.,
          1.84659082e-02, 0., 0., 0., 1.42045459e-03, 3.55113633e-02,
          6.67613670e-02, 1.27840908e-02, 1.70454551e-02, 2.27272734e-02,
          0., 8.52272753e-03, 1.27840908e-02, 0., 7.81250000e-02,
          1.42045459e-03, 0., 2.84090918e-02, 0., 5.25568165e-02,
          2.13068184e-02, 2.13068184e-02, 2.98295449e-02, 8.52272753e-03,
          7.10227294e-03, 1.84659082e-02, 1.98863633e-02, 5.68181835e-02,
          0., 1.13636367e-02, 9.94318165e-03, 0., 2.84090918e-03, 0., 0.,
          1.56250000e-02, 2.27272734e-02, 2.69886367e-02, 5.68181835e-03,
          2.41477266e-02, 0., 1.42045459e-03, 6.96022734e-02,
          7.52840936e-02, 5.68181835e-03, 1.42045459e-02, 3.40909101e-02,
          2.13068184e-02, 0., 2.84090918e-03, 2.13068184e-02,
          5.68181835e-03, 1.42045459e-03, 8.52272753e-03, 0., 0., 0.,
          1.42045459e-03, 0., 0., 0., 0., 4.54545468e-02, 0.,
          1.84659082e-02, 0., 6.39204532e-02, 4.11931835e-02,
          1.42045459e-03, 0., 1.13636367e-02, 9.94318202e-02,
          4.82954532e-02, 3.97727266e-02 ]
      - [ 1.36666670e-01, 1.91666670e-02, 1.66666675e-02, 9.16666631e-03,
          1.66666671e-03, 1.08333332e-02, 1.16666667e-02, 3.99999991e-02,
          9.58333313e-02, 1.66666671e-03, 4.58333343e-02, 5.83333336e-03,
          1.83333326e-02, 3.33333341e-03, 0., 2.16666665e-02,
          1.41666671e-02, 3.33333341e-03, 1.99999996e-02, 3.99999991e-02,
          4.33333330e-02, 1.83333326e-02, 7.83333331e-02, 4.99999989e-03,
          1.41666671e-02, 1.41666671e-02, 1.99999996e-02, 4.99999989e-03,
          6.08333349e-02, 9.99999978e-03, 6.83333352e-02, 1.99999996e-02,
          2.33333334e-02, 8.33333377e-03, 1.41666671e-02, 5.83333336e-02,
          5.08333333e-02, 3.33333341e-03, 2.74999999e-02, 2.83333343e-02,
          2.66666673e-02, 1.66666671e-03, 7.83333331e-02, 1.99999996e-02,
          6.16666675e-02, 1.49999997e-02, 4.99999989e-03, 9.16666631e-03,
          3.41666676e-02, 3.58333327e-02, 1.25000002e-02, 1.49999997e-02,
          8.41666684e-02, 5.08333333e-02, 1.66666671e-03, 9.58333313e-02,
          5.83333336e-03, 2.41666660e-02, 7.49999983e-03, 9.99999978e-03,
          9.16666687e-02, 1.25000002e-02, 6.41666651e-02, 1.66666671e-03,
          3.16666663e-02, 1.11666664e-01, 2.16666665e-02, 8.33333377e-03,
          4.16666688e-03, 9.16666631e-03, 2.25000009e-02, 9.16666631e-03,
          5.99999987e-02, 1.35000005e-01, 8.33333354e-04, 3.91666666e-02,
          1.41666671e-02, 4.08333316e-02, 3.24999988e-02, 1.02499999e-01,
          5.83333336e-03, 8.33333377e-03, 6.49999976e-02, 2.06766911e-02,
          5.63909765e-03, 3.75939831e-02, 1.22180451e-02, 1.03383455e-02,
          1.22180451e-02, 3.75939859e-03, 1.40977446e-02, 2.91353390e-02,
          3.47744375e-02, 4.69924789e-03, 6.57894742e-03, 2.91353390e-02,
          6.29699230e-02, 6.29699230e-02, 2.91353390e-02, 1.11842103e-01,
          2.81954883e-03, 4.69924789e-03, 7.61278197e-02, 1.24060154e-01,
          4.69924789e-03, 1.97368413e-02, 4.69924789e-03, 2.72556394e-02,
          6.20300770e-02, 4.69924789e-03, 3.75939859e-03, 1.50375944e-02,
          2.81954883e-03, 1.31578948e-02, 3.75939831e-02, 0.,
